tree
version=v4
num_class=1
num_tree_per_iteration=1
label_index=0
max_feature_idx=130
objective=binary sigmoid:1
feature_names=tx_count_90d cancel_count_90d auto_renew_count_90d auto_renew_ratio_90d cancel_ratio_90d total_paid_90d avg_paid_90d std_paid_90d max_paid_90d min_paid_90d avg_plan_days_90d max_plan_days_90d min_plan_days_90d avg_discount_90d discount_tx_count_90d unique_payment_methods_90d most_common_payment_method days_since_last_tx latest_auto_renew latest_plan_days membership_days_remaining tx_count_60d cancel_count_60d auto_renew_ratio_60d total_paid_60d avg_paid_60d tx_count_30d cancel_count_30d auto_renew_ratio_30d total_paid_30d tx_count_14d cancel_count_14d total_paid_14d tx_count_7d cancel_count_7d total_paid_7d log_days_90d active_days_90d total_secs_90d avg_secs_per_day_90d std_secs_90d max_secs_day_90d min_secs_day_90d total_unq_90d avg_unq_per_day_90d std_unq_90d total_completed_90d total_skipped_early_90d total_50pct_90d total_75pct_90d total_almost_complete_90d total_plays_90d completion_rate_90d early_skip_rate_90d days_since_last_listen active_days_60d total_secs_60d avg_secs_per_day_60d total_unq_60d total_completed_60d total_plays_60d completion_rate_60d active_days_30d total_secs_30d avg_secs_per_day_30d std_secs_30d total_unq_30d avg_unq_per_day_30d total_completed_30d total_skipped_early_30d total_plays_30d completion_rate_30d early_skip_rate_30d active_days_14d total_secs_14d avg_secs_per_day_14d total_unq_14d total_plays_14d completion_rate_14d active_days_7d total_secs_7d avg_secs_per_day_7d total_unq_7d total_plays_7d completion_rate_7d listening_trend_30v60 listening_trend_14v30 listening_trend_7v14 activity_rate_30d activity_rate_7d tx_trend_30v60 city age gender registered_via tenure_days avg_song_length_90d revenue_per_active_day listening_consistency_90d autorenew_not_cancel discount amt_per_day canc_per_payment_days unq_trend_14v30 listening_trend_ratio secs_cv_30d days_since_tx_per_plan last_trx_gt1_no_cancel ul_last2wk_vs_month_unq_ratio listening_mo1_mo2_trend std_unq_prev_mo activity_density_90d activity_density_30d activity_density_7d usually_auto_renew has_cancelled secs_per_unq_song changed_payment_method discount_ratio expiry_urgency tx_recency_vs_plan last_ul_days_s last_1_is_churn last_2_is_churn last_3_is_churn last_4_is_churn last_5_is_churn transaction_count churn_count churn_rate months_since_last_churn
feature_infos=[0:13] [0:6] [0:13] [0:1] [0:1] [0:1387] [0:500] [0:353.55339059327378] [0:500] [0:500] [1:410] [1:410] [1:410] [0:149] [0:6] [0:4] [0:28] [0:90] [0:1] [1:410] [-17197:59] [0:8] [0:2] [0:1] [0:925] [0:480] [0:8] [0:2] [0:1] [0:596] [0:6] [0:2] [0:509] [0:4] [0:2] [0:509] [0:91] [0:91] [0:7734340.063000001] [0:146947.0024] [0:327624.5079276113] [0:1858553.6229999999] [0:130275.83] [0:32706] [0:1308.24] [0:1168.4184210575709] [0:51065] [0:35244] [0:7388] [0:1724] [0:16154] [0:51081] [0:1] [0:1] [0:90] [0:61] [0:5179386.0189999994] [0:183495.2065] [0:32706] [0:33739] [0:39046] [0:1] [0:31] [0:2918235.3530000001] [0:366646.6605] [0:518129.15707754227] [0:32706] [0:1308.24] [0:17775] [0:35244] [0:39046] [0:1] [0:1] [0:15] [0:1354973.115] [0:357241.27299999999] [0:24435] [0:29104] [0:1] [0:8] [0:828651.78800000006] [0:357241.27299999999] [0:7929] [0:9052] [0:1] [-1484931.6629999997:1144321.6659999995] [-519391.86164100014:604913.20876499976] [-347469.50050000008:369860.17950000003] [0:1.0333333333333334] [0:1.1428571428571428] [-2.5:4] [0:21] [10:80] [0:2] [0:5] [-57:4722] [0:36112.82507692308] [0:696] [0:6.0547275520439472] [0:1] [0:149] [0:6] [0:0.20000000000000001] [-1136.3219999999999:9161.2980000000007] [-0.99999760707987062:0.9999991261206036] [0:3.7806680936463342] [0:57] [0:1] [-1:1.1430000000000002] [0:2288643.3309342675] [0:1168.4184210575706] [0:1.0111111111111111] [0:1.0333333333333334] [0:1.1428571428571428] [0:1] [0:1] [0:36112.82507692308] [0:1] [0:4] [-1:2] [0:57] [0:90] [-1:1] [-1:1] [-1:1] [-1:1] [-1:1] [-1:14] [-1:12] [-1:1] [-1:13]
tree_sizes=13361 13572 13378 13683 13263 13493 13698 13632 13654 13785 13682 13749 13891 13865 13560 13805 13674 13798 13570 13772 13774 13658 13787 13460 13944 13403 13830 13617 13771 13889 13629 13905 13507 13986 13788 13524 13363 13842 13420 13391 13441 13454 13395 13624 13339 13219 13321 13562 13540 13449 13587 13611 13684 13677 13664 13612 13456 13638 13780 13683 13594 13568 13415 13565 12977 13551 13502 13735 13872 13689 13824 13405 12691 12715 12584 12796 13403 13243 13391 13510 13042 12493 13502 12303 12892 12343 13421 13357 12498 13442 12791 13129 11239 11551 13828 11410 11180 12857 11825 11541 11644 12693 10902 12206 11600 10387 11532 10773 12395 10448 13879 13867 11805 13872 13994 12188 12846 12858 14105 14082 12575 12644 11600 8524 12907 11179 11740 11155 12487 12254 12141 8301 13144 8502 10561 11878 11383 11458 8710 13334 13635 13392 9340 10568 12271 11629 10938 12173 9607 13862 9051 12343 10462 9154 11363 11258 11078 11185 13298 9489 13113 11851 13438 8858 11622 10215 10073 11038 11459 9806 10506 7432 11388 10684 8781 9662 11477 6915 10625 13113 9697 8811 10926 13162 6983 11818 11039 9183 12955 13058 4341 9968 10540 5585 12574 6207 11873 7315 11039 9974 8239 10652 13224 12068 8304 12476 6782 9954 8025 12308 5449 11036 9312 7166 10683 9150 11264 7761 8165 10684 7176 11693 12465 7875 11494 5369 9825 7458 10807 12858 11444 11806 9870 12078 8925 8235 5323 12254 11015 8569

Tree=0
num_leaves=126
num_cat=0
split_feature=28 27 21 20 17 7 9 9 95 95 95 127 16 94 94 17 76 16 29 36 109 127 20 5 36 26 29 29 9 54 29 20 20 54 93 127 24 5 20 20 5 36 35 20 29 77 29 95 20 4 47 29 20 20 15 25 79 69 20 17 20 29 46 16 17 127 7 34 17 92 36 27 92 84 20 17 29 123 127 91 24 20 26 17 127 1 91 95 101 20 62 93 81 20 17 7 20 17 65 123 94 105 7 93 86 54 127 106 127 91 32 25 35 55 20 95 95 54 92 17 53 102 17 20 95
split_gain=3.66326e+06 330891 97299.2 72026.7 101782 59455.7 57644.4 59548.5 53066.7 48051.8 78932.2 47873.4 28500.8 25314.9 38783.3 16054.2 15007 13560.3 10349.5 9220.76 7327.72 9424.34 6620 5697.84 5262.03 5064.5 4991.93 4786.66 4538.89 3719.03 2807.32 2502.61 2431.76 2388.13 2105.44 2019.16 1923.37 1905.86 1900.27 1891.23 1618.07 1601.72 1591.76 3265.17 1360.78 1311.62 1292.4 1207.78 1201.06 1134.64 1098.61 1079.25 1074.41 1045.59 1025.3 1002.68 973.028 830.089 757.932 5953.1 751.749 670.411 665.888 597.211 560.525 539.707 527.481 459.45 444.407 415.086 402.969 383.635 360.03 304.33 294.599 308.38 289.809 264.88 247.693 244.676 234.119 229.496 221.891 218.327 213.203 211.804 202.647 159.66 140.855 133.409 148.879 123.323 121.115 120.622 114.229 111.082 107.54 104.621 99.2675 99.1478 98.0306 87.772 85.1778 72.5251 70.2211 69.0871 66.7179 61.9504 56.3043 55.9594 51.3246 40.6033 38.2036 36.9429 36.5626 29.074 25.1427 23.8768 22.8603 18.8138 16.5283 16.0592 5.84285 2.71375 2.40235
threshold=0.91666666666666685 1.0000000180025095e-35 1.5000000000000002 31.500000000000004 3.5000000000000004 1.0000000180025095e-35 18.000000000000004 119.50000000000001 -1.0000000180025095e-35 301.50000000000006 363.50000000000006 6.5000000000000009 26.500000000000004 3.5000000000000004 4.5000000000000009 46.500000000000007 11.500000000000002 27.500000000000004 299.50000000000006 50.500000000000007 0.021493586028562956 1.0000000180025095e-35 26.500000000000004 261.50000000000006 12.500000000000002 2.5000000000000004 304.50000000000006 124.50000000000001 124.50000000000001 2.5000000000000004 109.50000000000001 31.500000000000004 33.500000000000007 9.5000000000000018 1.5000000000000002 7.5000000000000009 338.50000000000006 562.50000000000011 31.500000000000004 1.5000000000000002 446.50000000000006 59.500000000000007 99.500000000000014 52.500000000000007 67.000000000000014 88.500000000000014 99.500000000000014 1258.5000000000002 -1.0000000180025095e-35 0.35416666666666669 16.500000000000004 67.000000000000014 26.500000000000004 26.500000000000004 1.5000000000000002 145.00000000000003 2.5000000000000004 108.50000000000001 44.500000000000007 15.500000000000002 1.5000000000000002 141.50000000000003 13433.500000000002 19.500000000000004 1.5000000000000002 5.5000000000000009 84.912433985998504 1.0000000180025095e-35 1.0000000180025095e-35 23.500000000000004 73.500000000000014 1.5000000000000002 21.500000000000004 0.41512839724814393 12.500000000000002 48.500000000000007 228.50000000000003 -1.0000000180025095e-35 9.5000000000000018 1.5000000000000002 359.00000000000006 -1.0000000180025095e-35 2.5000000000000004 1.5000000000000002 8.5000000000000018 1.5000000000000002 4.5000000000000009 -14.499999999999998 3.8583333333333338 21.500000000000004 4.5000000000000009 1.5000000000000002 9772.30429761905 31.500000000000004 42.500000000000007 138.63961030678931 29.500000000000004 37.500000000000007 2634.4161008556521 -1.0000000180025095e-35 1.5000000000000002 1.2304971986412125 75.340889853793058 1.5000000000000002 -74225.537899499963 2.5000000000000004 1.0000000180025095e-35 0.025694444444444405 1.0000000180025095e-35 3.5000000000000004 99.500000000000014 159.66666666666671 67.000000000000014 44.500000000000007 54.500000000000007 -14.499999999999998 -14.499999999999998 2.5000000000000004 19.500000000000004 19.500000000000004 0.380119789632196 0.022500000000000003 54.500000000000007 46.500000000000007 -14.499999999999998
decision_type=2 2 2 2 2 2 2 2 2 2 2 2 2 2 2 2 2 2 2 2 2 2 2 2 2 2 2 2 2 2 2 2 2 2 2 2 2 2 2 2 2 2 2 2 2 2 2 2 2 2 2 2 2 2 2 2 2 2 2 2 2 2 2 2 2 2 2 2 2 2 2 2 2 2 2 2 2 2 2 2 2 2 2 2 2 2 2 2 2 2 2 2 2 2 2 2 2 2 2 2 2 2 2 2 2 2 2 2 2 2 2 2 2 2 2 2 2 2 2 2 2 2 2 2 2
left_child=2 3 8 6 33 18 24 9 13 39 -11 16 -13 72 86 22 -9 26 25 30 21 34 23 45 51 29 56 74 32 54 89 35 49 36 -17 50 47 105 40 -8 62 -25 58 70 78 -10 106 -5 99 -19 -29 92 71 73 -3 -39 81 -37 59 -6 -31 -46 -32 101 67 -42 -53 -54 -55 115 -44 82 103 -28 75 88 -58 -50 -26 -71 -65 -7 -20 98 -38 120 87 -15 -21 90 108 -88 -2 -48 -92 107 97 -76 -33 -22 116 -35 -85 118 -77 -30 -24 -40 -4 -102 -60 112 -91 -66 -45 -16 -74 -113 -1 -34 -27 -98 -23 -97 -105
right_child=1 5 19 4 42 17 7 11 15 10 -12 12 -14 14 69 20 -18 28 52 27 48 122 46 41 44 85 53 31 37 60 38 83 119 63 -36 57 84 55 95 -41 65 -43 43 114 61 -47 93 -49 77 -51 -52 66 64 68 -56 -57 76 -59 110 -61 -62 -63 -64 80 113 -67 -68 -69 -70 79 -72 -73 100 -75 96 104 -78 -79 -80 -81 -82 -83 -84 102 -86 -87 91 -89 -90 111 94 -93 -94 -95 -96 123 121 -99 -100 -101 109 -103 -104 124 -106 -107 -108 -109 -110 -111 -112 117 -114 -115 -116 -117 -118 -119 -120 -121 -122 -123 -124 -125 -126
leaf_value=-1.8224536846289685 -1.8358983727553295 -1.8618227736173385 -1.8526950200050103 -2.176444602784894 -2.2388065743094869 -1.9609650886281536 -1.9276326856636081 -2.0392419129051502 -1.8075613473320329 -2.0784019454574536 -2.2721687595962852 -2.2674050432058999 -2.2024549333779775 -2.3106915048099279 -1.7756431680698528 -1.8305119546454023 -2.1579636090938843 -2.3283836245177327 -2.1766284070750146 -1.8124986398503977 -1.8485535239757975 -1.7756271415565736 -1.7844288810827824 -1.876775011971282 -1.9295903851545648 -2.3834799014689612 -2.0492238770526665 -2.3834799014689612 -1.8973650603183327 -1.8754971459863639 -1.8821776529352026 -2.3834799014689612 -1.8538819903555381 -2.2885304344979467 -1.8782810714846772 -1.9548159209519307 -2.0764408234477525 -2.2642595275742874 -1.9035740280631401 -2.3553346216964957 -1.9029373140806305 -1.9303045317673446 -2.0933965633867011 -1.8286814126355357 -2.2942568633518516 -1.8455399331025504 -1.8284026155852533 -2.2252176148606035 -1.7811399914735717 -1.8779969510073813 -1.936135648561665 -2.292551619227877 -2.3158258712464685 -2.2143817461698911 -2.0990454328755939 -1.9964138863311522 -1.8692156698817848 -1.986309385156221 -1.7727199311281936 -1.8025857107574748 -1.77469151712222 -2.0687333127422787 -2.3834799014689612 -2.1215322967346113 -1.8067436475106162 -1.9421498811393518 -1.9439065252301269 -1.9570199751343835 -1.8728446284422866 -1.8397230204944954 -2.3218509372894629 -1.8662203817430143 -1.8965811933192236 -2.2168251269359462 -1.8707190813127941 -2.3834799014689612 -2.0357461263818277 -1.7702149213274643 -2.020613237899449 -1.9459068282279364 -2.0085867461525622 -1.7821945082610435 -2.3203691816632963 -1.8476461063380085 -2.1499260136260792 -1.8202974694126302 -2.2640250445173535 -2.3509455087056428 -1.9189719052735377 -1.7781686894820181 -1.86538215504333 -1.8662203817430143 -1.9660622225464293 -1.8017031718436767 -1.8145577441354526 -1.7886094899178397 -1.8021642647453338 -1.8186381832138885 -1.9395268644335246 -1.7667044827194267 -1.8618469767512151 -1.9934389540228754 -1.7874775194780521 -1.7721373258209763 -1.8259225378898551 -1.7722968645299142 -1.7668096065056695 -1.8205680974423744 -1.7792427039797012 -1.8873803362733066 -1.7954816726699097 -1.8301230054365485 -1.8631899975901041 -1.9225927388001081 -1.7747210884410394 -1.8259543582752706 -1.9371301506336418 -1.7906053057765092 -1.8522319822708426 -1.7654259040652134 -2.290553594988721 -1.7686931461811226 -1.7663629400186442 -1.7691667350923741 -1.7941361516168175
leaf_weight=211.30053009837866 578.24000845104456 1570.0717669799924 30.938780918717384 1859.0395499914885 85.132333055138588 19.433445483446121 25.89287605881691 3418.3538954854012 3180.2205587625504 5843.7381719425321 52235.172710984945 28529.572638474405 41400.45439094305 556.97628132998943 264.25861735641956 5156.2509070038795 12026.488265298307 866.22848030179739 153.81716044992208 35.052138112485409 686.89565886557102 176.4491848051548 699.89035288989544 4412.6982243731618 231.77974053472281 35.838293381035328 32.241245783865452 13.75284396111965 14.77954003959894 193.96529097110033 4678.3026141226292 1.2943853139877308 13.566053807735445 59.4527458101511 4173.933910779655 3508.8967489078641 290.82206781953573 77.480745129287243 23.525473795831203 14422.570699036121 1424.6090870648623 2045.140792787075 84.916134469211102 43.474475540220737 34.510083191096783 7972.3866298943758 1613.2948159575462 4001.3771388828754 31729.492012113333 14.213246464729307 6677.7091623321176 11.287630178034304 15.1707861199975 12.139278762042521 46.909724973142147 63.639675870537758 41.911647655069828 5182.5968124642968 822.59087872505188 962.06099987775087 3977.0709805116057 730.44705966860056 6.6337247341871253 1083.3841132223606 30.25334694236517 2284.9192028939724 279.02189472317696 21.660378463566303 44.219479717314243 236.88672226667404 24.980903938412666 8.9290608018636686 89.588459022343159 169.36228021234274 158.12990736216307 0.56629357486963172 69.362181819975376 6723.7178194820881 110.31112004071474 70.367549017071724 47.910675726830959 235.55926541239023 32.5258474573493 434.80798871070147 149.41478513926268 1.8224375694990147 107.40090952068567 441.65900442004204 272.8823973685503 306.05554105341434 249.6092070415616 1.9842357337474812 18.44132761657238 573.36182487010956 198.44565559178591 21.566983386874199 163.3170348405838 247.12341771274805 46.237540327012539 39.105925105512142 593.23133063316345 2.6314283907413474 68.022228971123695 59.599891543388367 202.49060969799757 43.662019029259682 2312.6359948515892 505.05790399760008 166.46401949226856 336.19115069508553 354.34130375832319 88.102867111563683 13.808751054108141 8.9077319204807264 112.9617208763957 32.21625379472971 66.684432558715343 67.515505596995354 92.73544367402792 10.794156134128569 5.522466465830802 45.910280890762806 4802.3772000521421 106.92811459302902 15.673846386373041
leaf_count=472 1432 4623 86 16032 830 92 107 21013 6249 40053 540726 292878 376468 6153 367 12268 99702 9846 1327 72 1858 245 1083 14184 966 443 204 170 53 619 15494 16 38 633 13530 16222 1983 791 87 170951 5252 8550 605 102 371 21131 3777 38030 47214 46 28620 121 169 113 339 342 129 26906 1099 1804 5455 4879 82 8269 59 10041 1235 101 139 603 281 27 320 1584 491 7 422 8679 641 314 268 355 365 1169 1217 4 1096 5200 1085 439 751 6 89 1066 415 35 305 535 201 48 1747 14 109 79 465 58 2843 1111 242 1145 619 209 41 36 155 74 287 112 257 13 59 58 5865 136 27
internal_value=-2.07445 -2.2135 -1.84288 -2.22815 -2.09786 -1.89573 -2.23628 -2.23966 -1.81493 -2.27297 -2.25267 -2.21136 -2.22895 -2.01516 -2.14574 -1.80659 -2.13169 -2.15459 -1.8224 -1.92445 -1.79162 -1.82224 -1.84172 -1.85635 -1.96913 -1.80836 -1.96832 -1.94691 -2.25987 -1.80433 -1.88677 -1.95395 -2.30748 -2.18989 -1.85188 -1.9577 -2.20217 -2.04404 -1.89601 -2.35457 -1.90242 -1.89373 -1.82094 -1.93645 -2.04184 -1.83471 -1.79214 -2.20975 -1.78043 -2.32111 -1.93706 -1.87839 -2.1243 -2.1368 -1.8687 -2.14347 -1.84965 -1.97359 -1.80711 -1.83805 -1.77938 -2.07891 -1.88289 -2.12504 -1.96479 -1.92709 -1.95746 -2.10481 -1.94641 -1.82332 -2.14533 -2.18638 -1.86259 -2.19002 -1.84726 -1.87531 -1.97302 -1.77923 -1.95894 -1.86404 -2.11675 -1.79582 -2.20172 -1.84919 -2.10138 -2.34783 -2.32142 -2.32849 -1.90685 -1.81213 -1.82693 -2.25681 -1.83992 -1.8214 -1.84287 -1.81413 -1.82393 -1.83896 -1.95162 -1.84414 -1.87724 -2.27602 -1.83951 -1.82066 -1.82748 -1.80393 -1.7709 -1.82426 -1.79075 -1.87108 -1.77957 -1.79203 -1.78184 -1.8331 -1.78972 -1.78111 -1.91388 -1.81298 -1.83154 -1.81469 -2.37107 -1.79482 -1.76669 -1.77243 -1.77672
internal_weight=284418 177712 106706 169881 9984.49 7831.06 159896 157902 79474.6 72527.4 58078.9 85374.9 69930 3176.75 1711.75 76297.9 15444.8 1728.59 6102.47 27231.3 53488.2 14309 22809.6 17610.4 1994.04 5831.2 624.229 17058.8 1104.36 5788.02 10172.5 15933.3 904.802 7494.03 9330.18 15383 6300.65 199.562 9051.54 14448.5 8394.46 6457.84 2490.46 266.333 1107.05 11152.6 5199.18 5860.42 39179.2 880.442 6691.46 886.991 271.264 257.962 1616.98 141.12 366.267 8691.49 2224.13 1047.19 4171.04 764.957 4684.94 1193.38 75.9922 3709.53 290.31 36.8312 56.3588 603.729 109.897 195.272 1465.01 201.604 1125.47 510.991 111.274 38453.2 342.091 307.254 1131.29 254.993 186.343 550.362 440.237 43.1832 1108.02 998.635 307.935 1120.94 645.458 109.385 596.681 2186.66 448.055 657.078 614.481 405.253 47.5319 726.002 1085.7 62.0842 502.83 379.31 203.057 58.4416 3012.53 528.583 197.403 929.422 1176.93 475.483 319.864 39.1611 156.436 296.475 156.273 155.618 304.036 24.3602 41.3608 209.227 4978.83 128.495 75.2737
internal_count=1929125 1651424 277701 1623573 71941 27851 1551632 1541898 166737 751837 580779 790061 669346 18147 13813 148590 120715 14225 13626 110964 89707 31908 58883 50114 9734 11542 3038 76431 11187 11036 34533 73413 9943 66446 25798 71918 57262 1244 32238 171058 30869 22734 5495 1143 6857 27380 8769 54062 57799 9892 28790 2877 2084 2040 4962 1133 998 43128 4352 2634 6074 5250 15576 9184 365 15293 1356 270 252 1358 886 1719 4334 1788 3018 1629 551 55893 1607 917 8537 447 1692 1495 3200 506 12455 11353 1157 2295 1494 1102 1521 4843 1166 1369 1389 1026 217 1906 3499 647 1278 835 472 111 3926 1198 328 2892 1718 801 480 95 257 441 607 321 729 51 502 363 6110 171 106
is_linear=0
shrinkage=1


Tree=1
num_leaves=127
num_cat=0
split_feature=28 27 20 17 8 5 95 127 127 21 76 7 95 17 17 94 94 5 20 16 16 62 17 29 5 20 9 26 29 54 127 2 80 20 99 36 20 20 124 20 82 24 7 92 54 95 20 34 83 36 20 17 20 17 17 20 20 16 127 125 79 20 17 62 109 20 47 71 99 15 95 29 2 5 56 95 90 84 74 20 91 17 47 6 129 53 4 87 17 20 95 17 92 92 20 92 20 17 28 30 95 92 17 92 29 127 106 109 20 109 41 81 28 95 94 91 104 82 79 94 106 91 91 17 20 101
split_gain=1.58134e+06 167213 43870.6 42764.5 38350.1 38881.1 38612.1 54084.9 51010.4 24890.8 22875.2 21203.9 15783.8 13532 10783.7 10282.8 19507.4 10173.5 8287.77 7231.41 6835.79 4327.62 3762.18 3314.19 3305.77 3113.22 2931.45 2038.19 1845.12 1671.24 2649.53 1619.34 1546.26 1540.58 4407.39 1554.49 1398.79 1299.93 1204.83 1112.18 1086.32 933.244 930.783 925.346 839.365 751.56 700.435 686.447 665.483 658.758 619.196 3145.43 589.124 528.454 519.217 508.991 499.297 498.915 424.462 422.833 367.463 350.196 346.677 324.565 317.882 314.585 312.513 236.015 217.858 215.03 214.95 209.661 200.487 194.653 323.173 186.167 182.914 180.693 171.392 256.309 170.473 169.363 162.46 155.08 152.482 149.766 148.959 148.542 145.108 819.702 144.658 122.756 122.368 103.91 96.5849 87.4173 80.1783 69.6982 69.4214 77.714 59.7103 53.7539 52.5779 51.7047 48.9623 48.4216 47.0339 44.4064 44.0984 41.5229 37.9379 27.9433 27.9408 24.4216 21.6848 22.0642 16.8557 15.682 15.3718 14.0681 12.7521 9.6814 8.32601 6.37892 5.44662 3.73183
threshold=0.91666666666666685 1.0000000180025095e-35 31.500000000000004 2.5000000000000004 119.50000000000001 369.00000000000006 301.50000000000006 12.500000000000002 9.5000000000000018 1.5000000000000002 10.500000000000002 1.0000000180025095e-35 -1.0000000180025095e-35 16.500000000000004 1.0000000180025095e-35 3.5000000000000004 4.5000000000000009 84.500000000000014 1.5000000000000002 27.500000000000004 27.500000000000004 4.5000000000000009 39.500000000000007 299.50000000000006 446.50000000000006 1.5000000000000002 124.50000000000001 2.5000000000000004 304.50000000000006 86.500000000000014 1.0000000180025095e-35 1.0000000180025095e-35 5255.7385000000004 22.500000000000004 1.0000000180025095e-35 35.500000000000007 33.500000000000007 1.5000000000000002 -1.0000000180025095e-35 20.500000000000004 36.500000000000007 338.50000000000006 36.143373538005264 24.500000000000004 1.5000000000000002 1762.5000000000002 -1.0000000180025095e-35 1.0000000180025095e-35 33.500000000000007 22.500000000000004 38.500000000000007 21.500000000000004 31.500000000000004 29.500000000000004 28.500000000000004 26.500000000000004 26.500000000000004 27.500000000000004 6.5000000000000009 -1.0000000180025095e-35 2.5000000000000004 55.500000000000007 3.5000000000000004 15.500000000000002 0.25014658222972042 39.500000000000007 2.5000000000000004 0.88140791004993069 1.0000000180025095e-35 1.5000000000000002 40.500000000000007 416.50000000000006 4.5000000000000009 538.00000000000011 68252.771500000017 63.500000000000007 1.0000000180025095e-35 0.60787840315982511 12748.384500000002 1.0000000180025095e-35 4.5000000000000009 1.5000000000000002 23.500000000000004 174.31666666666669 0.10555555555555557 0.50252937027790323 0.35416666666666669 -5810.4627499999997 18.500000000000004 43.500000000000007 -14.499999999999998 29.500000000000004 25.500000000000004 23.500000000000004 12.500000000000002 41.500000000000007 29.500000000000004 23.500000000000004 0.41666666666666669 1.0000000180025095e-35 -14.499999999999998 24.500000000000004 50.500000000000007 25.500000000000004 67.000000000000014 1.0000000180025095e-35 1.1833333333333336 0.43936802967147237 1.5000000000000002 0.43074629593305985 17211.930500000006 2139.9484166666671 0.41666666666666669 -14.499999999999998 1.5000000000000002 1.5000000000000002 0.99980910394649436 30.500000000000004 3.5000000000000004 2.5000000000000004 1.0166666666666668 4.5000000000000009 18.500000000000004 45.500000000000007 45.500000000000007 5.9347826086956532
decision_type=2 2 2 2 2 2 2 2 2 2 2 2 2 2 2 2 2 2 2 2 2 2 2 2 2 2 2 2 2 2 2 2 2 2 2 2 2 2 2 2 2 2 2 2 2 2 2 2 2 2 2 2 2 2 2 2 2 2 2 2 2 2 2 2 2 2 2 2 2 2 2 2 2 2 2 2 2 2 2 2 2 2 2 2 2 2 2 2 2 2 2 2 2 2 2 2 2 2 2 2 2 2 2 2 2 2 2 2 2 2 2 2 2 2 2 2 2 2 2 2 2 2 2 2 2 2
left_child=9 2 4 32 6 20 17 8 -8 12 14 23 15 -12 -7 93 80 110 -9 28 21 -6 33 27 49 -22 36 40 63 46 43 38 58 34 35 -14 42 -19 60 -36 76 45 -21 -31 62 -34 68 -42 85 96 51 57 -50 59 82 73 77 -5 61 66 107 -4 -28 108 -60 -62 -51 -43 -24 75 -48 -46 -58 103 -75 -57 -3 -30 105 83 90 -71 -35 -80 -61 -40 116 -65 89 -52 -17 -81 101 113 102 -82 98 -53 104 -100 -94 -18 -55 -25 -11 111 -56 -26 -13 -107 -2 -33 117 119 121 -116 -29 -98 -114 -1 -96 -95 -115 -32 -38 -90
right_child=1 11 3 50 5 10 7 18 -10 24 13 19 22 -15 -16 16 92 37 -20 26 25 -23 29 55 31 -27 44 86 56 30 123 78 41 54 39 -37 124 -39 48 -41 47 67 -44 -45 71 -47 70 -49 52 53 88 97 -54 94 106 69 72 -59 64 84 65 -63 -64 87 -66 -67 -68 -69 -70 81 -72 -73 -74 74 -76 -77 -78 -79 79 91 95 -83 -84 -85 -86 -87 -88 -89 125 -91 -92 -93 100 114 120 -97 112 -99 99 -101 -102 -103 -104 -105 -106 109 -108 -109 -110 -111 -112 -113 118 122 115 -117 -118 -119 -120 -121 -122 -123 -124 -125 -126 -127
leaf_value=0.31106195154519317 0.30829159398311523 0.30906960860845878 0.22543107366042286 0.15700983025567758 0.27499174174746221 0.062750206351140772 0.045098118271943127 0.46344040425324479 0.17442805707619874 0.33531334214395964 0.056697887479577325 0.27142583468263898 0.3173612150449574 0.10208071638278003 0.15560351977850065 0.016765923776834925 0.33622750855543021 0.27846093666040683 0.022352439308110619 -0.0014325249436128703 0.36295760569789393 0.19228212070740125 0.31562600173328553 -0.055042478164488054 0.32330079285092866 0.09838027114140048 0.27063059465355221 -0.054687226763862562 0.17814244123577153 0.32523711842800851 0.35243703109986513 0.25814284000290749 0.11472001328954291 0.33014442821224455 0.11339751645748566 0.28808677922403092 0.30155150861733421 -0.025958199540306395 0.28704499903765729 0.32025665784268192 0.27112308094091014 0.15106910199053539 0.31831552376433925 0.29094811468947473 0.32361908030795061 0.077450285369526403 0.30681166489776063 0.32722996647850988 0.25037638026393949 -0.054720084689801635 0.19992166776999329 0.29444149327537383 0.30171002285773424 0.29911841959124347 0.33986013579577889 -0.05659047002587532 0.30295170977858205 -0.032672238228421406 0.15740862271979053 0.26454689638310275 0.27293097638242997 0.13877223231482733 0.070625773582056448 0.2985236212352505 0.11721267110623053 0.3271535013803859 0.29661506033356533 0.23539999134217282 0.14133279229877754 0.015664723497080698 0.33728705053368047 0.13225426766818768 0.092307852670022714 0.2745450600167047 0.10562617560972637 0.31107840730507291 0.34041302177134386 0.084333402088272447 0.072077711393493657 0.29481492744013638 0.04697135031908603 0.29466132780738119 0.31203490094637065 0.30377387000569017 0.28746520738705639 0.1944804860163146 0.35868475674924172 0.19290060886805183 0.34894838079504381 0.33182186196697033 -0.021625018649080282 0.3271894054117227 0.17696927977049648 0.28002584077761788 0.35064902825043776 0.17391890428281634 0.34901794232949768 0.3426064920470327 0.30240104043420579 0.045124078902166034 0.28809569830460874 0.31083214688967437 0.3297119136976453 0.22261817709195944 0.31272845180547865 0.35032205132528521 0.3551247201107775 0.30157470823519933 0.33639714958544831 0.31928767652808987 0.25636927507638918 0.34554725777185169 0.32839983571027287 0.30706541321834951 0.30408225460124028 0.28973964515007194 0.040243945550435867 0.33273263750458099 0.27705532973626062 0.33350653873476316 0.33257130902934851 0.33671954460617143 0.34106327262591196 0.34192087785834541 0.34065775479381905 0.33637494857228201
leaf_weight=90.395698130130768 203.20220474898815 504.69458530843258 295.45527878403664 180.49725921452045 2126.2321795746684 3877.3966932669282 13535.932411715388 106.87284021824598 17457.489496767521 288.19750164449215 37273.474245809019 28.096982456743717 13627.751465395093 29366.736022546887 16154.883294731379 565.22964495420456 465.5572858825326 35.156228981912136 30079.722277596593 863.22220332920551 117.69498333334923 6173.4301067218184 3736.6874251887202 18.089368894696239 367.95770690590143 2009.9413171857595 28.229907214641571 34.783850960433483 78.918192766606808 2780.0540320128202 147.4865580946207 32.481037564575672 2784.4818526804447 1912.7285543382168 371.91410776972771 6796.2264517098665 15.684271045029162 14048.571525424719 1722.8769176080823 78.733563624322414 1170.1984448060393 329.43624621629715 23.376361429691315 6732.608557343483 114.43524651229382 2630.5661188662052 583.92398458719254 1020.6098701879382 14846.604984603822 6.3369126692414275 125.74703972786665 85.849283918738365 580.77500635385513 451.77029398828745 3449.9857198372483 3.6082102730870238 62.654250733554363 42.907779350876808 1085.1106237471104 1958.2742527499795 4352.1906696408987 192.56114889681339 93.18523471057415 62.0224329829216 899.65900219976902 285.0148104429245 5369.1438695266843 110.89590461552143 18.015298843383789 14.419305071234705 63475.190522134304 16.359255023300648 13.780664771795271 34.163285508751869 165.41009244322777 75.167905434966087 5989.6502398699522 146.85312710702419 19.806840091943741 1502.917283654213 100.38790364563465 8.7344895079731923 3512.9661939293146 11.366518929600717 1153.1180410906672 44.835442617535591 2.4625842571258536 71.845542147755623 800.11569848656654 1861.241988427937 433.60202825069427 363.65258464217186 19.72832840681076 208.37319365143776 120.50231072306633 15.678892731666563 239.57630094140768 600.43033277988434 7.1243082731962186 4.9918127730488777 31.21278864890337 377.19770883023739 203.78799957036972 1.8479253202676762 1434.192313157022 252.70628254115582 591.10205449163914 651.83247136324644 370.56757993251085 187.93777527660131 42.546970419585705 12.727466166019438 29.215049840509892 271.33663024753332 799.87192196398973 403.37224302440882 5.4021484851837149 385.99456492811441 29.094185017049313 306.65310490131378 512.192815952003 7.8125706911087027 19.288505807518959 6476.5256939306855 20.595813743770123 63.71318644285202
leaf_count=162 382 907 1617 1175 8574 36530 131332 261 123348 333 347025 86 23063 248843 117171 6153 468 104 312957 9761 407 38372 6462 219 738 15958 111 445 501 4193 132 92 22311 2564 2071 16996 26 170223 4832 139 3112 2165 131 15456 241 23584 1110 1556 54288 81 597 160 1154 1054 3006 36 153 412 7366 6337 13537 1403 773 166 7110 382 13013 556 86 146 61543 119 99 161 1326 164 5461 1287 129 4092 983 19 6113 27 3060 199 2 340 654 2166 5200 516 97 591 109 119 263 597 15 34 90 703 273 13 2916 300 515 1572 406 378 145 18 41 504 1647 1000 59 486 67 393 628 14 23 5141 25 68
internal_value=0.193338 0.0987281 0.0874204 0.179501 0.0809715 0.101755 0.0542458 0.0715496 0.117945 0.312185 0.0907805 0.287578 0.32342 0.076697 0.137631 0.22722 0.146273 -0.0196331 0.0239141 0.14067 0.192974 0.213471 0.326884 0.320207 0.276643 0.113016 0.0607345 0.326013 0.253199 0.332338 0.317876 0.266314 0.116308 0.311794 0.304207 0.30762 0.0194502 -0.0251983 0.262224 0.149538 0.327707 0.102307 0.00699806 0.300969 0.211801 0.0966148 0.335779 0.297261 0.255639 0.29802 0.319451 0.283534 0.252309 0.292239 0.328525 0.162535 0.154519 0.120579 0.149461 0.28771 0.28224 0.191237 0.117128 0.309199 0.139189 0.276264 0.296201 0.172308 0.31479 0.254866 0.337009 0.299684 0.264974 0.11966 0.134542 0.294238 0.337977 0.117124 0.305532 0.298748 0.00676488 0.120913 0.318419 0.156559 0.273041 0.284697 -0.018794 0.241837 0.330912 0.323475 0.000100062 0.301122 0.320312 0.304383 0.322079 0.0641201 0.321385 0.336581 0.315668 0.196404 0.245059 0.324861 0.308629 -0.029307 0.316507 0.33203 0.342093 0.309414 0.331818 0.337086 0.299302 0.28275 0.335884 0.320335 0.296655 0.299274 -0.0419258 0.338969 0.302781 0.328397 0.336014 0.282075 0.309322 0.342155 0.323752 0.348021
internal_weight=351594 195757 184698 12088.7 172609 97099.8 75509.5 61180 30993.4 155837 86672.5 11059.1 118408 66640.2 20032.3 4115.7 2008.59 14329.5 30186.6 2009.83 10427.3 8299.66 114292 9049.24 37429.2 2127.64 1175.09 8727.8 834.739 83950.5 16136.7 25235.7 8328.17 30341.4 20874.6 20424 922.879 14083.7 22852.1 450.648 8685.15 5855.38 886.599 9512.66 252.21 5415.05 67813.8 2190.81 17195.1 12193.5 3760.5 909.685 15427.4 9775.13 9466.78 321.441 302.206 223.405 2472.79 8486.87 5657 488.016 121.415 532.533 1984.77 4637.21 5375.48 440.332 3754.7 101.93 64059.1 130.795 76.4349 219.511 199.573 78.7761 6494.34 225.771 2383.6 1897.74 1114.9 23.1538 5425.69 31.1734 3111.39 1767.71 42.6486 133.868 2850.82 1986.99 998.832 1866.57 893.696 2107.1 1288.25 116.067 2418.39 686.28 1734.51 12.1161 50.9411 842.755 655.558 19.9373 1722.39 485.853 4041.09 1019.79 398.665 440.644 245.749 45.2085 683.88 687.674 1419.43 1203.24 40.186 625.571 58.3092 397.049 632.695 216.186 290.625 6624.01 36.2801 863.829
internal_count=1929125 1651424 1623573 71941 1551632 812880 738752 567898 254680 277701 749569 27851 166737 595868 153701 18147 13813 170854 313218 14225 63311 46946 148590 13626 110964 16365 11187 11542 3038 94123 24922 82254 66112 54467 42269 40059 9943 170327 76702 2210 11036 48616 9892 19649 1244 45895 69201 4668 60473 28710 5829 2344 55442 24555 12198 2084 2040 1587 17496 22491 16229 3020 884 998 14476 13919 13094 2721 6548 365 62653 360 252 1719 1487 200 6368 1788 5552 4764 12455 165 8677 156 9397 5031 506 506 3485 2763 11353 4608 1358 4334 2064 1102 4155 757 3298 49 187 1171 1327 232 3249 788 3521 2310 492 678 527 110 857 1082 3252 2647 504 749 108 555 737 605 527 5273 51 722
is_linear=0
shrinkage=0.05


Tree=2
num_leaves=125
num_cat=0
split_feature=28 27 8 95 95 127 20 127 32 20 20 21 26 20 16 20 95 6 17 94 94 17 82 16 7 62 77 82 17 125 29 29 17 16 29 20 20 8 83 36 127 0 25 7 20 27 79 129 8 79 20 83 17 105 62 69 94 31 69 6 29 20 20 54 3 123 50 36 99 29 5 71 73 76 66 91 95 90 95 127 72 104 99 87 26 20 20 98 20 46 15 93 92 101 69 23 20 92 42 95 58 4 6 86 95 92 48 96 17 81 2 20 130 93 94 91 109 20 95 95 97 17 92 0
split_gain=927710 107116 31034.6 35571.4 34090.7 26299.6 25805.5 20202 15549.7 20480.3 37168.9 13141.6 11552.5 9518.75 8195.78 8142.24 7865.13 7744.72 6653.52 5658.79 12526.3 5577.45 5079.64 4806.03 4036.53 3565.01 2869.33 2238.97 1988.31 1727.45 1272.69 1208.81 1155.89 1069.82 999.963 990.988 936.823 931.409 902.729 861.83 1373.17 840.709 830.058 815.169 754.86 712.309 633.517 617.473 614.92 594.4 587.904 584.964 583.648 556.379 494.018 453.148 443.327 357.429 351.224 320.157 315.262 314.076 272.097 258.289 236.008 232.552 227.123 222.971 237.971 215.709 193.577 188.657 152.77 150.13 144.98 144.664 139.911 132.758 131.123 129.22 121.223 119.167 113.438 112.516 112.149 106.869 105.277 99.5303 87.9402 87.6843 83.5819 65.3744 62.4015 59.5446 70.286 53.453 53.7961 53.3344 52.193 51.0686 50.5512 47.6413 34.9772 32.525 31.18 29.2416 28.3086 32.6655 26.6716 25.865 25.1647 20.9571 20.1539 18.0662 11.5476 11.2426 9.5028 12.5818 6.9161 6.02505 2.74061 1.35545 0.577981 0.00343974
threshold=0.91666666666666685 1.0000000180025095e-35 119.50000000000001 301.50000000000006 363.50000000000006 6.5000000000000009 31.500000000000004 12.500000000000002 67.000000000000014 11.500000000000002 12.500000000000002 1.5000000000000002 2.5000000000000004 31.500000000000004 27.500000000000004 1.5000000000000002 -1.0000000180025095e-35 74.625000000000014 2.5000000000000004 3.5000000000000004 4.5000000000000009 1.0000000180025095e-35 2.5000000000000004 26.500000000000004 1.0000000180025095e-35 11.500000000000002 38.500000000000007 3.5000000000000004 41.500000000000007 -1.0000000180025095e-35 446.50000000000006 359.00000000000006 29.500000000000004 27.500000000000004 278.50000000000006 1.5000000000000002 1.5000000000000002 141.50000000000003 167.50000000000003 1.0000000180025095e-35 1.0000000180025095e-35 1.5000000000000002 147.50000000000003 36.143373538005264 37.500000000000007 1.5000000000000002 3.5000000000000004 0.11805555555555557 141.50000000000003 2.5000000000000004 30.500000000000004 3.5000000000000004 3.5000000000000004 0.39406124449082447 21.500000000000004 77.500000000000014 4.5000000000000009 1.0000000180025095e-35 1.5000000000000002 136.08333333333334 124.50000000000001 -1.0000000180025095e-35 26.500000000000004 1.5000000000000002 0.55000000000000016 -1.0000000180025095e-35 119.50000000000001 69.500000000000014 1.0000000180025095e-35 199.50000000000003 359.00000000000006 0.66265542940994759 5.5000000000000009 4.5000000000000009 58.500000000000007 4.5000000000000009 1795.5000000000002 1.0000000180025095e-35 -14.499999999999998 12.500000000000002 0.28262539237293799 0.99997070315595182 1.0000000180025095e-35 -435.74399999999997 5.5000000000000009 40.500000000000007 1.0000000180025095e-35 1.218926909051097 3.5000000000000004 2159.5000000000005 1.5000000000000002 1.5000000000000002 25.500000000000004 4.136111111111112 43.500000000000007 1.0000000180025095e-35 15.500000000000002 23.500000000000004 4.2845000000000004 143.50000000000003 1991.5000000000002 0.30952380952380959 162.20000000000002 6060.6161370000054 -14.499999999999998 23.500000000000004 38.500000000000007 140.04431314964162 1.5000000000000002 15237.20861607143 1.0000000180025095e-35 1.5000000000000002 1.5000000000000002 1.5000000000000002 1.5000000000000002 1.5000000000000002 0.69489691006489085 27.500000000000004 -14.499999999999998 -14.499999999999998 9.7186956521739152 45.500000000000007 20.500000000000004 2.5000000000000004
decision_type=2 2 2 2 2 2 2 2 2 2 2 2 2 2 2 2 2 2 2 2 2 2 2 2 2 2 2 2 2 2 2 2 2 2 2 2 2 2 2 2 2 2 2 2 2 2 2 2 2 2 2 2 2 2 2 2 2 2 2 2 2 2 2 2 2 2 2 2 2 2 2 2 2 2 2 2 2 2 2 2 2 2 2 2 2 2 2 2 2 2 2 2 2 2 2 2 2 2 2 2 2 2 2 2 2 2 2 2 2 2 2 2 2 2 2 2 2 2 2 2 2 2 2 2
left_child=11 2 3 17 25 14 7 -6 9 15 -11 16 24 21 22 -7 19 106 -15 97 75 -10 41 -24 31 53 37 48 36 54 43 49 47 59 -35 65 67 -16 -27 40 56 -4 -28 44 45 -14 73 55 76 86 -48 -37 -8 -5 70 64 -30 -51 100 -29 88 82 71 83 -31 -19 -57 68 -18 -62 93 -33 98 -38 111 78 -26 -74 -21 -50 84 -63 -41 89 -45 -76 -3 -69 -60 -32 -85 -77 105 110 -95 96 102 113 -49 -65 -56 -101 -34 -82 -94 -22 109 -108 -64 -2 -13 -72 -98 118 119 -116 120 -118 -1 -99 -97 -42 -115 -102
right_child=1 12 5 4 6 8 52 -9 13 10 -12 29 30 18 26 -17 28 35 -20 20 92 -23 23 -25 27 38 42 33 39 32 63 62 95 34 -36 51 46 -39 -40 61 121 -43 -44 80 -46 -47 50 72 79 57 -52 -53 -54 -55 58 66 -58 -59 60 -61 69 81 108 99 -66 -67 -68 87 -70 -71 74 -73 77 -75 85 91 -78 -79 -80 -81 103 -83 -84 90 -86 -87 -88 -89 -90 -91 -92 -93 104 94 -96 116 112 114 -100 101 123 -103 -104 -105 -106 -107 107 -109 -110 -111 -112 -113 -114 122 115 -117 117 -119 -120 -121 -122 -123 -124 -125
leaf_value=0.24422847727816241 0.22863535561828888 0.22674614744203889 0.25333364513872308 0.20621725025955692 0.082083370245572787 0.31349473262261873 0.018808814142154597 0.022251910865390672 0.027100452356927603 0.274991620642551 0.10332986950628305 0.26040098419714336 -0.023277278267421018 0.093795587702569558 0.053592007989976924 0.073752053911074741 0.2237277682821692 0.027103554817546567 0.22610547501035827 0.015704942133283186 0.25384296742853169 0.065887890458151896 0.12336575976849867 0.18751098268019525 -0.054925027404740062 0.14470792498332971 -0.00037500745432527945 0.21898436394185672 0.22452748492665028 0.20703601787283971 0.21800758144873825 0.1669216247749436 0.23144634845004905 0.022274889249204326 0.21960604257887303 -0.010186524679564865 0.25991400856672292 0.14768018998031573 0.089164189293187812 0.24084925850381042 0.26265054682383865 0.19188092243058674 0.062346826193222342 0.23577319441578176 0.25418213233508358 0.2651318376117956 0.23167707962791972 0.17255554440738138 0.25996340076535124 0.20301618962048473 0.25508209079846189 -0.032217183510664847 0.25188257608122705 0.17225772031335596 0.22803244535155689 0.198913460144821 0.24631784222351755 0.24087973798986786 0.21024844184499589 0.13348493693872235 0.2125525196262843 0.25412851838277678 0.17155328081114232 -0.056759767551889884 0.24376496805149742 0.28758186345707487 0.18482790068447844 0.19441059523332205 0.14482204346237168 0.24095916092950909 0.20780351416140044 0.066630256563015397 0.21257778386489271 0.24655842183854149 0.22432047794721638 0.051963742531609972 0.18535776168744417 0.24741539421430972 -0.02092459390336639 0.20141166144516409 -0.058143465894399962 0.20529925538603441 0.12120567945784984 0.14695470354725285 0.019321042145430019 0.25129668753904655 0.25618026018820422 0.0099000478706491538 0.25279328532275991 0.064496433732227368 0.021662482973280911 0.29044206812362433 0.1472225864164482 0.24932592419260333 0.23335058338820375 0.26444813649959148 0.24193000169928119 0.22456111816277652 0.24106611168651326 0.22223808309835857 -0.05436589392148642 0.31264989551493649 0.2004040214126972 0.16225812228463057 0.22141743271126946 0.23710425148079883 -0.059847275199977339 0.19098964133315652 0.25945658876928973 0.29409904202267645 0.22030950282030079 0.25138110430696531 0.26281217622735459 0.25668334413020549 0.23257340144544214 0.22333595273612425 0.24195467544681445 0.26379576244887037 0.23424733022138367 0.20925497614349747 0.25548504882671924 0.25733786525663199 0.26410735506997512 -0.055979384253868093
leaf_weight=369.89085452258587 269.65068271011114 316.25804500281811 650.21161843091249 2827.3966088667512 26045.458831481636 358.82574437558651 27.301741428673267 30782.698503941298 14117.100465893745 4236.0664522871375 12337.337242119014 572.91147340834141 582.00592149049044 7260.9696565940976 329.00158853083849 27207.336470872164 3540.2133187949657 11.836205795407293 1093.2468923032284 573.03617802262306 565.80410432815552 26983.093490287662 11087.649996057153 3964.1048465371132 21.190550737082962 1887.1437976658344 744.01605546474457 165.95653414726257 8320.4535611867905 7404.8295923769474 35.32076495885849 80.3308160379529 561.04563130438328 376.53380360454321 77.395704343914986 4457.6714302748442 2623.0383617132902 1311.8085864037275 1194.5833737626672 4364.1267581433058 121.87769760191441 3863.6059984117746 1812.4875000566244 50.486169800162315 27.717173978686333 22.226277686655521 17704.691814117134 28.690955460071564 437.62862332910299 933.71280562132597 3162.2755778431892 9297.8701094388962 1659.6881120279431 2103.3637996613979 1.7832852378487576 8009.2623643353581 3244.3444086462259 1874.7359594106674 144.26118414103985 321.79901747405529 7474.0788772180676 79633.99376937747 11.127879187464712 1.3286046162247647 464.82679897546768 31.039945870637894 4453.0702060982585 813.81851579248905 98.204079501330853 733.91825973987579 28.703572079539299 112.64139429479837 2904.8994699195027 10637.357834175229 5352.3972082361579 119.32090107351542 8.4836588799953443 301.88691109418869 425.9097509086132 120.08771798014641 5.8704551532864553 125.14604367315769 19.901981696486473 22.499109327793121 6.7890176847577086 394.17769702523947 7704.0686992034316 7.3751498758792868 768.46955673396587 12.627784840762613 32.593671835958958 2.9446750283241263 22.448020100593567 1242.2783283144236 1544.5330689325929 157.47285296022892 581.51906485855579 153.31550793349743 894.74371135979891 38.402768976986408 5.8346825540065756 23.478431284427643 108.25242859125137 2.3415683656930923 38.353561535477638 484.19316458702087 1.3703495562076593 24.554715692996979 38.433690667152405 15.983023181557654 42.010776288807392 710.88233043253422 144.19437682628632 125.69948355853558 987.4827809035778 494.2411924302578 247.29890098422766 89.910567313432693 326.97729118168354 110.72856418788433 186.04200172424316 8048.8707575947046 33.125392854213715 7.6133193373680106
leaf_count=466 462 570 1623 11954 214930 1004 236 313218 135704 18473 88345 522 6754 54111 2357 217157 6497 69 2104 6153 441 226963 70570 20535 261 10052 6816 453 15082 19897 137 453 1011 3905 232 53968 2229 6986 7577 5970 86 15900 14404 137 38 65 29117 87 412 2192 2326 116249 1493 10175 4 23901 4370 2669 331 1754 18587 61975 41 13 839 35 14814 2243 400 1170 63 874 7455 12837 11511 1096 54 465 5200 430 50 234 86 116 60 421 5605 45 835 90 267 6 97 1728 2687 115 822 320 1569 134 79 34 256 13 90 730 10 72 38 21 79 975 132 93 1647 1000 322 63 496 285 144 5093 27 80
internal_value=0.158837 0.0865065 0.0772265 0.0533456 0.0686393 0.0936355 0.0553948 0.0496738 0.0817089 0.103281 0.147206 0.238143 0.222972 0.062455 0.14061 0.0768728 0.245402 -0.0187635 0.11111 0.182676 0.124269 0.0525652 0.154211 0.140259 0.235098 0.165364 0.0772122 0.158948 0.24753 0.214675 0.0460703 0.245615 0.206432 0.111164 0.0559202 -0.0243297 0.237838 0.128814 0.123177 0.25113 0.241726 0.200733 0.044093 0.0164368 -0.000964333 -0.0126683 0.240655 0.203392 0.235556 0.248088 0.235224 -0.0250778 0.248111 0.191731 0.226174 0.199812 0.23064 0.228291 0.217792 0.162576 0.218192 0.253336 0.135219 0.170385 0.209205 0.215675 0.19388 0.216287 0.221598 0.215093 0.233919 0.10838 0.221018 0.2492 0.228853 0.0063709 0.0137702 0.215857 8.76038e-05 0.247356 0.184358 0.254052 0.240306 0.121573 0.210116 0.226171 0.25502 0.192754 0.246069 0.177579 0.07283 0.0577073 0.243272 0.243579 0.240472 0.242255 0.23665 0.232788 0.238938 0.249956 -0.0221091 0.256541 0.226426 0.00470163 0.194025 0.246124 0.227758 0.177731 0.23972 0.232298 0.257662 0.24969 0.246079 0.243014 0.227776 0.229492 0.253741 0.247778 0.239545 0.218142 0.259594 0.257417 0.258232 -0.0552793
internal_weight=404320 211459 197994 80637.6 66527.6 117357 58515.1 56828.2 93594 44139.6 16573.4 192861 13464.1 49454.4 23762.9 27566.2 147299 14110 8354.22 4833.47 2232.01 41100.2 19565.6 15051.8 12600.4 8012.49 4197.31 1529.08 142466 45561.8 863.688 11071.3 26537.9 941.685 453.93 13798.4 38587 1640.81 3081.73 103879 19735.5 4513.82 2556.5 697.437 631.949 604.232 34127.4 24462.2 587.391 10828.8 20867 13755.5 1686.99 4930.76 19023.9 20332 11564.8 2808.45 9135.96 487.756 9120.73 84143.2 242.534 166.251 7869.66 42.8762 12462.3 4459.61 3638.42 8208 9887.89 192.972 4130.22 13260.4 6486.16 1121.21 29.6742 3206.79 998.946 557.716 65.4872 79759.1 4384.03 103.041 57.2752 5746.57 8020.33 821.194 912.731 47.9485 55.0928 122.266 1110.8 3401.73 2786.81 2075.74 1395.01 2601.46 923.435 63.2098 15.2313 61.8812 669.298 8.21202 60.8016 1050 311.559 25.9251 49.5616 285.634 614.922 739.586 725.713 855.693 1745.77 1481.72 680.724 337.209 696.868 264.044 343.515 8170.75 158.825 13.448
internal_count=1929125 1651424 1623573 740521 569635 883052 529877 528148 743861 324979 106818 277701 27851 418882 139191 218161 166737 170886 56215 18147 13813 362667 108628 91105 19943 39758 30563 7501 148590 110964 7908 12442 71892 6344 4137 170321 55694 9343 17629 92896 24631 17523 21220 7117 6857 6819 46509 69027 1157 11036 31443 170217 1729 22129 39072 59451 19452 4861 21086 2207 20923 68265 1406 791 20736 104 38715 9185 6897 19757 17986 1327 9576 15066 12970 12455 315 7920 11353 842 260 62209 6056 610 197 11932 6175 2288 1166 227 383 1102 1358 5016 4415 2865 2221 4334 1656 181 163 168 1267 63 187 1171 565 82 79 483 601 1038 954 1082 3252 2647 644 385 962 605 259 5179 120 159
is_linear=0
shrinkage=0.05


Tree=3
num_leaves=128
num_cat=0
split_feature=28 27 20 94 17 17 20 20 24 17 21 82 26 127 127 25 95 95 16 94 94 25 7 91 20 81 17 5 16 73 20 99 5 29 16 29 20 17 27 95 91 29 92 20 36 32 20 7 8 127 82 17 54 109 127 5 34 101 76 127 69 2 36 101 20 0 54 48 53 127 16 29 91 95 34 35 20 76 25 17 8 17 82 20 67 92 127 20 127 78 106 20 127 92 95 35 130 2 52 17 20 92 129 127 70 92 122 20 17 17 20 93 74 23 122 42 20 94 91 127 92 20 91 72 92 17 95
split_gain=628117 76742.6 23902.5 23541 19646.8 18108.6 27790.4 33656 14664.2 9581.37 9220.25 8814.55 7692.92 7224.41 7369.78 5428.48 4856.89 4389.98 3672.9 3594.54 8954.39 3480.15 2571.29 2418.71 2304.21 1497.01 1427.96 1279.49 982.547 979.311 884.62 2270.64 786.363 783.896 738.085 720.147 713.425 666.813 648.233 646.114 642.542 610.396 564.264 536.259 449.443 448.949 1873.58 433.453 420.138 410.774 407.207 406.64 356.492 302.749 522.956 301.614 295.823 257.639 243.565 241.766 236.236 207.712 200.629 197.303 184.909 182.409 167.13 158.212 140.456 139.869 146.465 137.715 123.736 118.899 116.516 216.212 112.554 109.524 107 99.0009 95.4969 93.0616 109.824 73.8311 68.6628 60.2417 56.5293 55.5821 104.599 83.7697 52.5376 46.8183 44.6262 44.3164 62.5571 43.3316 122.145 40.0302 39.8509 37.3276 36.9692 36.7202 36.1365 35.4867 29.7339 23.7418 23.51 30.8621 23.2737 22.9587 15.06 12.0948 10.8573 9.57699 10.628 16.2556 8.06189 8.00156 7.56487 6.64319 6.49555 4.15893 3.98485 3.85627 0.251247 0.0441851 0.000361008
threshold=0.91666666666666685 1.0000000180025095e-35 31.500000000000004 3.5000000000000004 2.5000000000000004 16.500000000000004 11.500000000000002 12.500000000000002 182.00000000000003 26.500000000000004 1.5000000000000002 1.5000000000000002 2.5000000000000004 12.500000000000002 9.5000000000000018 136.87500000000003 -1.0000000180025095e-35 301.50000000000006 27.500000000000004 3.5000000000000004 4.5000000000000009 119.80000000000001 1.0000000180025095e-35 1.0000000180025095e-35 1.5000000000000002 749.81375000000014 47.500000000000007 446.50000000000006 27.500000000000004 7.5000000000000009 15.500000000000002 1.0000000180025095e-35 261.50000000000006 359.00000000000006 27.500000000000004 278.50000000000006 12.500000000000002 29.500000000000004 1.5000000000000002 1710.5000000000002 1.0000000180025095e-35 199.50000000000003 24.500000000000004 31.500000000000004 77.500000000000014 67.000000000000014 46.500000000000007 4.4360362952319043 165.00000000000003 1.0000000180025095e-35 9.5000000000000018 20.500000000000004 9.5000000000000018 1.0000000180025095e-35 1.0000000180025095e-35 477.50000000000006 1.0000000180025095e-35 3.3598484848484849 74.500000000000014 7.5000000000000009 1.5000000000000002 2.5000000000000004 73.500000000000014 5.491666666666668 26.500000000000004 1.0000000180025095e-35 2.5000000000000004 13.500000000000002 0.24875466805622756 9.5000000000000018 17.500000000000004 297.50000000000006 4.5000000000000009 -14.499999999999998 1.0000000180025095e-35 67.000000000000014 -1.0000000180025095e-35 290.50000000000006 124.25000000000001 36.500000000000007 124.50000000000001 1.0000000180025095e-35 444.50000000000006 38.500000000000007 19.672043010752692 41.500000000000007 1.0000000180025095e-35 15.500000000000002 1.0000000180025095e-35 0.58844298788028704 1.2833333333333334 47.500000000000007 9.5000000000000018 28.500000000000004 -14.499999999999998 343.00000000000006 4.5000000000000009 2.5000000000000004 0.67729496265146549 6.5000000000000009 28.500000000000004 23.500000000000004 0.16025641025641021 5.5000000000000009 50.500000000000007 23.500000000000004 1.0000000180025095e-35 29.500000000000004 8.5000000000000018 18.500000000000004 27.500000000000004 1.5000000000000002 100526.26000000002 0.36666666666666675 -1.0000000180025095e-35 252.13350000000003 9.5000000000000018 1.5000000000000002 1.5000000000000002 8.5000000000000018 19.500000000000004 4.5000000000000009 4.5000000000000009 0.31265986327805578 18.500000000000004 54.500000000000007 1467.5000000000002
decision_type=2 2 2 2 2 2 2 2 2 2 2 2 2 2 2 2 2 2 2 2 2 2 2 2 2 2 2 2 2 2 2 2 2 2 2 2 2 2 2 2 2 2 2 2 2 2 2 2 2 2 2 2 2 2 2 2 2 2 2 2 2 2 2 2 2 2 2 2 2 2 2 2 2 2 2 2 2 2 2 2 2 2 2 2 2 2 2 2 2 2 2 2 2 2 2 2 2 2 2 2 2 2 2 2 2 2 2 2 2 2 2 2 2 2 2 2 2 2 2 2 2 2 2 2 2 2 2
left_child=10 2 3 8 29 11 9 -8 18 -7 16 17 22 14 -10 -13 19 -5 23 101 72 -15 33 -2 -20 47 30 57 74 42 31 32 -18 50 61 -36 -33 41 43 63 49 44 77 48 59 80 62 126 -30 65 86 67 -44 54 -42 -41 -52 113 92 -29 -46 -27 -47 -31 68 -28 78 -32 -35 70 -60 -49 73 -21 75 84 -55 -4 -40 -71 109 82 -43 -82 -14 -74 -3 88 89 -39 -53 -48 104 105 -95 100 -97 -90 -68 -77 -76 111 -94 -83 -59 -22 112 -108 -45 -6 -66 120 -89 116 115 -115 123 122 -119 -118 -1 -116 -103 -12 -113 -51 -24
right_child=1 12 4 5 45 6 7 -9 13 -11 27 15 28 21 -16 -17 26 -19 24 20 93 -23 25 -25 -26 34 40 37 38 39 51 36 -34 64 35 -37 -38 87 66 55 53 81 52 108 60 46 91 71 -50 125 56 90 -54 76 -56 -57 -58 58 69 -61 -62 -63 -64 -65 110 -67 98 -69 -70 79 -72 -73 85 -75 95 99 -78 -79 -80 -81 83 103 -84 -85 -86 -87 -88 106 97 -91 -92 -93 102 94 -96 96 -98 -99 -100 -101 -102 117 -104 -105 -106 -107 107 -109 -110 -111 -112 124 -114 114 121 -117 119 118 -120 -121 -122 -123 -124 -125 -126 -127 -128
leaf_value=0.20008006394092315 0.24199049626890493 0.19512524287913774 0.14987452829578643 0.012203033748973408 0.19598891470017032 0.043956147441694932 0.23438458752037389 0.07132289100870412 0.084061314759884653 0.095076199707168518 0.2177242827349502 0.01223425260239904 0.18298819011488257 0.030722457537167722 0.14281856718174801 0.042640252293099208 0.19889175977453422 0.075061332522213045 0.36645948460108457 0.014724858416232084 0.20742496510984482 0.075613567760485445 -0.054640542127398495 0.1627414896900827 0.06564372147792176 0.23291290591623237 0.17280547523845599 0.17782647105557997 -0.020870758222529612 0.086276403086618436 0.20248238783595385 0.068512481701391112 0.18058704317782501 0.066205666448989883 0.019770107105567501 0.17890459342546641 0.17005444532395203 0.18121629631852929 -0.019142163537983183 0.051164392885797452 0.19587448492445894 0.17059757826973565 0.085258666318287657 0.14142337569611349 -0.0085555918234083792 0.10724639319561904 0.1714188122369073 0.17150977547498866 0.13943018932354356 0.21168625430122329 0.1765229044318429 0.20805548770371238 0.11648923537990019 0.19456557386937637 0.210515136763512 0.12519930693771089 0.20332995433491741 0.20966789992737597 0.17049750984417866 0.16657069885077835 0.1596336323346646 0.12621140291785937 0.020692798595562115 0.1355765735140427 0.1640356745837788 0.24375690080860035 0.18771143125674047 0.19161809716674516 0.15365736243698958 0.16819481251843382 0.18799761726488251 0.2169016166403866 0.038085346692445177 -0.020236250432556668 0.1647680030070949 -0.05666474402302725 0.20781845611783423 -0.0098824548433362087 0.21819009271112755 0.20214632348405548 0.21465413371002434 0.20120264958787615 0.019677869410053589 0.23543984192513442 0.091144793184285436 0.135104105875793 0.21043352820077157 0.21253580979198314 0.18488845036487872 0.081996671353972275 0.21687953063238116 0.21194291725291028 0.17744783658211896 0.058024328303334809 0.18866667165786891 -0.057968286680172766 0.29310410239012114 0.20646031065184367 0.29411658985993522 0.15248607087699581 0.2380510309068119 0.17835209681443392 0.20988943344408009 0.18943522425072926 0.19767826158901114 0.19356588357539006 0.1863010024626198 0.21268219537221045 0.22719669452084854 0.21325218654193448 0.21647857759840275 0.20841575375139107 0.19889086130507724 0.20089998589664904 0.22510685322667362 0.13792464517374439 0.21265855540922163 0.19063855241784025 0.18357935425374156 0.19074037291186144 0.19104102974181869 0.1976661614804357 0.20855769975258603 0.23252732794565173 0.21210587127409875 0.21064483072691167 -0.055399087476065562
leaf_weight=448.67211891710758 1282.713424153626 653.92052829265594 668.83908411115408 3278.6220298632979 255.70939429849386 36712.129769176245 5401.7577902749181 7640.2462965548038 20826.026038527489 12216.19319280237 120.35795076191425 28280.934542655945 50.536795631051064 6900.3939726874232 7175.3770801797509 30520.777396127582 14285.323627784848 18178.223391786218 67.66224168241024 580.42187130451202 655.06876739859581 11533.42525664717 15.691868528723719 3860.4220564514399 1076.0157994255424 50.392058536410332 2687.8427549302578 9358.0375827997923 572.56936605274677 2626.0078067183495 6209.5027884691954 498.0769502222538 9956.7176535576582 141.59478139132261 374.90914644300938 87.730258449912071 265.022008061409 46.408584579825401 13.307295314967634 2398.4953749477863 16128.548903033137 256.06146188825369 2266.8615761846304 12.627382971346377 20.918738275766373 258.93044237792492 74.02940521389246 289.12367099523544 44.017582505941391 112.96802005171776 2039.4570751041174 7608.1420489102602 1530.8168408945203 1632.8308610767126 9808.7558566331863 145.93884958326817 2077.4508966356516 654.88936626911163 1378.1806738302112 9732.1662970110774 10729.220401450992 480.63266745954752 90.301104821264744 219.94173196703196 22.555600129067898 93.74601349234581 16.495576106011868 7279.4122601002455 67.946391448378563 1984.4657212197781 9025.9748137071729 395.90556593239307 109.19918538630009 418.56752562522888 31.733645282685757 18.714421458542351 85019.105128720403 10.903147175908087 7.3844794929027548 240.76427277177572 668.07963261753321 1105.7907086312771 12.649918258190153 1184.9784337133169 34.068867206573486 18.747110486030579 7753.5801868438721 634.29041405022144 534.74730806797743 39.277487024664879 2167.3873995095491 1914.6872201710939 405.91081804037094 13.057821273803709 30.722634613513947 5.7368487939238531 4.3608683422207832 359.72583858668804 18.860094808042049 2.4077628478407851 37.601714476943016 292.33611540496349 108.85906325280666 1523.2199303656816 2457.8246171176434 584.9711145311594 316.47507376968861 170.632692232728 21.163436554372311 780.26832075417042 34.827215477824211 91.898430362343788 189.29565767943859 31.045056596398354 30.135471701622009 15.295933768153189 699.45356747508049 1139.8387965112925 568.95261162519455 36.3681860268116 356.8128994256258 25.485426172614098 11.342503666877745 69.342421337962151 92.614364087581635 1034.8849242925644 1.7427320480346669
leaf_count=472 2328 679 3567 35767 249 310787 20579 57060 145403 85169 103 274942 149 67765 44129 257517 16370 139600 62 6153 441 86667 202 15461 8396 51 5133 20095 6739 17708 6281 2175 17714 1002 3831 231 427 94 117 19030 20194 580 15532 44 173 1249 117 735 195 62 3664 5331 8316 2029 5392 794 2049 637 2820 24838 29671 2124 612 1072 44 59 43 9688 325 4718 15223 307 983 5200 86 186 55794 93 24 237 823 1398 65 890 185 119 4644 528 932 156 1384 1400 756 67 59 50 4 302 24 8 38 591 114 2591 3387 791 473 150 16 489 35 60 208 37 17 37 496 1647 1000 54 490 29 14 45 60 557 20
internal_value=0.135693 0.0768687 0.0689747 0.0642814 0.12959 0.0537029 0.0740065 0.13886 0.092819 0.0567196 0.195287 0.0380259 0.184684 0.0831162 0.0991179 0.0280164 0.20093 0.0654565 0.164485 0.154328 0.108858 0.0588093 0.193457 0.182506 0.0834406 0.13561 0.202461 0.176929 0.0421344 0.0880741 0.195229 0.1887 0.191374 0.201127 0.0961146 0.0499468 0.103778 0.171436 0.015262 0.0737184 0.205457 0.169611 0.105357 0.0012016 0.167484 0.207967 0.191678 0.191478 -0.00942702 0.185582 0.202934 0.202247 0.0978475 0.20615 0.201411 0.0554107 0.19005 0.188061 0.186526 0.172088 0.159306 0.136337 0.0848662 0.0900864 0.116341 0.175197 0.17842 0.196619 0.094563 0.183246 0.185679 0.197744 0.00600575 7.64699e-05 0.144658 0.110279 0.207569 0.147312 0.065557 0.171868 0.221149 0.19152 0.163493 0.227946 0.146005 0.0523009 0.209243 0.197515 0.188508 0.135735 0.210012 0.210434 0.197946 0.199142 0.149702 0.190418 0.0936482 0.193564 0.244472 -0.0328232 0.204511 0.190837 0.184308 0.194385 0.200201 0.200887 0.20425 0.195542 0.195144 0.208991 0.195865 0.198721 0.2094 0.212342 0.197799 0.180113 0.213945 0.186959 0.188288 0.211575 0.196076 0.212534 0.17948 0.223135 0.210268 0.210747 -0.0547164
internal_weight=447940 225425 210046 194951 15094.8 142229 61970.3 13042 52722 48928.3 222515 80258.6 15379 46435.2 28001.4 58801.7 170201 21456.8 6286.81 5413.22 2410.76 18433.8 14487.5 5143.14 1143.68 1696.13 164788 52313.3 891.586 9867.8 48269.6 25005.1 24242 12791.3 993.664 462.639 763.099 35028.9 706.425 5390.38 116519 32738.1 4477.42 650.378 29840.3 5226.98 2337.95 702.464 616.587 3929.44 12524.4 23264.4 3797.68 112589 25937.3 2544.43 4116.91 17284.4 16256.9 19090.2 10750.1 531.025 349.232 2845.95 266.924 2781.59 56.0474 13488.9 209.541 12629.4 10404.2 685.029 1126.94 998.989 185.161 105.728 86651.9 679.742 20.6918 2225.23 2889.04 2897.72 268.711 1853.06 84.6057 127.946 8407.5 2290.85 980.159 85.6861 9775.53 1988.72 3627.48 1283.82 43.7805 79.4331 10.0977 894.473 35.3557 21.1222 69.3354 3002.47 514.77 2629.01 3112.71 1240.04 1310.69 487.108 33.7908 1035.98 57.3828 989.998 823.586 1027.48 101.962 46.341 925.522 2012.47 1708.79 735.822 805.485 55.6209 303.679 189.7 184.513 1147.85 17.4346
internal_count=1929125 1651424 1623573 1551632 71941 1181421 473595 77639 370211 395956 277701 707826 27851 343964 189532 532459 166737 175367 26247 18147 13813 154432 19943 17789 8458 7501 148590 110964 7908 66112 59370 36686 34084 12442 6237 4062 2602 82254 7202 38604 89220 79411 27508 6994 74777 5829 3378 1264 6934 5811 11036 22684 23848 83409 25586 19824 5713 28710 27892 44933 29844 2175 1861 18780 1406 5192 208 15969 1327 22998 18043 1042 12455 11353 706 528 57823 3660 141 4955 2451 4634 645 1713 334 1102 5323 2843 1484 250 6715 1517 4894 1358 126 178 54 1234 67 194 124 4334 870 3989 4024 1232 1359 623 60 738 79 1082 736 818 120 74 698 3252 2647 550 962 46 605 148 120 619 222
is_linear=0
shrinkage=0.05


Tree=4
num_leaves=124
num_cat=0
split_feature=28 27 8 95 95 127 20 127 16 17 20 21 127 20 26 6 16 130 20 95 62 16 94 94 79 77 7 17 82 5 16 20 20 99 95 25 55 6 17 29 110 83 54 127 20 27 79 20 122 20 92 7 58 8 73 50 17 8 17 20 127 130 17 127 47 123 15 69 20 39 20 51 95 92 73 54 95 101 95 27 72 25 24 92 80 71 130 17 20 127 59 106 92 38 24 48 92 20 41 69 52 92 99 17 91 92 62 36 72 93 106 53 20 94 43 82 91 92 95 95 50 45 95
split_gain=464483 58981.7 19956.4 27039.1 24507.4 16723.3 14800.4 13817 11399.1 9765.28 30790.4 7517.57 7164.17 5881.07 5577.37 5462.37 4425.85 3679.82 3517.19 3396.79 3025.83 3039.11 2491.44 6822.83 2192.29 1984.26 1853.55 1195.76 1109.38 955.61 777.523 724.06 675.201 1849.9 658.608 634.66 613.264 611.636 587.633 575.742 566.468 545.476 540.741 827.611 518.298 511.072 458.337 434.457 429.347 377.437 368.516 366.263 358.318 350.913 339.171 334.835 321.042 313.726 312.581 236.376 199.95 184.259 167.046 162.24 158.3 150.918 148.174 141.043 137.496 118.786 113.982 113.908 111.173 118.732 109.448 109.446 106.018 102.74 98.4576 82.0951 92.295 80.5862 76.0996 71.5666 68.1313 60.0214 55.4509 54.5971 53.1753 51.3102 45.5703 34.2088 32.7863 31.0001 30.1488 40.8124 29.5479 27.3538 26.7098 55.8945 21.071 18.158 16.9852 15.9748 15.1989 14.5669 13.9284 13.0681 10.933 9.61558 9.46169 12.4457 7.58788 6.40699 6.25428 9.79123 5.92506 4.92415 4.90943 3.77078 3.76128 0.577428 0.16917
threshold=0.91666666666666685 1.0000000180025095e-35 119.50000000000001 301.50000000000006 363.50000000000006 6.5000000000000009 31.500000000000004 12.500000000000002 26.500000000000004 16.500000000000004 11.500000000000002 1.5000000000000002 12.500000000000002 43.500000000000007 2.5000000000000004 74.625000000000014 27.500000000000004 10.500000000000002 31.500000000000004 -1.0000000180025095e-35 6.5000000000000009 26.500000000000004 3.5000000000000004 4.5000000000000009 5.5000000000000009 38.500000000000007 1.0000000180025095e-35 46.500000000000007 3.5000000000000004 446.50000000000006 27.500000000000004 1.5000000000000002 16.500000000000004 1.0000000180025095e-35 974.50000000000011 147.50000000000003 15.500000000000002 131.67500000000004 19.500000000000004 359.00000000000006 6.6336683200332649 3.5000000000000004 77.500000000000014 1.0000000180025095e-35 31.500000000000004 1.5000000000000002 2.5000000000000004 31.500000000000004 -1.0000000180025095e-35 11.500000000000002 23.500000000000004 4.4360362952319043 841.50000000000011 165.00000000000003 9.5000000000000018 136.50000000000003 24.500000000000004 141.50000000000003 3.5000000000000004 30.500000000000004 9.5000000000000018 10.500000000000002 29.500000000000004 9.5000000000000018 14.500000000000002 -1.0000000180025095e-35 1.5000000000000002 242.50000000000003 26.500000000000004 13761.342092792051 -1.0000000180025095e-35 344.50000000000006 -14.499999999999998 31.500000000000004 1.5000000000000002 2.5000000000000004 47.500000000000007 4.5361111111111123 1795.5000000000002 1.5000000000000002 0.20004697040864258 124.25000000000001 486.50000000000006 20.500000000000004 45611.051500000009 0.58590928832909361 1.5000000000000002 11.500000000000002 49.500000000000007 1.0000000180025095e-35 182.50000000000003 1.2833333333333334 25.500000000000004 223373.78350000005 165.00000000000003 59.500000000000007 23.500000000000004 3.5000000000000004 17211.930500000006 44.500000000000007 0.67729496265146549 23.500000000000004 1.0000000180025095e-35 8.5000000000000018 4.5000000000000009 41.500000000000007 15.500000000000002 86.500000000000014 0.033264738967386555 1.5000000000000002 0.82611111111111113 0.013967711599798703 38.500000000000007 1.5000000000000002 1382.5000000000002 291.50000000000006 1.5000000000000002 19.500000000000004 20.500000000000004 -14.499999999999998 110.50000000000001 3.404094868877015 -14.499999999999998
decision_type=2 2 2 2 2 2 2 2 2 2 2 2 2 2 2 2 2 2 2 2 2 2 2 2 2 2 2 2 2 2 2 2 2 2 2 2 2 2 2 2 2 2 2 2 2 2 2 2 2 2 2 2 2 2 2 2 2 2 2 2 2 2 2 2 2 2 2 2 2 2 2 2 2 2 2 2 2 2 2 2 2 2 2 2 2 2 2 2 2 2 2 2 2 2 2 2 2 2 2 2 2 2 2 2 2 2 2 2 2 2 2 2 2 2 2 2 2 2 2 2 2 2 2
left_child=11 2 3 15 24 16 7 -6 12 13 -11 19 17 -10 26 98 20 -7 -14 22 34 -22 96 72 40 37 39 32 57 59 79 65 33 36 -4 -27 -21 -18 51 54 -5 -33 70 50 46 47 74 53 -35 -40 -44 -30 -26 -32 66 60 71 78 -8 62 -48 -56 63 67 -57 -17 -3 -13 69 -41 89 -34 73 -24 93 81 -72 -59 -28 80 82 -47 -16 -74 -76 -82 -65 88 90 -29 -46 -58 101 -31 95 -64 109 -96 106 -100 -77 -25 114 -49 -104 -94 -2 -90 -70 117 111 -89 -106 119 115 -61 -115 -1 -116 -98 -112 -45 -111
right_child=1 14 5 4 6 8 58 -9 9 10 -12 29 18 -15 30 31 25 -19 -20 27 21 -23 23 92 52 35 28 42 38 44 45 41 56 48 -36 -37 -38 -39 49 68 -42 -43 43 121 87 75 55 103 -50 -51 -52 -53 -54 -55 61 64 91 77 -60 102 -62 -63 94 86 -66 -67 -68 -69 108 -71 76 -73 83 -75 84 100 -78 -79 -80 -81 85 -83 -84 -85 -86 -87 -88 110 107 -91 -92 -93 105 -95 97 -97 113 -99 99 -101 -102 -103 104 -105 112 -107 -108 -109 -110 122 120 -113 -114 116 118 -117 -118 -119 -120 -121 -122 -123 -124
leaf_value=0.17066949665016282 0.17393255797048621 0.17728690501531624 0.15409368354665309 0.15456855273253103 0.065121426669119117 0.079145453183291414 0.01215210478179171 0.017827088013919412 0.055507097190362502 0.068532958242600278 0.18267627913640955 0.16135779785515225 0.020961088370670882 0.17744711310941849 0.17434867499890172 0.015197066065418416 0.046942884557939157 0.037248241289859783 0.1212224618457088 0.17383519176277015 0.092510039115275916 0.14057785807955711 0.014241467404140574 0.17730115013145992 0.11043565573733599 -0.0019709526837065347 -0.054759059503377477 0.16743938109099044 -0.055089661673497929 0.16823513197288165 -0.020179572101042157 -0.011048673519511427 0.17207631802009921 0.1503837145568987 0.11871126848447965 0.051722726921780919 0.15818811263147675 0.11784433435033044 0.012579588058411287 0.069877071438003507 0.12714109794134013 -0.032202531596482946 0.17436719574936002 0.17987879650692395 0.063495117076203866 -0.018451389690367515 0.14947185835199095 0.12307414478240929 0.06305675041217583 0.20094631343657934 0.15704848952751832 0.11741896773604771 0.062483081611000024 0.1200884159506555 0.14753067981002219 -0.057917716776275691 0.17809207291407769 0.19024188557810928 0.17566785961167353 0.17975028118005232 0.14048660553921619 0.18093136693369924 0.17562216906741596 0.13885467027120138 0.13303130142522784 0.20964286594090964 0.10277793333000561 0.1470756855509496 0.21191240125333879 0.17972487844869056 0.16117938817053229 0.16312525715680123 0.10295973450979273 0.11664048218606307 0.15572406137877845 0.15850754524647548 0.17769740749850449 0.15240915831242105 0.13252994407227162 0.21174406735425727 0.082029683560340294 0.17908650397410575 0.099287895422686734 -0.016312914812313239 0.055768915982712546 -0.05876324696044747 0.15400394273035264 -0.065954195117885084 0.17229750723883203 0.18595810906018614 0.15015137430776995 0.18517872368607913 0.14696602829618791 0.18739213475515593 0.16217844873029819 0.13926475872937558 0.15772022137654604 0.17690673658049574 0.032361549854477957 0.15626537393495199 0.23036011536878531 0.16565600617211465 0.10934307513154325 0.19072944734079569 0.14296781216247931 0.08351110053272115 0.12632961935071005 0.14161879880055739 0.15731315034892523 0.18010127619997937 0.1821827493982755 0.17210150781860042 0.18279557453037071 0.16268928921469267 -0.067210777078214698 0.1580211563315389 0.15675829324329382 0.16319811004642848 0.18669085011950121 0.14699788825341428 0.17281691199875163 0.18333668209146292 0.1765418594745792
leaf_weight=498.22929935157299 301.94468399137259 11569.060866594315 5191.0517712011933 4367.286162443459 29442.953170716763 15710.493137925863 29.633221216499805 32478.140182361007 29591.524437196553 21549.413754150271 8139.8870667219162 10935.897883288562 20531.084464095533 1022.9709255844355 62.226997666060925 13.367023587226866 381.56128985434771 7864.1410990208387 913.64443147927523 9521.221875756979 11906.140144363046 4543.0976951941848 634.99596963822842 725.95556701719761 609.99998023360968 762.68646690994501 20.356224134564403 3887.7122977674007 32.11694597452879 875.19279459118843 562.8243061825633 4535.0243274047971 7734.8673574179411 186.51778772473335 1761.4908490777016 1976.7204687073827 18294.229137465358 1499.7581913694739 292.92799289524555 196.42685724049807 3308.8307132050395 9290.4740674197674 4223.2269746363163 10447.939307287335 15.797155797481535 13.120074957609178 14311.4647545591 13.752273790538309 573.61545369029045 29.248935900628567 11264.184610381722 733.0363506898284 1078.061678506434 48.424779668450356 1701.3506071865559 10.872650340199469 7866.9693835228682 374.11076211929321 2131.5206538885832 1057.2096193283796 10912.78223939985 545.23982563614845 150.83388501405716 1451.6191325187683 6293.6979577988386 39.369791477918625 67.113072633743286 2053.2041173130274 11.099046826362608 28.135721907019615 981.0956095457077 6575.899412587285 12.934527844190596 29.629324048757553 3783.5837567448616 18.498931057751179 98425.130099639297 344.88139509409666 10.708745598793028 24.211711749434471 32.105985127389431 8.5129701867699605 73.83205408602953 454.68865141272545 17.12528957426548 9.905197396874426 1034.5156906694174 0.54952552914619346 551.57961516082287 413.86150573194027 382.91029237210751 2173.3921201378107 65.897187247872353 278.33898045122623 397.85156986117363 158.08589540421963 195.92990529537201 1518.3641214370728 10.711318492889403 60.583889298141003 22.752836406230927 621.18611837923527 14.563598170876501 23.868377655744553 19.54291507601738 10.483111515641211 16.190460883080959 37.043060168623924 52.717333309352398 162.89186407625675 560.76987957954407 619.24520291388035 30.815896332263947 1265.1917949467897 0.19049897789955039 54.516725867986679 631.16104610264301 395.66263312101364 327.64980851113796 141.00664046406746 132.53172655403614 122.14168691635132 41.98558010160923
leaf_count=472 358 7545 16060 15701 214930 104771 236 313218 221769 147350 25189 16341 180225 880 98 69 2520 60145 3532 8952 65797 19444 6585 441 3003 6816 261 4265 384 1149 6739 53968 7180 520 7327 14404 26159 6823 2494 1196 14636 116249 3936 5142 48 117 29326 44 2108 53 16216 3413 6418 195 2734 95 4805 232 1493 745 25951 581 167 3306 16116 35 176 3780 7 131 1165 7960 105 200 6810 43 58707 610 54 25 145 24 353 5565 63 85 1933 3 553 216 626 1199 151 297 526 301 320 1234 47 118 24 730 31 16 29 36 42 62 72 89 384 649 24 1647 1 59 1000 490 233 285 122 60 31
internal_value=0.118848 0.0690195 0.0621325 0.0436095 0.055845 0.0743168 0.0448043 0.0403151 0.0651834 0.0793959 0.0998275 0.166942 0.0461456 0.0595817 0.158985 -0.0193759 0.108645 0.0651692 0.0252327 0.171784 0.117475 0.105786 0.134404 0.0972661 0.131401 0.0639267 0.165844 0.172988 0.118595 0.151198 0.0388571 -0.0245583 0.166654 0.161441 0.145129 0.0367737 0.163544 0.103464 0.0863265 0.171971 0.142746 -0.0252637 0.175572 0.169133 0.146681 0.0142727 0.14523 0.00108289 0.0844846 0.0296805 0.161771 0.110178 0.0798113 -0.00906717 0.173423 0.143009 0.172772 0.165373 0.173426 0.16032 0.145585 0.155637 0.158702 0.15686 0.132702 0.160357 0.176857 0.1591 0.102045 0.08364 0.17719 0.167963 0.00566456 0.0188065 0.159368 0.150371 0.177534 0.172095 0.00980338 0.12536 0.113615 0.0592831 0.133617 -0.0130138 0.155274 0.0488342 0.145158 0.1697 0.160817 0.169221 0.146718 0.179626 0.170125 0.172858 0.171512 0.157017 0.162889 0.173849 0.165311 0.13765 0.198139 0.171931 0.179346 0.165998 0.15433 0.138257 0.17151 0.170367 0.166809 0.169602 0.176379 0.17189 0.167339 0.159586 0.180474 0.178685 0.160715 0.167362 0.186543 0.153233 0.180392 0.179919 0.179372
internal_weight=484551 237982 221060 87714.1 73446.4 133346 64082.2 61921.1 105323 60303.8 29689.3 246568 45019.4 30614.5 16922.6 14267.7 28022.5 23574.6 21444.7 188580 23401.8 16449.2 5887.83 2555.77 9364.18 4620.73 16008.5 182692 1837.39 57988.3 914.036 13878.2 52926.7 28575.6 6952.54 2739.41 27815.5 1881.32 1087.33 14171.1 7676.12 13825.5 129765 26057.5 38783.5 711.755 36483.1 648.87 760.133 322.177 15487.4 765.153 1688.06 611.249 13882.8 31528.8 24351.1 750.057 2161.15 19204.9 25224.2 2246.59 17700.4 15475.2 6304.57 52.7368 11636.2 12989.1 288.379 224.563 103708 14310.8 1132.25 664.625 4954.24 62.8848 99406.2 718.992 31.065 202.282 178.07 21.633 136.059 467.623 3800.71 42.0112 2486.13 2300.43 987.33 4301.57 398.707 10040.4 1423.52 1153.53 2225.14 308.92 3332.06 1916.22 389.43 71.2952 41.2518 1347.14 1504.49 37.6207 64.9224 76.3803 318.135 588.623 63.8164 1098.77 1313.1 619.795 50.3588 2233.29 1439.57 1111.73 1896.35 893.892 327.84 336.937 693.302 10570.1 204.877
internal_count=1929125 1651424 1623573 740521 569635 883052 529877 528148 743861 395188 172539 277701 348673 222649 27851 170886 139191 164916 183757 166737 108628 85241 18147 13813 39758 30563 19943 148590 7501 110964 7908 170321 58883 37739 23387 21220 35111 9343 6344 12442 30337 170217 89707 25354 82254 7202 79807 6994 2628 2547 20152 3797 9421 6934 11036 71488 21144 1157 1729 28710 55277 3315 27588 25360 16211 104 7721 20121 1406 1327 64353 15140 12455 6785 8319 208 59872 842 315 706 681 141 451 5670 6873 230 5239 2447 1289 4481 674 6004 1358 1446 2228 468 4334 1760 565 165 67 1171 1122 60 84 187 400 615 79 1082 1158 652 53 3252 1038 804 2647 962 234 605 506 5202 120
is_linear=0
shrinkage=0.05


Tree=5
num_leaves=126
num_cat=0
split_feature=28 27 8 127 127 25 130 20 109 5 20 17 21 17 127 130 95 26 17 16 130 95 16 123 20 94 94 7 20 32 17 7 9 20 127 127 95 29 17 20 99 5 20 20 20 6 96 127 25 6 129 17 20 93 20 15 20 95 7 4 29 51 16 82 69 129 129 20 31 130 84 17 16 82 54 91 47 68 95 73 6 83 7 92 127 48 25 15 16 92 128 16 17 17 23 20 97 17 130 103 92 92 77 91 25 98 87 20 42 6 106 93 83 109 17 95 94 91 95 65 67 95 78 95 5
split_gain=364356 47523.3 15756.7 23164.4 41879.9 19249.6 16027.9 13762.7 13608.1 8675.51 6949.37 8310.55 6691.26 6329.09 6268.07 5949.52 4378.67 4276.34 3780.7 3056.18 2813.24 2578.94 2271.51 1899.56 1869.73 1832.75 5427.83 1458.7 1402.48 1184.86 1098.12 925.962 1525.83 900.933 900.266 822.229 642.767 638.046 537.187 496.67 1498.44 596.099 530.281 486.156 485.998 474.57 453.81 733.797 389.249 369.079 347.706 333.922 333.373 293.531 292.028 283.03 268.326 493.8 290.904 259.52 227.285 221.925 222.674 219.261 207.799 199.226 190.004 174.54 173.705 166.987 147.547 137.035 115.101 107.413 104.455 99.5495 98.136 97.2423 91.7693 90.1252 110.925 87.1374 83.1988 77.2418 74.548 72.8579 70.3548 79.693 68.7113 60.5364 50.7688 49.7921 37.291 36.3778 33.6851 32.6388 38.5579 31.3725 30.4838 28.1248 27.731 26.0327 25.4488 25.4427 21.235 21.2064 20.4727 18.5271 29.4293 14.0519 11.6122 8.4566 7.169 6.95199 9.16594 5.63361 5.57837 5.08445 4.249 4.19496 3.91784 2.93298 2.13769 0.172455 0.00634723
threshold=0.91666666666666685 1.0000000180025095e-35 119.50000000000001 9.5000000000000018 11.500000000000002 49.583333333333336 8.5000000000000018 31.500000000000004 0.13368514490380654 369.00000000000006 31.500000000000004 2.5000000000000004 1.5000000000000002 1.0000000180025095e-35 12.500000000000002 2.5000000000000004 363.50000000000006 2.5000000000000004 1.0000000180025095e-35 22.500000000000004 10.500000000000002 -1.0000000180025095e-35 23.500000000000004 -1.0000000180025095e-35 1.5000000000000002 3.5000000000000004 4.5000000000000009 1.0000000180025095e-35 26.500000000000004 67.000000000000014 41.500000000000007 25.75842040216342 124.50000000000001 4.5000000000000009 12.500000000000002 5.5000000000000009 352.50000000000006 446.50000000000006 29.500000000000004 20.500000000000004 1.0000000180025095e-35 261.50000000000006 3.5000000000000004 14.500000000000002 37.500000000000007 174.31666666666669 92.866868210306407 1.0000000180025095e-35 163.75000000000003 143.16666666666671 0.11805555555555557 3.5000000000000004 33.500000000000007 1.5000000000000002 30.500000000000004 1.5000000000000002 11.500000000000002 1594.5000000000002 24.750000000000007 0.18333333333333332 99.500000000000014 10729.000000000002 18.500000000000004 113.50000000000001 100.50000000000001 0.24038461538461539 0.095454545454545472 -1.0000000180025095e-35 1.5000000000000002 10.500000000000002 0.38893028647127015 34.500000000000007 27.500000000000004 58.500000000000007 1.5000000000000002 13.500000000000002 503.50000000000006 1498.5000000000002 -14.499999999999998 5.5000000000000009 174.31666666666669 671.50000000000011 65.864617362847852 26.500000000000004 6.5000000000000009 362.50000000000006 124.25000000000001 1.5000000000000002 27.500000000000004 31.500000000000004 1.0000000180025095e-35 16.500000000000004 2.5000000000000004 2.5000000000000004 1.0000000180025095e-35 3.5000000000000004 9.9354166666666686 5.5000000000000009 1.5000000000000002 -125.17849999999999 23.500000000000004 23.500000000000004 24.500000000000004 1.5000000000000002 163.75000000000003 0.90513451986659976 9568.6120000000028 50.500000000000007 31.295500000000004 174.31666666666669 0.79500000000000015 1.5000000000000002 127.50000000000001 0.69489691006489085 39.500000000000007 -14.499999999999998 1.5000000000000002 1.5000000000000002 -14.499999999999998 9687.9458516132127 36.339080459770123 -14.499999999999998 0.66653038975197609 -14.499999999999998 675.50000000000011
decision_type=2 2 2 2 2 2 2 2 2 2 2 2 2 2 2 2 2 2 2 2 2 2 2 2 2 2 2 2 2 2 2 2 2 2 2 2 2 2 2 2 2 2 2 2 2 2 2 2 2 2 2 2 2 2 2 2 2 2 2 2 2 2 2 2 2 2 2 2 2 2 2 2 2 2 2 2 2 2 2 2 2 2 2 2 2 2 2 2 2 2 2 2 2 2 2 2 2 2 2 2 2 2 2 2 2 2 2 2 2 2 2 2 2 2 2 2 2 2 2 2 2 2 2 2 2
left_child=12 2 3 5 15 36 24 14 18 23 13 -12 21 -11 -6 16 -5 27 19 34 -8 25 51 28 -7 101 75 45 -10 -24 39 32 52 -25 -4 54 106 43 50 40 41 -23 -42 56 68 55 47 53 -21 -34 59 -20 -29 -32 61 63 58 -58 -19 64 109 65 81 -3 -37 71 -57 90 -45 -17 76 -14 -38 88 86 78 -47 -72 -27 102 -81 -63 -75 -69 -62 -61 124 -88 -33 -77 -48 -67 107 -64 95 96 -40 -9 -97 -76 115 111 -52 -102 119 -101 -2 108 -56 -41 -106 118 -109 122 -115 -28 121 -118 -1 -94 -49 -103 -96 -113 -39
right_child=1 17 8 4 7 6 20 97 9 10 11 -13 35 -15 -16 69 -18 37 22 48 -22 30 29 33 -26 26 100 31 -30 -31 46 73 49 -35 -36 38 72 74 94 60 42 -43 -44 44 -46 70 67 120 -50 -51 79 -53 -54 -55 92 66 57 -59 -60 85 84 62 93 -65 -66 91 -68 83 -70 -71 77 -73 -74 82 99 89 -78 -79 -80 80 -82 -83 -84 -85 -86 -87 87 -89 -90 -91 -92 -93 104 -95 113 98 -98 -99 -100 105 103 116 -104 -105 110 -107 -108 112 -110 -111 -112 123 -114 114 -116 -117 117 -119 -120 -121 -122 -123 -124 -125 -126
leaf_value=0.14994405836517805 0.15036480214084533 0.15616756132554163 0.10661928494403133 0.11272386251085963 0.064640300330860073 0.20091429374595271 0.1517076735588764 0.13065624164999676 0.075651812688022124 0.016404044323793734 0.064620963048674027 0.15630928447615466 0.13458919042087741 0.054790865097686076 0.016691149594281942 0.037206490169460191 0.16764964316058578 -0.0068418693145579947 0.16754234163702553 0.095787063652644111 0.055568675207592268 0.14888176316635299 0.10685868790120129 0.16615209646156104 -0.016504204232671443 0.013506953565347797 0.15750595035265119 -0.0038624048185558323 0.15951139053246111 0.080702509593937974 0.14841631988036402 0.16047945788936938 0.16162730382179116 0.11442546912402302 0.018944359652909509 0.12659922833691695 0.21578261444572711 -0.058781555551962107 0.13255697910787095 0.15975048141592002 0.13561368514088265 0.13499966709495695 0.038398797036149145 -0.03599773469415625 0.15299402710926754 0.15195185100323805 0.14597658493775484 0.15840797175065024 0.19415203245480098 0.094367517093571981 0.15817367768715163 0.12833663815936205 0.19856835663457162 0.13520054763470166 0.07483973314168528 0.040346503368303303 0.051732041406134757 0.33159692205308655 0.1336863950939837 0.14315502653140588 0.14932507562461916 0.14092997812799307 0.16691883306442526 0.13769957888866327 0.11737695539416122 0.13334144673255902 0.16404133180833833 0.15504816295179794 0.16294854245358004 -0.013197326424628231 0.083964163061434297 0.15499688225802577 0.28123142580534993 -0.014243750349527188 -0.060773964870437708 0.025686800991746361 0.044036206787466108 0.15294489002795358 -0.016463175125293512 0.13766876937702302 0.12162844544641596 -0.046217668138459275 0.12736363130196812 0.15773746645058354 0.1370047488335546 0.075009417400461853 0.14548534074250602 0.06093295766932854 0.23745691427964577 0.11581172576063192 0.1624418117252141 0.14929439417964407 0.16120713757344202 0.10017975275972756 0.16253975776298427 0.14315376024107782 0.053720690961475998 0.15622997278599726 0.15874494179649853 0.1716359739853599 0.14738185566833589 0.13790593272666271 0.14301211877950873 0.12496132539000337 0.14679240860646559 0.1174223313814155 0.12083042364492882 0.16133233935795391 0.13637858852521495 0.15400081502840979 0.1599744473429659 0.15838005164667132 0.13658828434199624 0.14195264326433793 0.15715346677717718 0.14376416268426498 0.14257509836927595 0.13729346718781646 0.1432987736889792 0.15296012000677772 0.14594995034080602 0.12881786220235189 0.15453085744831221 0.15492158765971861 -0.055578092461064599
leaf_weight=512.85896627604961 340.38561154901981 12612.526547864079 325.87093345820904 8847.543048709631 8593.8093088120222 99.255114242434502 1579.0291851535439 127.26186224073172 5057.1950181871653 12527.244979172945 9340.9673947691917 3360.4983182102442 19026.124342247844 75173.094076864421 32941.701515987515 221.58885964006186 6151.2581698819995 114.84663528949022 604.80792147666216 2670.3863976970315 1468.7073186859488 21014.762050032616 11157.507338605821 1137.4037782475352 26431.554249122739 626.13199699670076 698.51589530706406 422.8294140920043 553.10482433438301 7075.3183817565441 8667.7069051265717 472.31556825339794 328.28990045189857 3238.8904444053769 2884.4321191757917 11495.495214089751 772.35903566330671 2.0240636840462667 205.06002958118916 6652.491277962923 201.38154733181 12235.369379162788 462.28918896615505 427.2511380687356 39.140163883566856 221.14911094307899 5432.0847590267658 11575.893406033516 104.51047188043594 538.5607560351491 371.73302382230759 5323.78409358114 21.366136252880096 8154.1509152203798 21.568049892783165 91.998879626393318 42.212946362793446 25.152949064970016 54.209318205714226 1715.7962279617786 10190.176600322127 7.4458977729082099 26.479696005582809 1841.8759245425463 13033.40896435082 560.97071720659733 46.857950478792191 62696.466822251678 11.261024460196493 635.83078517019749 380.82423690706491 859.76248395442963 73.57564277946949 11.241481445729731 1.5215229541063298 50.094153918325901 23.284984931349754 59.006631702184677 431.41259931772947 3530.9535025656223 1551.3621419519186 37.771618016064167 134.19016268849373 46504.722815960646 1396.0168065428734 40.140600293874741 43.986307039856911 76.052022337913513 30.885177232325077 29.666692920029163 512.32227751612663 3818.9805441349745 1349.4205341935158 89.196268528699875 352.32480351626873 1272.9647422432899 16.778653547167778 2079.3942320197821 415.9521476328373 62.7208271920681 593.42201149463654 212.40340928733349 1083.4237513542175 160.82872760295868 614.3154491186142 25.319881543517113 70.89734822511673 95.205887034535408 195.77045129239559 1264.662626683712 229.47414533793926 175.60270585119724 42.268229767680168 152.43025052547455 283.82816880941391 83.498530462384224 1368.5254573076963 683.11974628269672 453.03308893740177 174.08914572000504 63.454606220126152 152.53165553510189 109.12393496930599 45.355306625366211 6.5504007413983345
leaf_count=466 401 7653 1460 33758 55810 193 7383 183 25403 110130 57274 3786 31429 510717 313218 1571 27236 1270 1591 14153 11345 20200 54909 3538 281797 6421 367 4199 1808 41011 8452 332 289 13857 25160 23074 1111 17 326 3250 500 18097 1825 5147 38 282 5665 5332 246 2198 383 18009 17 11682 56 339 370 125 146 2725 9315 13 35 2441 30862 860 65 36763 21 5061 1436 736 65 78 11 438 88 138 5415 5963 3141 306 347 24703 1703 120 107 413 41 181 252 4634 813 210 172 1481 48 1257 357 98 603 320 1493 314 580 72 132 65 285 804 164 89 51 164 207 74 1647 1000 496 133 47 285 78 31 73
internal_value=0.105967 0.062514 0.0563892 0.0401093 0.0583115 0.00492859 -0.00321601 0.0330764 0.0668653 0.0587344 0.0543137 0.0888795 0.146654 0.0493076 0.026612 0.127927 0.13525 0.140373 0.0966379 0.0610618 0.105378 0.15106 0.105451 0.103179 -0.0156908 0.11951 0.0881438 0.146014 0.0839193 0.0967087 0.152065 0.105402 0.0812273 0.127869 0.0278441 0.132385 0.196547 0.0360687 0.127391 0.145945 0.142289 0.143773 0.0678973 0.0132042 -0.0158209 0.151224 0.154342 0.148688 0.0994918 0.11984 0.125595 0.132336 0.00587467 0.14201 0.138941 0.153132 0.0718448 0.156227 0.0382198 0.123028 0.152302 0.13721 0.078681 0.153814 0.121699 0.137598 0.082088 0.155739 -0.0308888 -0.000171121 0.110527 0.135472 0.221475 0.154266 0.110903 0.00534353 0.141672 0.0932184 0.001281 0.135914 0.132773 -0.0154004 0.116418 0.156193 0.147841 0.141597 0.0820323 0.091916 0.165204 0.0592084 0.147396 0.147251 0.154475 0.115457 0.148379 0.144625 0.126594 0.154755 0.146994 0.152361 0.149441 0.142782 0.146885 0.142601 0.156741 0.156045 0.145274 0.139359 0.130272 0.158832 0.150377 0.148846 0.153724 0.156368 0.151842 0.156039 0.139803 0.140817 0.146827 0.160265 0.15834 0.134107 0.160646 0.15767 -0.0563343
internal_weight=515219 249139 230969 90434.2 59598.4 30835.8 29578.5 43742.2 140535 110388 100402 12701.5 266081 87700.3 41535.5 15856.2 14998.8 18169.5 30146.6 5985.2 3047.74 203301 24161.4 9986.59 26530.8 6277 2673.57 17237.2 5610.3 18232.8 197024 1959.68 1311.05 4376.29 3210.3 62779.6 1257.22 932.249 35630.8 53417.1 33913.8 33250.1 663.671 714.074 477.652 15277.5 143607 28461.2 2774.9 866.851 32822.3 5928.59 444.196 16821.9 27148.8 14593.3 236.422 67.3659 169.056 26284.8 19503.3 24426.7 160.893 14454.4 24528.9 24265.8 138.857 115146 438.512 857.42 684.265 19885.9 845.935 648.632 218.175 1137.31 244.434 439.831 1057.54 6537.47 5082.32 45.2175 145.432 109201 11586.2 1755.94 128.613 120.038 503.201 79.7608 5944.41 4379.95 2722.11 115.676 2808.46 1910.76 221.839 2206.66 1688.92 89.5622 1536.27 3603.43 1455.16 754.251 2367.3 88.0407 411.283 354.813 217.339 7917.15 843.79 1186.85 137.474 897.707 436.258 782.014 2416.58 2051.65 965.892 1523.51 11639.3 364.935 461.449 220.958 8.57446
internal_count=1929125 1651424 1623573 740521 438094 302427 300718 370468 883052 726513 681907 61060 277701 620847 369028 67626 60994 27851 156539 41019 18728 166737 115520 44606 281990 18147 13813 19943 27211 95920 148590 7501 6703 17395 26620 110964 1709 7908 70594 55694 40622 38297 2325 7117 5206 12442 92896 25513 14399 2487 67761 19600 4216 20134 40370 10498 1911 495 1416 56781 15072 38223 564 10094 53936 37659 404 67383 5168 6632 1944 32165 1176 798 791 12455 370 1574 11836 10980 9104 319 425 61466 11018 2845 610 520 373 619 5917 5494 2147 245 2833 2212 374 1440 1838 181 1358 4334 1876 917 1690 170 533 457 341 4054 744 1082 116 621 371 441 3252 2647 962 946 5379 605 250 120 90
is_linear=0
shrinkage=0.05


Tree=6
num_leaves=128
num_cat=0
split_feature=28 27 127 94 95 8 95 20 21 25 13 16 26 25 127 17 20 127 20 66 95 94 16 94 94 95 17 7 16 17 7 5 82 81 16 95 20 13 51 20 79 17 54 127 17 29 27 127 20 16 95 8 79 20 92 20 7 8 20 34 50 20 17 73 95 83 53 20 95 95 92 20 127 29 127 101 106 54 34 35 92 5 46 25 17 82 96 17 81 15 127 3 71 20 85 17 92 92 35 130 48 86 91 20 10 59 4 103 28 42 36 50 106 48 98 6 94 93 95 91 35 92 95 15 22 95 95
split_gain=298573 39692.5 13411.4 11182.9 15659.9 16296.7 10028.9 8737.47 6281.6 6024.92 5207.5 4643.95 3434 3306.16 12024.9 2580.65 21786.9 2550.69 2233.24 2087.55 2074.62 1918.15 1654.54 1407.08 4455.01 1290.92 3260.55 1197.17 1152.73 1053.47 791.747 746.96 742.73 739.965 540.937 531.313 482.821 477.367 472.608 553.985 443.095 434.843 419.621 719.551 409.582 369.841 364.677 344.171 311.886 295.665 289.767 273.886 271.152 266.49 257.628 255.456 240.627 208.506 201.715 191.95 185.826 182.778 131.911 126.844 108.733 94.5168 92.8952 90.775 89.3793 88.1405 81.7158 79.3337 151.478 75.754 75.448 74.324 72.3716 67.7355 62.2397 143.201 59.7665 59.6338 56.9458 54.5475 53.6262 70.1733 51.9518 51.0904 37.8479 37.7349 36.6643 71.4985 72.6389 32.8186 32.1443 29.2396 26.5475 24.6938 24.3619 71.4455 24.3235 22.6072 21.7022 21.0779 20.7099 23.5504 17.5624 15.9905 13.9953 13.5318 12.4331 11.4664 10.8995 7.87132 12.809 8.71556 6.16633 5.16655 4.67433 3.90288 3.33977 2.83202 2.73557 2.48055 0.583661 0.107554 0.00107897
threshold=0.91666666666666685 1.0000000180025095e-35 13.500000000000002 3.5000000000000004 301.50000000000006 141.50000000000003 365.50000000000006 31.500000000000004 1.5000000000000002 125.83333333333336 36.625000000000007 24.500000000000004 2.5000000000000004 119.80000000000001 9.5000000000000018 16.500000000000004 11.500000000000002 5.5000000000000009 1.5000000000000002 208.50000000000003 -1.0000000180025095e-35 4.5000000000000009 27.500000000000004 3.5000000000000004 4.5000000000000009 1615.5000000000002 16.500000000000004 1.0000000180025095e-35 27.500000000000004 39.500000000000007 74.489092362730887 446.50000000000006 3.5000000000000004 463.60150000000004 27.500000000000004 433.50000000000006 1.5000000000000002 83.571428571428584 434.50000000000006 26.500000000000004 2.5000000000000004 29.500000000000004 63.500000000000007 1.0000000180025095e-35 19.500000000000004 199.50000000000003 1.5000000000000002 8.5000000000000018 31.500000000000004 23.500000000000004 34.500000000000007 165.00000000000003 3.5000000000000004 12.500000000000002 24.500000000000004 11.500000000000002 74.489092362730887 124.50000000000001 -1.0000000180025095e-35 1.0000000180025095e-35 136.50000000000003 27.500000000000004 35.500000000000007 7.5000000000000009 899.50000000000011 14.500000000000002 0.5343220140874253 26.500000000000004 -14.499999999999998 40.500000000000007 31.500000000000004 1.5000000000000002 8.5000000000000018 297.50000000000006 6.5000000000000009 5.479166666666667 0.40500000000000008 2.5000000000000004 1.0000000180025095e-35 67.000000000000014 20.500000000000004 189.00000000000003 220.50000000000003 124.25000000000001 1.0000000180025095e-35 444.50000000000006 356.53761466250671 3.5000000000000004 1256.7316666666668 1.5000000000000002 1.0000000180025095e-35 0.93750000000000011 0.44598820543013507 1.5000000000000002 41677.831500000008 6.5000000000000009 23.500000000000004 21.500000000000004 343.00000000000006 4.5000000000000009 583.50000000000011 -14988.422691500024 1.5000000000000002 28.500000000000004 30.700000000000003 5114.0000000000009 0.35416666666666669 -252.17549999999997 1.0000000180025095e-35 73.103500000000011 13.500000000000002 11.500000000000002 0.4316666666666667 230.50000000000003 0.65115797335729941 162.20000000000002 1.5000000000000002 1.5000000000000002 -14.499999999999998 3.5000000000000004 141.50000000000003 19.500000000000004 -14.499999999999998 2.5000000000000004 1.0000000180025095e-35 -14.499999999999998 1319.5000000000002
decision_type=2 2 2 2 2 2 2 2 2 2 2 2 2 2 2 2 2 2 2 2 2 2 2 2 2 2 2 2 2 2 2 2 2 2 2 2 2 2 2 2 2 2 2 2 2 2 2 2 2 2 2 2 2 2 2 2 2 2 2 2 2 2 2 2 2 2 2 2 2 2 2 2 2 2 2 2 2 2 2 2 2 2 2 2 2 2 2 2 2 2 2 2 2 2 2 2 2 2 2 2 2 2 2 2 2 2 2 2 2 2 2 2 2 2 2 2 2 2 2 2 2 2 2 2 2 2 2
left_child=8 2 3 10 5 28 19 -8 20 18 13 33 27 14 -2 22 -17 -15 64 -6 23 -7 -13 97 68 30 -27 40 -5 38 -20 61 57 35 78 -11 -35 56 65 47 71 45 58 54 53 52 48 -40 51 67 -39 -36 66 -34 -44 -46 -12 126 81 -51 -54 62 63 88 110 93 -33 -42 70 -60 -25 72 -3 -59 -65 -67 -41 83 79 86 -70 -31 -66 -48 85 -47 -14 94 -10 -73 91 107 -93 -22 111 -81 118 117 103 -100 -86 -96 -98 -80 105 -92 -79 -43 120 -50 -4 -63 -110 115 -115 -64 122 121 -26 -118 -89 -1 -99 -106 -45 -119 -29
right_child=1 12 9 4 6 21 7 -9 31 11 37 15 34 17 -16 16 -18 -19 25 -21 29 -23 -24 24 96 26 -28 32 -30 42 -32 41 44 36 46 -37 -38 50 39 76 49 90 43 124 55 84 77 -49 109 59 -52 -53 60 -55 -56 -57 -58 73 69 -61 -62 87 113 74 82 75 -68 -69 80 -71 -72 89 -74 -75 -76 -77 -78 106 98 95 -82 -83 -84 -85 100 -87 -88 108 -90 -91 104 92 -94 -95 101 -97 102 116 99 -101 -102 -103 -104 -105 123 -107 -108 -109 112 -111 -112 -113 -114 114 -116 -117 119 125 -120 -121 -122 -123 -124 -125 -126 -127 -128
leaf_value=0.13431226278483888 0.0082074442421831897 0.10039588205970625 0.31172185545484304 0.088535981717888679 0.11312297344590304 0.052887650133769275 0.045726590011493297 0.090453367606799159 0.13489281080059698 -0.0071074506947326165 -0.057015968743992895 0.064776822682508187 0.08411158045874656 0.097758007056020599 0.088772833712442184 0.031956066046251841 0.20743131564739803 0.070755244356581065 -0.0062806959158093053 0.07135926142824224 0.13082106851421119 0.10919862232937483 0.026379123872680151 0.012521868611303655 0.14148100466102689 -0.018566902240735414 0.10034806184828582 -0.054169748157647774 -0.021416844850391095 0.13448215829070731 0.14528986755891476 0.12072471990235137 0.12955361363315562 0.29056815605394204 -0.01938836807185354 0.04675005721442773 0.0034582408609140757 0.12892985141849175 0.12617971042900877 0.13137221088436604 0.080960040950830051 -0.069797297006330458 0.13602569106897444 0.14254594568331019 0.0088175563461059675 0.11398605724205738 -0.018822321736599298 0.11137770149664128 0.18024650759146665 0.11652939492245225 0.18111544674965196 0.098215923574427433 0.11142169067528634 0.069540395312883377 0.12333410911525228 0.15093854054407183 0.1257967521627836 0.11637516343926549 0.1260314259668241 0.13908502044384621 0.10195522908721116 0.14027500925503686 0.1411212404678647 0.12211218773375779 0.29488122599264194 0.13675960852190044 0.082219477541683197 0.13720003063827732 0.089365263951680082 0.14045115149515788 0.091736662903451463 0.14172668513699069 0.15750992952780557 0.14684589015410052 0.11352159225230825 0.12928990015693745 0.14274218133402528 0.10693321831331709 0.11212804067242198 -0.057359279743339868 -0.015266603223565142 0.12401689812840178 0.11043901708507126 0.13549687243412417 0.1302469862892322 0.0032623117647299243 0.17092000003968846 0.14388191434140893 0.12581199964255366 0.093492001704090166 0.13417059092058245 0.12770140145751074 0.014464606815882772 0.14213129814953449 0.13329169624123369 0.11275641250745028 0.13169002459562837 0.12282481067143308 -0.058722863870144186 0.18396317199986209 0.072023096805496942 0.11033513608060011 0.11159575638235962 0.16114145743266217 0.13938268926425298 0.094059605036035068 0.17207042335326672 0.12957719229942954 0.097994827660031869 0.1145959834895894 0.26622977729705494 0.13016254208750927 0.13325004889942424 0.14462168829358701 0.11104384543933717 0.13170607966526748 0.12754934013494609 0.14174643503103787 0.12929382187348518 0.12334957691429596 0.13812719008629762 0.12789062134085621 0.11432419056185106 0.15451503592195281 0.14658694769582567 0.13894585157966968 -0.055499309125655087
leaf_weight=569.85396337509155 7855.3412601575255 318.38822664320469 37.338421046733856 242.43247432261705 8323.2059294208884 3438.953210093081 86311.531414680183 12500.631328046322 1624.6640557348728 589.57586956769228 18.289693295955658 3992.5700236856937 82.434389345347881 14386.205887816846 11285.516173370183 7917.2120681628585 2277.8208649978042 22304.379016585648 12904.010357044637 4671.4617434591055 712.81181319057941 2699.3368189781904 9435.6504223868251 649.65206342190504 737.63681164383888 1275.666571624577 1051.6699273884296 13.213747531175612 14228.259305492043 4126.093881726265 86.737358190119267 7452.6444373130798 268.46653169393539 14.671240314841269 551.32174497842789 2050.8201683685184 7607.8776561394334 366.58798313140869 22264.70325756073 1960.8096353709698 502.17136912792921 1.0104102492332447 5745.2931797802448 12631.497207045555 306.03027771413326 326.04514268040657 13.09486907720566 4768.1301282644272 10.313310429453848 2000.3973924964666 969.47761589288712 54.390657804906368 23885.548118308187 594.84668648988008 13151.64427639544 35.261532016098499 1136.3062253519893 350.0638363212347 1069.6559523642063 1784.815829500556 6621.1213634163141 443.85942660272121 1039.0357520878315 7727.5937232524157 5.7918346226215389 8801.8957871794701 159.99949572980404 83.709158718585968 14.08093962818384 114375.95919771492 34.273753173649311 11242.522586733103 182.71559250354767 488.78091034293175 3819.0122497975826 5356.8679695725441 4889.4982359856367 14.863398775458334 39.855922229588032 19.992557764053348 443.90838044881821 2031.4108328074217 15.083048582077025 10.176371097564695 3346.4319442361593 14.96656261384487 21.791305586695671 1410.3398644775152 3906.4378295391798 40.694281980395317 2428.4234981238842 25.891432911157608 31.262607648968697 6400.6390309929848 165.98929460346699 2.8912294432520858 629.88988846540451 226.16924501955509 6.0189844816923124 6.112415999174118 18.034240752458572 303.02571512758732 170.80519784986973 48.783119395375252 33.711199730634689 37.154087111353874 34.065259397029877 215.16892977058887 27.116412118077278 32.849737845361233 25.125987663865089 760.79894444346428 114.46382512152195 49.448356121778488 66.730951547622681 321.96425722539425 1551.8572879880667 166.90608997642994 88.071822509169579 859.62125834822655 307.00175729393959 245.7227576225996 162.74461713433266 137.71133902668953 89.992450594902039 43.144052624702454 1.7251392900943745
leaf_count=472 65893 508 31 1346 28655 21444 607462 47911 1710 5161 176 26206 291 55314 67724 53095 3360 128115 126623 22976 759 11543 67778 6585 367 12665 7363 187 175729 3637 248 12128 962 19 6739 15698 66726 434 26134 1719 1663 5 4725 5521 2494 580 117 7380 11 2919 1182 195 47077 2835 16367 53 2595 669 1110 1385 15193 374 696 10948 6 7078 379 87 105 60366 200 5710 90 281 6856 5120 2246 42 86 186 5565 2357 65 24 3947 65 43 810 4974 80 2301 34 119 4031 190 8 603 320 50 4 42 469 314 38 25 66 25 217 44 49 30 910 105 34 85 278 1747 79 74 1145 227 257 287 76 40 27 20
internal_value=0.0957199 0.0569886 0.05146 0.057468 0.0494332 0.00938336 0.0568154 0.0513849 0.131344 0.0282097 0.0757104 0.0399951 0.126238 0.0725548 0.0557091 0.0521954 0.0711615 0.0813429 0.00227939 0.0981093 0.135506 0.0776506 0.0377958 0.107895 0.0807423 0.000875028 0.035168 0.131069 -0.0195748 0.13638 -0.00526868 0.117954 0.095157 0.0119126 0.0335085 0.0347242 0.00401085 0.146448 0.130455 0.126787 0.135645 0.11424 0.138513 0.133382 0.0698714 0.11294 0.0122866 0.123569 0.000425638 0.122049 0.166797 -0.00882795 0.111474 0.0882028 0.127193 0.0235012 0.122901 0.130833 0.139847 0.127165 0.109367 0.125478 0.123493 0.122253 0.260407 0.136296 0.119915 0.0889955 0.0050445 0.140318 0.0164916 0.140688 0.121221 0.13413 0.119271 0.133933 0.139488 0.118884 0.10066 0.0773939 -0.0120497 0.13103 0.161613 0.0486605 0.12802 0.109127 0.102261 0.135902 0.128479 0.141553 0.132928 0.115496 0.0657622 0.140998 0.129565 -0.0358662 0.133891 0.127541 0.130008 0.0635547 0.129935 0.11846 0.127403 0.139103 0.134735 0.133566 0.152283 0.128645 0.141607 0.130282 0.293423 0.133889 0.126498 0.137828 0.125335 0.138894 0.12511 0.134178 0.140181 0.126052 0.142853 0.132378 0.119268 0.151539 0.142575 0.141171 -0.0543233
internal_weight=540982 259188 240026 190738 132416 20609 111807 98812.2 281794 49287.6 58322.1 33886.2 19162.8 55831.4 19140.9 23623.3 10195 36690.6 15401.4 12994.7 214971 6138.29 13428.2 6594.34 2768.32 15318.1 2327.34 18213.8 14470.7 208377 12990.7 66822.6 2058.39 10262.9 948.955 2640.4 7622.55 2490.66 55155.4 33883.1 16155.4 44735.1 153222 31618.4 1204.61 41824.8 721.075 27032.8 648.875 4371.09 1336.07 605.712 38119.3 863.313 18896.9 341.292 1154.6 853.784 121603 3785.21 30506.7 22087.5 18554.9 17077.7 83.3393 21272.2 7612.64 585.881 1141.92 115446 683.926 11784.3 501.104 838.845 11546.6 14158.8 6850.31 72.1999 227.88 127.109 457.989 6157.5 20.8749 23.2712 3705.48 341.012 104.226 3532.6 5531.1 11283.2 2910.33 273.333 57.154 7113.45 1673.67 22.8838 1626.4 3826.02 100.77 12.1314 3364.47 469.015 800.695 88.639 2637 2465.58 48.9287 216.179 1858.92 43.163 62.4644 1204.66 141.58 1477.18 116.179 1361 2800.39 1025.63 825.709 2411.48 1717.34 815.577 388.914 171.423 12721.5 210.05 14.9389
internal_count=1929125 1651424 1623573 1238499 917066 210062 707004 655373 277701 385074 321433 238043 27851 317046 133617 150439 56455 183429 147031 51631 166737 32987 93984 18147 13813 146899 20028 19943 177075 148590 126871 110964 7501 87604 7908 20859 66745 4387 54467 37479 12442 82254 94123 26653 6344 79411 7202 33514 6994 6054 1616 6934 74777 3797 21092 2547 2771 1157 67470 4304 62270 28710 25581 24488 132 16988 12507 1750 12455 61476 6785 6388 598 950 17804 12198 3965 208 706 528 5670 5994 71 141 4634 645 334 3129 6684 5790 2843 375 153 4790 1943 194 1358 4334 178 54 3989 659 917 124 2468 2367 67 222 1186 60 61 1284 149 1093 119 974 3499 835 441 2892 1037 729 607 101 5561 106 207
is_linear=0
shrinkage=0.05


Tree=7
num_leaves=127
num_cat=0
