{"learner":{"attributes":{"scikit_learn":"{\"_estimator_type\": \"classifier\"}"},"feature_names":["tx_count_90d","cancel_count_90d","auto_renew_count_90d","auto_renew_ratio_90d","cancel_ratio_90d","total_paid_90d","avg_paid_90d","std_paid_90d","max_paid_90d","min_paid_90d","avg_plan_days_90d","max_plan_days_90d","min_plan_days_90d","avg_discount_90d","discount_tx_count_90d","unique_payment_methods_90d","most_common_payment_method","days_since_last_tx","latest_auto_renew","latest_plan_days","membership_days_remaining","tx_count_60d","cancel_count_60d","auto_renew_ratio_60d","total_paid_60d","avg_paid_60d","tx_count_30d","cancel_count_30d","auto_renew_ratio_30d","total_paid_30d","tx_count_14d","cancel_count_14d","total_paid_14d","tx_count_7d","cancel_count_7d","total_paid_7d","log_days_90d","active_days_90d","total_secs_90d","avg_secs_per_day_90d","std_secs_90d","max_secs_day_90d","min_secs_day_90d","total_unq_90d","avg_unq_per_day_90d","std_unq_90d","total_completed_90d","total_skipped_early_90d","total_50pct_90d","total_75pct_90d","total_almost_complete_90d","total_plays_90d","completion_rate_90d","early_skip_rate_90d","days_since_last_listen","active_days_60d","total_secs_60d","avg_secs_per_day_60d","total_unq_60d","total_completed_60d","total_plays_60d","completion_rate_60d","active_days_30d","total_secs_30d","avg_secs_per_day_30d","std_secs_30d","total_unq_30d","avg_unq_per_day_30d","total_completed_30d","total_skipped_early_30d","total_plays_30d","completion_rate_30d","early_skip_rate_30d","active_days_14d","total_secs_14d","avg_secs_per_day_14d","total_unq_14d","total_plays_14d","completion_rate_14d","active_days_7d","total_secs_7d","avg_secs_per_day_7d","total_unq_7d","total_plays_7d","completion_rate_7d","listening_trend_30v60","listening_trend_14v30","listening_trend_7v14","activity_rate_30d","activity_rate_7d","tx_trend_30v60","city","age","gender","registered_via","tenure_days","avg_song_length_90d","revenue_per_active_day","listening_consistency_90d"],"feature_types":["int","float","float","float","float","float","float","float","float","float","float","int","int","float","float","int","int","int","int","int","int","int","float","float","float","float","int","float","float","float","int","float","float","int","float","float","int","int","float","float","float","float","float","float","float","float","float","float","float","float","float","float","float","float","int","int","float","float","float","float","float","float","int","float","float","float","float","float","float","float","float","float","float","int","float","float","float","float","float","int","float","float","float","float","float","float","float","float","float","float","float","int","int","int","int","int","float","float","float"],"gradient_booster":{"model":{"cats":{"enc":[],"feature_segments":[],"sorted_idx":[]},"gbtree_model_param":{"num_parallel_tree":"1","num_trees":"200"},"iteration_indptr":[0,1,2,3,4,5,6,7,8,9,10,11,12,13,14,15,16,17,18,19,20,21,22,23,24,25,26,27,28,29,30,31,32,33,34,35,36,37,38,39,40,41,42,43,44,45,46,47,48,49,50,51,52,53,54,55,56,57,58,59,60,61,62,63,64,65,66,67,68,69,70,71,72,73,74,75,76,77,78,79,80,81,82,83,84,85,86,87,88,89,90,91,92,93,94,95,96,97,98,99,100,101,102,103,104,105,106,107,108,109,110,111,112,113,114,115,116,117,118,119,120,121,122,123,124,125,126,127,128,129,130,131,132,133,134,135,136,137,138,139,140,141,142,143,144,145,146,147,148,149,150,151,152,153,154,155,156,157,158,159,160,161,162,163,164,165,166,167,168,169,170,171,172,173,174,175,176,177,178,179,180,181,182,183,184,185,186,187,188,189,190,191,192,193,194,195,196,197,198,199,200],"tree_info":[0,0,0,0,0,0,0,0,0,0,0,0,0,0,0,0,0,0,0,0,0,0,0,0,0,0,0,0,0,0,0,0,0,0,0,0,0,0,0,0,0,0,0,0,0,0,0,0,0,0,0,0,0,0,0,0,0,0,0,0,0,0,0,0,0,0,0,0,0,0,0,0,0,0,0,0,0,0,0,0,0,0,0,0,0,0,0,0,0,0,0,0,0,0,0,0,0,0,0,0,0,0,0,0,0,0,0,0,0,0,0,0,0,0,0,0,0,0,0,0,0,0,0,0,0,0,0,0,0,0,0,0,0,0,0,0,0,0,0,0,0,0,0,0,0,0,0,0,0,0,0,0,0,0,0,0,0,0,0,0,0,0,0,0,0,0,0,0,0,0,0,0,0,0,0,0,0,0,0,0,0,0,0,0,0,0,0,0,0,0,0,0,0,0,0,0,0,0,0,0],"trees":[{"base_weights":[3.3050417E-3,1.7611932E0,-1.2644855E0,1.9044489E0,1.3939279E0,-1.5510406E0,1.5092502E0,1.8467554E0,1.9872411E0,1.6059349E0,3.946519E-1,4.4665617E-1,-1.8746165E0,1.7972745E0,-3.2638896E-1,1.9239817E0,-1.4852692E0,1.9933574E-1,1.9510663E0,1.7210846E0,1.5709015E0,-1.268645E0,1.6578175E0,1.8720202E-2,1.6171309E0,7.2402364E-1,-1.8908713E0,1.8259939E0,-1.8485703E0,1.525289E0,-1.0732235E0,1.94118E0,1.9050483E-1,-1.3989605E0,-1.8134638E0,1.0655972E0,1.9531772E0,4.1962463E-1,1.7245109E0,1.6255236E0,1.4324635E0,1.5656661E0,-1.3363248E0,-1.3318689E0,1.6788656E0,-1.8650002E0,5.9634555E-2,1.7141736E0,-4.4081098E-1,1.0445087E0,-1.2398413E0,-1.9104809E0,-7.163649E-1,1.8486319E0,-8.5595804E-1,-1.9809978E-1,9.401061E-1,1.7836773E0,-2.0855947E-1,2.4216433E-1,-1.4646655E0,1.9650047E-1,1.8590474E-1,-6.658118E-2,1.3919003E-1,-1.4708786E-1,-3.9533433E-2,-9.188261E-2,-1.990232E-1,-1.4666668E-1,1.7547584E-1,1.9675739E-1,1.8894695E-1,1.5378512E-1,-1.7142858E-1,1.6512771E-1,1.7608921E-1,-1.4666668E-1,1.6261517E-1,1.4898628E-1,9.967854E-2,-1.4285715E-1,1.7150718E-1,-1.0038983E-1,-1.6617195E-1,-1.9058824E-1,1.5709023E-1,1.2734115E-1,1.7602865E-1,1.0152849E-1,-1.993865E-1,1.0294634E-3,1.8282817E-1,8.792379E-2,1.8125115E-1,-9.440606E-2,1.4759883E-1,-9.848918E-2,1.13334835E-1,5.901857E-2,-1.5473981E-1,-1.7950813E-1,-1.9738285E-1,-9.798883E-2,1.64762E-1,-1.3751474E-1,1.860258E-1,-1.5060236E-1,1.59945E-1,1.5709023E-1,-1E-1,1.8671402E-1,-1.0458275E-2,5.509594E-2,-1.4701281E-1,-6.939111E-2,1.6110383E-1,6.5476716E-2,-1.6662104E-1],"categories":[],"categories_nodes":[],"categories_segments":[],"categories_sizes":[],"default_left":[0,0,0,0,0,0,0,0,0,0,0,0,0,0,0,0,0,0,0,0,0,0,0,0,0,0,0,0,0,0,0,0,0,0,0,0,0,0,0,0,0,0,0,0,0,0,0,0,0,0,0,0,0,0,0,0,0,0,0,0,0,0,0,0,0,0,0,0,0,0,0,0,0,0,0,0,0,0,0,0,0,0,0,0,0,0,0,0,0,0,0,0,0,0,0,0,0,0,0,0,0,0,0,0,0,0,0,0,0,0,0,0,0,0,0,0,0,0,0],"id":0,"left_children":[1,3,5,7,9,11,13,15,17,19,21,23,25,27,29,31,33,-1,35,37,39,41,43,45,47,49,51,53,55,57,59,61,63,65,67,69,71,73,75,77,79,81,83,85,87,89,91,93,95,97,99,101,103,105,107,-1,109,111,113,115,117,-1,-1,-1,-1,-1,-1,-1,-1,-1,-1,-1,-1,-1,-1,-1,-1,-1,-1,-1,-1,-1,-1,-1,-1,-1,-1,-1,-1,-1,-1,-1,-1,-1,-1,-1,-1,-1,-1,-1,-1,-1,-1,-1,-1,-1,-1,-1,-1,-1,-1,-1,-1,-1,-1,-1,-1,-1,-1],"loss_changes":[6.634508E5,6.5600938E3,1.3747356E5,4.249375E2,7.4154453E3,1.01333125E5,8.563355E3,1.3614016E4,4.265625E0,1.13796875E2,1.2877709E4,1.0945809E4,5.7000625E3,1.4691875E3,3.0404104E3,1.5409062E3,3.141919E1,0E0,7.9648438E0,2.9267578E1,1.651914E2,5.0961426E2,2.2144336E2,1.2335043E3,1.1691621E3,5.295776E2,3.0865E3,8.449219E2,4.2452118E1,2.8349548E2,8.0690845E2,9.65E1,5.245544E2,6.82428E1,3.711145E1,2.8720753E1,1.1992188E0,4.793306E1,1.4964844E1,3.321875E1,1.5546875E2,3.0259613E1,2.7790527E2,4.4501305E1,1.1196973E2,1.2830762E2,1.3669039E3,4.5715625E2,2.5630267E2,1.3131201E2,6.744942E1,9.6046875E2,1.3742012E3,5.188242E2,1.8907916E2,0E0,8.498833E0,8.689148E1,8.0204666E1,4.6254147E2,5.168157E2,0E0,0E0,0E0,0E0,0E0,0E0,0E0,0E0,0E0,0E0,0E0,0E0,0E0,0E0,0E0,0E0,0E0,0E0,0E0,0E0,0E0,0E0,0E0,0E0,0E0,0E0,0E0,0E0,0E0,0E0,0E0,0E0,0E0,0E0,0E0,0E0,0E0,0E0,0E0,0E0,0E0,0E0,0E0,0E0,0E0,0E0,0E0,0E0,0E0,0E0,0E0,0E0,0E0,0E0,0E0,0E0,0E0,0E0],"parents":[2147483647,0,0,1,1,2,2,3,3,4,4,5,5,6,6,7,7,8,8,9,9,10,10,11,11,12,12,13,13,14,14,15,15,16,16,18,18,19,19,20,20,21,21,22,22,23,23,24,24,25,25,26,26,27,27,28,28,29,29,30,30,31,31,32,32,33,33,34,34,35,35,36,36,37,37,38,38,39,39,40,40,41,41,42,42,43,43,44,44,45,45,46,46,47,47,48,48,49,49,50,50,51,51,52,52,53,53,54,54,56,56,57,57,58,58,59,59,60,60],"right_children":[2,4,6,8,10,12,14,16,18,20,22,24,26,28,30,32,34,-1,36,38,40,42,44,46,48,50,52,54,56,58,60,62,64,66,68,70,72,74,76,78,80,82,84,86,88,90,92,94,96,98,100,102,104,106,108,-1,110,112,114,116,118,-1,-1,-1,-1,-1,-1,-1,-1,-1,-1,-1,-1,-1,-1,-1,-1,-1,-1,-1,-1,-1,-1,-1,-1,-1,-1,-1,-1,-1,-1,-1,-1,-1,-1,-1,-1,-1,-1,-1,-1,-1,-1,-1,-1,-1,-1,-1,-1,-1,-1,-1,-1,-1,-1,-1,-1,-1,-1],"split_conditions":[1E0,8E0,1E0,1.6666667E-1,8.5714287E-1,5E-1,4.472136E-1,4.1E1,8.2408E1,3.4E1,1E0,2.6E1,9.2E1,2.99E2,3.1E1,5E-1,3.847924E3,1.9933574E-1,-1E0,5E0,3.3370786E0,-1.5E1,-1E0,1E0,1E0,3.5E1,2.9E1,3E0,1.4E1,2.6477514E4,6E0,5E0,5E-1,5.869565E-1,-8.547078E3,2.08469E2,1.5675E2,2.7579907E3,1.8E1,-9E1,0E0,2.5E1,4.1E1,4.2857143E-1,-8E0,8E0,3E1,2.7E1,1E0,2E0,-3.704971E4,4.1E1,2.857143E-1,1E0,2E0,-1.9809978E-1,3E0,3E0,1.2E1,1.19E2,1E0,1.9650047E-1,1.8590474E-1,-6.658118E-2,1.3919003E-1,-1.4708786E-1,-3.9533433E-2,-9.188261E-2,-1.990232E-1,-1.4666668E-1,1.7547584E-1,1.9675739E-1,1.8894695E-1,1.5378512E-1,-1.7142858E-1,1.6512771E-1,1.7608921E-1,-1.4666668E-1,1.6261517E-1,1.4898628E-1,9.967854E-2,-1.4285715E-1,1.7150718E-1,-1.0038983E-1,-1.6617195E-1,-1.9058824E-1,1.5709023E-1,1.2734115E-1,1.7602865E-1,1.0152849E-1,-1.993865E-1,1.0294634E-3,1.8282817E-1,8.792379E-2,1.8125115E-1,-9.440606E-2,1.4759883E-1,-9.848918E-2,1.13334835E-1,5.901857E-2,-1.5473981E-1,-1.7950813E-1,-1.9738285E-1,-9.798883E-2,1.64762E-1,-1.3751474E-1,1.860258E-1,-1.5060236E-1,1.59945E-1,1.5709023E-1,-1E-1,1.8671402E-1,-1.0458275E-2,5.509594E-2,-1.4701281E-1,-6.939111E-2,1.6110383E-1,6.5476716E-2,-1.6662104E-1],"split_indices":[20,83,27,4,23,23,7,16,75,36,22,17,25,32,16,28,56,0,90,17,97,20,90,17,18,32,17,26,17,74,83,77,90,52,86,42,6,75,16,20,20,55,16,4,20,20,20,17,1,94,85,16,4,18,27,0,2,26,17,9,9,0,0,0,0,0,0,0,0,0,0,0,0,0,0,0,0,0,0,0,0,0,0,0,0,0,0,0,0,0,0,0,0,0,0,0,0,0,0,0,0,0,0,0,0,0,0,0,0,0,0,0,0,0,0,0,0,0,0],"split_type":[0,0,0,0,0,0,0,0,0,0,0,0,0,0,0,0,0,0,0,0,0,0,0,0,0,0,0,0,0,0,0,0,0,0,0,0,0,0,0,0,0,0,0,0,0,0,0,0,0,0,0,0,0,0,0,0,0,0,0,0,0,0,0,0,0,0,0,0,0,0,0,0,0,0,0,0,0,0,0,0,0,0,0,0,0,0,0,0,0,0,0,0,0,0,0,0,0,0,0,0,0,0,0,0,0,0,0,0,0,0,0,0,0,0,0,0,0,0,0],"sum_hessian":[2.9769194E5,1.2473582E5,1.7295612E5,8.9731086E4,3.500474E4,1.567615E5,1.6194624E4,5.2894816E4,3.683627E4,2.8877473E4,6.127266E3,2.1851857E4,1.3490964E5,1.3998227E4,2.196397E3,5.169706E4,1.1977596E3,3.1462648E4,5.3736187E3,6.725053E3,2.215242E4,2.6447446E3,3.4825212E3,1.6002292E4,5.849564E3,8.3835724E2,1.3407128E5,1.3889315E4,1.0891094E2,6.309635E2,1.5654335E3,5.1189074E4,5.0798175E2,9.525268E2,2.4523283E2,1.3982832E1,5.3596357E3,1.7982832E1,6.7070703E3,1.5877171E4,6.2752485E3,6.116416E1,2.5835806E3,2.3910944E1,3.4586104E3,3.3923282E2,1.566306E4,5.5863076E3,2.6325644E2,7.211416E2,1.1721567E2,1.3186897E5,2.2023123E3,1.3773367E4,1.15948494E2,1.0425E2,4.660944E0,5.4910406E2,8.1859436E1,3.5910193E2,1.2063315E3,3.966138E4,1.1527698E4,2.968455E2,2.1113626E2,8.884002E2,6.412661E1,4.1482834E1,2.0375E2,2.75E0,1.1232832E1,4.347342E3,1.01229395E3,1.1982832E1,6E0,2.2414678E3,4.4656025E3,2.75E0,1.5874421E4,5.542607E3,7.326416E2,2.5E0,5.866416E1,1.2800021E3,1.3035784E3,2.025E1,3.660944E0,5.811727E2,2.8774375E3,1.4232832E1,3.25E2,1.5238944E4,4.2411478E2,5.896695E2,4.996638E3,2.0891415E2,5.434227E1,2.9821888E1,6.913197E2,1.6732832E1,1.00482834E2,4.6744508E4,8.512446E4,1.9819603E3,2.2035191E2,4.9071888E1,1.3724295E4,9.1982834E1,2.3965664E1,3.660944E0,1E0,5.258712E2,2.3232832E1,5.1448494E1,3.0410944E1,2.1355794E2,1.4554398E2,1.0455794E2,1.1017736E3],"tree_param":{"num_deleted":"0","num_feature":"99","num_nodes":"119","size_leaf_vector":"1"}},{"base_weights":[-1.5721374E-4,1.5996271E0,-1.1531929E0,1.7316667E0,1.2638788E0,-1.4104246E0,1.3665802E0,1.6795857E0,1.8084503E0,1.4563658E0,3.647311E-1,4.0027562E-1,-1.7008786E0,1.570436E0,-1.5847269E0,1.7600682E0,-5.544144E-1,1.7789066E0,1.8142654E-1,1.4026268E0,1.5574318E0,-1.1928355E0,1.5125142E0,2.6099175E-2,1.6295887E0,-3.08135E-1,-1.7274619E0,1.6923188E0,4.3481237E-1,-1.6991144E0,7.359632E-1,1.6950337E0,1.7852397E0,1.798077E-1,-1.0111512E0,9.375439E-1,1.7807881E0,1.447601E0,1.2728426E0,1.6298026E0,1.5059214E0,1.4689183E0,-1.2601055E0,-7.635328E-1,1.5302567E0,-8.7057346E-1,1.015111E-1,1.6423678E0,-2.1025565E-1,-9.6629757E-1,1.2064543E0,-1.7342238E0,-4.515215E-2,1.3685977E0,1.7806392E0,-1.7613788E0,9.5146847E-1,-1.7274461E0,1.214933E0,-1.7091817E-1,1.4629806E0,1.6997366E-1,-8.799815E-2,1.7869264E-1,1.3175759E-1,-1.3792044E-1,-2.6457762E-2,-1.4755042E-1,1.6359694E-1,1.7929886E-1,1.7286925E-1,-1.4152843E-1,1.4483154E-1,1.4655669E-1,1.1285432E-1,4.5289915E-2,1.6312237E-1,1.3570271E-1,1.5631825E-1,-1.2424687E-1,1.5744977E-1,1.8499862E-1,-1.2987731E-1,-1.7381398E-1,1.6810936E-1,1.2338177E-1,1.652002E-1,-1.208659E-1,1.1982906E-1,3.031885E-3,1.643316E-1,1.2898682E-1,1.6794625E-1,1.3155608E-1,-1.8208861E-1,-1.10958315E-1,1.5240069E-1,1.3675071E-1,-8.596075E-2,-1.816752E-1,-1.6658443E-1,7.581542E-2,-2.0668363E-2,-1.7861173E-1,1.3958414E-1,-1.5931556E-1,1.7827004E-1,7.9995915E-2,-1.8588735E-1,-2.421598E-2,1.5460366E-1,-7.9625726E-2,-1.7660536E-1,-1.3095324E-1,1.9029288E-1,-1.426705E-1,1.7040394E-1],"categories":[],"categories_nodes":[],"categories_segments":[],"categories_sizes":[],"default_left":[0,0,0,0,0,0,0,0,0,0,0,0,0,0,0,0,0,0,0,0,0,0,0,0,0,0,0,0,0,0,0,0,0,0,0,0,0,0,0,0,0,0,0,0,0,0,0,0,0,0,0,0,0,0,0,0,0,0,0,0,0,0,0,0,0,0,0,0,0,0,0,0,0,0,0,0,0,0,0,0,0,0,0,0,0,0,0,0,0,0,0,0,0,0,0,0,0,0,0,0,0,0,0,0,0,0,0,0,0,0,0,0,0,0,0,0,0],"id":1,"left_children":[1,3,5,7,9,11,13,15,17,19,21,23,25,27,29,31,33,35,-1,37,39,41,43,45,47,49,51,53,55,57,59,61,63,-1,65,67,69,71,73,75,77,79,81,83,85,87,89,91,93,95,97,99,101,103,105,107,109,111,113,-1,115,-1,-1,-1,-1,-1,-1,-1,-1,-1,-1,-1,-1,-1,-1,-1,-1,-1,-1,-1,-1,-1,-1,-1,-1,-1,-1,-1,-1,-1,-1,-1,-1,-1,-1,-1,-1,-1,-1,-1,-1,-1,-1,-1,-1,-1,-1,-1,-1,-1,-1,-1,-1,-1,-1,-1,-1],"loss_changes":[5.445563E5,5.4795938E3,1.112028E5,3.51875E2,6.0408555E3,8.187209E4,9.563885E3,9.5111875E3,2.9296875E0,1.5396875E2,1.1007797E4,9.89877E3,4.9663125E3,2.0568984E3,2.7395435E2,8.05625E1,1.9789102E3,7.7460938E0,0E0,1.0777734E2,3.4716797E1,4.6963086E2,1.4431982E2,1.1157725E3,1.1841406E2,2.5070679E3,1.497375E3,3.8139062E2,1.6381166E3,8.295264E1,8.952574E1,1.7426562E2,2.665625E1,0E0,4.2321704E2,2.8339888E1,6.71875E-1,3.0558594E1,1.3298682E2,6.173828E0,4.765625E1,2.0523178E1,3.0889844E2,6.984004E1,1.24918945E2,8.968073E2,1.6705977E3,6.30459E1,8.970059E1,6.2717065E2,2.5470264E2,7.3684375E2,6.867153E1,2.5017822E2,7.616406E1,7.016333E1,8.294335E2,3.3477783E1,1.9889662E1,0E0,2.909214E1,0E0,0E0,0E0,0E0,0E0,0E0,0E0,0E0,0E0,0E0,0E0,0E0,0E0,0E0,0E0,0E0,0E0,0E0,0E0,0E0,0E0,0E0,0E0,0E0,0E0,0E0,0E0,0E0,0E0,0E0,0E0,0E0,0E0,0E0,0E0,0E0,0E0,0E0,0E0,0E0,0E0,0E0,0E0,0E0,0E0,0E0,0E0,0E0,0E0,0E0,0E0,0E0,0E0,0E0,0E0,0E0],"parents":[2147483647,0,0,1,1,2,2,3,3,4,4,5,5,6,6,7,7,8,8,9,9,10,10,11,11,12,12,13,13,14,14,15,15,16,16,17,17,19,19,20,20,21,21,22,22,23,23,24,24,25,25,26,26,27,27,28,28,29,29,30,30,31,31,32,32,34,34,35,35,36,36,37,37,38,38,39,39,40,40,41,41,42,42,43,43,44,44,45,45,46,46,47,47,48,48,49,49,50,50,51,51,52,52,53,53,54,54,55,55,56,56,57,57,58,58,60,60],"right_children":[2,4,6,8,10,12,14,16,18,20,22,24,26,28,30,32,34,36,-1,38,40,42,44,46,48,50,52,54,56,58,60,62,64,-1,66,68,70,72,74,76,78,80,82,84,86,88,90,92,94,96,98,100,102,104,106,108,110,112,114,-1,116,-1,-1,-1,-1,-1,-1,-1,-1,-1,-1,-1,-1,-1,-1,-1,-1,-1,-1,-1,-1,-1,-1,-1,-1,-1,-1,-1,-1,-1,-1,-1,-1,-1,-1,-1,-1,-1,-1,-1,-1,-1,-1,-1,-1,-1,-1,-1,-1,-1,-1,-1,-1,-1,-1,-1,-1],"split_conditions":[1E0,1.075932E3,1E0,1E0,8.5714287E-1,1E0,2.99E2,2E0,1.6E1,2E0,1E0,2.7E1,3.5E1,4.472136E-1,2E0,1.4E1,3.3333334E-1,-1E0,1.8142654E-1,3.3370786E0,3.5E1,-1.5E1,-1E0,3E0,5E-1,2E0,2.9E1,3E0,1.31E2,2.7E1,4E-1,6E-1,5E-1,1.798077E-1,1E2,3.8289878E3,1.5E2,-5.8E1,3.4E1,1E0,3.5E1,2.5E1,6E0,1.49E2,1E0,1.98E2,2.8E1,2.8E1,1.65E2,4.2857143E-1,2.99E2,1.29E2,-3.9681203E4,2.2222222E-1,2.2222222E-1,1.99E2,3E0,3E0,4E0,-1.7091817E-1,3.14E2,1.6997366E-1,-8.799815E-2,1.7869264E-1,1.3175759E-1,-1.3792044E-1,-2.6457762E-2,-1.4755042E-1,1.6359694E-1,1.7929886E-1,1.7286925E-1,-1.4152843E-1,1.4483154E-1,1.4655669E-1,1.1285432E-1,4.5289915E-2,1.6312237E-1,1.3570271E-1,1.5631825E-1,-1.2424687E-1,1.5744977E-1,1.8499862E-1,-1.2987731E-1,-1.7381398E-1,1.6810936E-1,1.2338177E-1,1.652002E-1,-1.208659E-1,1.1982906E-1,3.031885E-3,1.643316E-1,1.2898682E-1,1.6794625E-1,1.3155608E-1,-1.8208861E-1,-1.10958315E-1,1.5240069E-1,1.3675071E-1,-8.596075E-2,-1.816752E-1,-1.6658443E-1,7.581542E-2,-2.0668363E-2,-1.7861173E-1,1.3958414E-1,-1.5931556E-1,1.7827004E-1,7.9995915E-2,-1.8588735E-1,-2.421598E-2,1.5460366E-1,-7.9625726E-2,-1.7660536E-1,-1.3095324E-1,1.9029288E-1,-1.426705E-1,1.7040394E-1],"split_indices":[20,80,27,22,23,18,29,2,54,54,22,17,29,7,27,54,23,90,0,97,36,20,90,17,23,21,17,54,8,17,4,23,28,0,8,65,8,20,55,45,17,55,17,6,54,29,20,17,25,4,24,8,85,4,4,29,54,2,20,0,43,0,0,0,0,0,0,0,0,0,0,0,0,0,0,0,0,0,0,0,0,0,0,0,0,0,0,0,0,0,0,0,0,0,0,0,0,0,0,0,0,0,0,0,0,0,0,0,0,0,0,0,0,0,0,0,0],"split_type":[0,0,0,0,0,0,0,0,0,0,0,0,0,0,0,0,0,0,0,0,0,0,0,0,0,0,0,0,0,0,0,0,0,0,0,0,0,0,0,0,0,0,0,0,0,0,0,0,0,0,0,0,0,0,0,0,0,0,0,0,0,0,0,0,0,0,0,0,0,0,0,0,0,0,0,0,0,0,0,0,0,0,0,0,0,0,0,0,0,0,0,0,0,0,0,0,0,0,0,0,0,0,0,0,0,0,0,0,0,0,0,0,0,0,0,0,0],"sum_hessian":[2.952131E5,1.23651664E5,1.7156144E5,8.874631E4,3.4905355E4,1.5567023E5,1.5891195E4,5.2892867E4,3.585344E4,2.8750014E4,6.155342E3,2.1519094E4,1.3415114E5,1.4864899E4,1.0262957E3,5.1053805E4,1.8390637E3,5.946757E3,2.9906686E4,1.8779432E4,9.970581E3,2.6114749E3,3.5438672E3,1.6498367E4,5.0207266E3,2.5128306E3,1.3163831E5,1.3423688E4,1.4412103E3,9.783408E2,4.7954865E1,1.42653545E4,3.678845E4,2.985257E2,1.5405381E3,1.4383301E1,5.9323735E3,1.3938986E4,4.840446E3,4.133079E3,5.837502E3,6.3858852E1,2.547616E3,2.708674E1,3.5167803E3,1.2790846E3,1.5219283E4,4.9862007E3,3.4525604E1,1.7519049E3,7.609257E2,1.311113E5,5.27015E2,2.880881E3,1.0542808E4,2.7401666E2,1.1671936E3,9.6932385E2,9.016986E0,1.0680998E1,3.727387E1,1.42396875E4,2.566742E1,3.665344E4,1.3500893E2,1.03128E3,5.0925803E2,2.978841E0,1.140446E1,4.7795986E3,1.1527749E3,2.9836183E0,1.3936003E4,2.0685562E3,2.7718894E3,5.370373E0,4.127709E3,1.6282686E3,4.2092334E3,1.9898305E0,6.1869022E1,3.0710112E1,2.5169058E3,1.9572647E1,7.5140934E0,1.0270752E3,2.489705E3,1.0997789E3,1.793057E2,1.4548529E4,6.707531E2,4.7815973E2,4.508041E3,1.7823692E1,1.6701914E1,1.6571134E3,9.4791504E1,7.062134E2,5.4712383E1,5.93977E4,7.171359E4,8.761357E1,4.3940143E2,2.4113012E1,2.856768E3,5.9661064E0,1.0536842E4,9.783501E0,2.6423315E2,3.8828427E2,7.7890936E2,3.9449535E1,9.298743E2,1.7376432E0,7.2793427E0,2.4912765E0,3.478259E1],"tree_param":{"num_deleted":"0","num_feature":"99","num_nodes":"117","size_leaf_vector":"1"}},{"base_weights":[2.8941457E-3,1.4740618E0,-1.055102E0,1.5994493E0,1.1596764E0,-1.291323E0,1.2614048E0,1.5501634E0,1.6725432E0,1.335913E0,3.3981222E-1,3.7866434E-1,-1.5705329E0,1.4477675E0,-1.37676E0,1.6149982E0,-5.7843196E-1,1.6771612E-1,1.6345767E0,1.3772024E0,1.1965356E0,-1.0360942E0,1.3842204E0,4.961597E-2,1.4300268E0,3.3207497E-1,-1.5861558E0,1.4800574E0,-9.760868E-1,-1.5159429E0,9.78494E-1,1.6279494E0,-7.3081344E-1,1.671496E-1,-1.2235924E0,9.0359014E-1,1.6370271E0,1.3510826E0,1.5008352E0,1.2685546E0,9.4838214E-1,-1.1280168E0,1.5034775E0,9.584555E-1,1.4670718E0,-1.6175432E0,8.407175E-2,1.5197124E0,-4.0279675E-1,1.1719196E0,-7.093388E-1,-1.6030742E0,-6.0199785E-1,1.6103355E0,1.0450295E0,1.347715E0,-1.6449739E0,-1.5413307E0,8.8651985E-1,1.3981966E0,-1.606044E-1,1.6305701E-1,7.979318E-2,-1.0068474E-1,1.4639182E-1,-1.2478324E-1,-2.2119844E-2,-1.294628E-1,1.4383449E-1,1.6535014E-1,1.5593229E-1,1.3129933E-1,1.3992089E-1,1.502804E-1,1.7883185E-2,1.0250185E-1,1.3067855E-1,6.344774E-2,1.1381872E-1,1.6290577E-1,-1.16695635E-1,1.5899403E-1,1.7547337E-2,1.2057183E-1,-1.7701583E-1,1.5029858E-1,5.208395E-2,8.055179E-2,-1.7366032E-1,4.379348E-3,1.599183E-1,1.2929863E-1,1.566553E-1,-7.874001E-2,1.3607307E-1,1.3379923E-1,8.0091186E-2,5.5799283E-2,-1.0895616E-1,-1.4991784E-1,-1.6602361E-1,-8.1056945E-2,1.3553262E-1,1.6342203E-1,1.4198874E-1,1.4788736E-1,4.8976123E-2,1.5985723E-1,-1.5333325E-1,-1.7258851E-1,1.14957325E-1,5.405516E-2,-1.5666349E-1,-1.3584499E-1,1.6276059E-1,-1.3597801E-1,1.5840876E-1],"categories":[],"categories_nodes":[],"categories_segments":[],"categories_sizes":[],"default_left":[0,0,0,0,0,0,0,0,0,0,0,0,0,0,0,0,0,0,0,0,0,0,0,0,0,0,0,0,0,0,0,0,0,0,0,0,0,0,0,0,0,0,0,0,0,0,0,0,0,0,0,0,0,0,0,0,0,0,0,0,0,0,0,0,0,0,0,0,0,0,0,0,0,0,0,0,0,0,0,0,0,0,0,0,0,0,0,0,0,0,0,0,0,0,0,0,0,0,0,0,0,0,0,0,0,0,0,0,0,0,0,0,0,0,0,0,0],"id":2,"left_children":[1,3,5,7,9,11,13,15,17,19,21,23,25,27,29,31,33,-1,35,37,39,41,43,45,47,49,51,53,55,57,59,61,63,-1,65,67,69,71,73,75,77,79,81,83,85,87,89,91,93,95,97,99,101,103,105,107,109,111,113,115,-1,-1,-1,-1,-1,-1,-1,-1,-1,-1,-1,-1,-1,-1,-1,-1,-1,-1,-1,-1,-1,-1,-1,-1,-1,-1,-1,-1,-1,-1,-1,-1,-1,-1,-1,-1,-1,-1,-1,-1,-1,-1,-1,-1,-1,-1,-1,-1,-1,-1,-1,-1,-1,-1,-1,-1,-1],"loss_changes":[4.501297E5,4.767E3,9.205264E4,3.0896875E2,4.983883E3,7.117947E4,7.655592E3,7.1312266E3,3.359375E0,1.617461E2,8.773802E3,7.564954E3,3.8880938E3,1.1394609E3,3.3835034E2,1.5244531E3,2.2199136E3,0E0,5.354492E0,6.867969E1,1.14899414E2,6.167783E2,1.2102588E2,9.5690765E2,8.574346E2,9.3319336E2,2.1589375E3,8.115762E2,3.0027905E2,6.0571045E1,6.510225E1,1.07171875E2,1.686712E2,0E0,2.8590088E1,1.9468468E1,2.2861328E0,3.1324219E1,9.6484375E0,4.551367E1,8.65791E1,2.7495264E2,1.0338379E1,3.8553137E2,9.788818E1,9.8710266E1,9.958527E2,5.0749023E1,1.665364E2,3.531122E1,2.3022781E2,7.5490625E2,8.967568E2,4.7902344E1,7.9660645E2,3.3824257E1,3.575345E1,5.146704E1,2.0154385E1,2.7985924E1,0E0,0E0,0E0,0E0,0E0,0E0,0E0,0E0,0E0,0E0,0E0,0E0,0E0,0E0,0E0,0E0,0E0,0E0,0E0,0E0,0E0,0E0,0E0,0E0,0E0,0E0,0E0,0E0,0E0,0E0,0E0,0E0,0E0,0E0,0E0,0E0,0E0,0E0,0E0,0E0,0E0,0E0,0E0,0E0,0E0,0E0,0E0,0E0,0E0,0E0,0E0,0E0,0E0,0E0,0E0,0E0,0E0],"parents":[2147483647,0,0,1,1,2,2,3,3,4,4,5,5,6,6,7,7,8,8,9,9,10,10,11,11,12,12,13,13,14,14,15,15,16,16,18,18,19,19,20,20,21,21,22,22,23,23,24,24,25,25,26,26,27,27,28,28,29,29,30,30,31,31,32,32,34,34,35,35,36,36,37,37,38,38,39,39,40,40,41,41,42,42,43,43,44,44,45,45,46,46,47,47,48,48,49,49,50,50,51,51,52,52,53,53,54,54,55,55,56,56,57,57,58,58,59,59],"right_children":[2,4,6,8,10,12,14,16,18,20,22,24,26,28,30,32,34,-1,36,38,40,42,44,46,48,50,52,54,56,58,60,62,64,-1,66,68,70,72,74,76,78,80,82,84,86,88,90,92,94,96,98,100,102,104,106,108,110,112,114,116,-1,-1,-1,-1,-1,-1,-1,-1,-1,-1,-1,-1,-1,-1,-1,-1,-1,-1,-1,-1,-1,-1,-1,-1,-1,-1,-1,-1,-1,-1,-1,-1,-1,-1,-1,-1,-1,-1,-1,-1,-1,-1,-1,-1,-1,-1,-1,-1,-1,-1,-1,-1,-1,-1,-1,-1,-1],"split_conditions":[1E0,6E0,1E0,1E0,1E0,5E-1,2.99E2,4.1E1,6.1599E2,2.98E2,1E0,2.7E1,1E0,3E0,2E0,1.84E2,3.3333334E-1,1.6771612E-1,-1E0,4.0684934E0,-1E0,4.7E1,-9E0,1E0,6E-1,3.5E1,2.9E1,3E0,1E0,2.7E1,4.5E1,5E-1,2.9E1,1.671496E-1,1.1E1,1.1324752E1,1.53E2,2.6E1,4.106E3,-1.8E1,5.303571E0,6E0,8.1852837E3,2.99E2,2E0,3.5E1,3E1,2.9E1,3.75E-1,4.4E1,3E1,4.1E1,2.857143E-1,7.68102E2,4E1,2.2222222E-1,3.75E-1,3E0,8.16608E4,1.6674788E2,-1.606044E-1,1.6305701E-1,7.979318E-2,-1.0068474E-1,1.4639182E-1,-1.2478324E-1,-2.2119844E-2,-1.294628E-1,1.4383449E-1,1.6535014E-1,1.5593229E-1,1.3129933E-1,1.3992089E-1,1.502804E-1,1.7883185E-2,1.0250185E-1,1.3067855E-1,6.344774E-2,1.1381872E-1,1.6290577E-1,-1.16695635E-1,1.5899403E-1,1.7547337E-2,1.2057183E-1,-1.7701583E-1,1.5029858E-1,5.208395E-2,8.055179E-2,-1.7366032E-1,4.379348E-3,1.599183E-1,1.2929863E-1,1.566553E-1,-7.874001E-2,1.3607307E-1,1.3379923E-1,8.0091186E-2,5.5799283E-2,-1.0895616E-1,-1.4991784E-1,-1.6602361E-1,-8.1056945E-2,1.3553262E-1,1.6342203E-1,1.4198874E-1,1.4788736E-1,4.8976123E-2,1.5985723E-1,-1.5333325E-1,-1.7258851E-1,1.14957325E-1,5.405516E-2,-1.5666349E-1,-1.3584499E-1,1.6276059E-1,-1.3597801E-1,1.5840876E-1],"split_indices":[20,82,27,22,18,23,29,16,74,5,22,17,9,26,27,24,23,0,90,97,20,17,20,17,3,29,17,79,9,17,82,28,17,0,62,45,25,92,51,20,97,17,40,24,15,29,20,17,4,55,16,16,4,81,16,4,4,21,74,96,0,0,0,0,0,0,0,0,0,0,0,0,0,0,0,0,0,0,0,0,0,0,0,0,0,0,0,0,0,0,0,0,0,0,0,0,0,0,0,0,0,0,0,0,0,0,0,0,0,0,0,0,0,0,0,0,0],"split_type":[0,0,0,0,0,0,0,0,0,0,0,0,0,0,0,0,0,0,0,0,0,0,0,0,0,0,0,0,0,0,0,0,0,0,0,0,0,0,0,0,0,0,0,0,0,0,0,0,0,0,0,0,0,0,0,0,0,0,0,0,0,0,0,0,0,0,0,0,0,0,0,0,0,0,0,0,0,0,0,0,0,0,0,0,0,0,0,0,0,0,0,0,0,0,0,0,0,0,0,0,0,0,0,0,0,0,0,0,0,0,0,0,0,0,0,0,0],"sum_hessian":[2.8919338E5,1.2097479E5,1.682186E5,8.647971E4,3.4495082E4,1.5265261E5,1.556599E4,5.166508E4,3.4814633E4,2.8391477E4,6.1036064E3,2.186645E4,1.3078616E5,1.4539365E4,1.0266249E3,5.013816E4,1.5269158E3,3.1000797E4,3.8138354E3,2.1896049E4,6.4954277E3,2.6338164E3,3.4697898E3,1.6654943E4,5.2115054E3,1.0650126E3,1.2972114E5,1.4348606E4,1.907586E2,9.696784E2,5.6946453E1,4.9863176E4,2.7498492E2,3.399134E2,1.1870023E3,1.3977656E1,3.7998577E3,1.8086793E4,3.809256E3,5.03117E3,1.4642577E3,2.542349E3,9.146733E1,5.6726135E2,2.9025286E3,3.363134E2,1.631863E4,4.96855E3,2.4295563E2,5.894928E2,4.7551978E2,1.275282E5,2.192938E3,1.1039807E4,3.3088003E3,4.2409065E1,1.4834955E2,9.598933E2,9.785116E0,4.938573E1,7.560724E0,4.9705266E4,1.5790953E2,2.447444E2,3.0240538E1,1.1587368E3,2.8265558E1,2.4569378E0,1.1520719E1,3.1184324E3,6.8142554E2,1.0111986E4,7.9748057E3,3.8034553E3,5.8008046E0,6.864154E2,4.3447544E3,5.533896E2,9.1086804E2,3.4838036E1,2.507511E3,8.569098E1,5.776355E0,5.206399E2,4.6621456E1,2.7958254E3,1.0670314E2,1.5481163E1,3.2083224E2,1.5897046E4,4.2158398E2,8.5561896E2,4.112931E3,1.9991104E2,4.3044594E1,4.0541312E2,1.8407964E2,1.09632614E2,3.6588715E2,4.5271406E4,8.22568E4,1.9822917E3,2.1064632E2,9.802815E3,1.236991E3,1.8565619E3,1.4522383E3,3.94217E1,2.987367E0,1.4454686E2,3.80269E0,1.1282354E1,9.4861096E2,2.2217429E0,7.563373E0,2.719713E0,4.6666016E1],"tree_param":{"num_deleted":"0","num_feature":"99","num_nodes":"117","size_leaf_vector":"1"}},{"base_weights":[1.8286059E-4,1.3335748E0,-6.994287E-1,1.471787E0,1.0755541E0,-1.2605169E0,1.3958523E0,1.5211138E0,1.2231344E0,1.2646412E0,-2.4588206E-1,1.8070859E-1,-1.4803478E0,1.4673362E0,-1.2466648E0,1.5432817E0,1.4415321E0,-1.1553091E0,1.5710616E0,1.2496723E0,1.4264054E0,-9.213535E-1,1.133726E0,-2.858549E-2,9.85846E-1,-1.488803E0,-1.212251E-2,9.1643584E-1,1.53486E0,-1.3344762E0,5.968878E-1,1.511046E0,1.5546154E0,1.4791638E0,1.3809233E0,-1.5617436E0,-1.059601E0,1.5738618E0,1.1853786E0,1.209486E0,1.3286581E0,1.4571174E0,1.0402356E0,-1.0177372E0,1.4084488E0,1.249734E0,-7.8517807E-1,-1.0429186E0,2.4256242E-2,1.2852771E0,6.993005E-1,-1.3774232E0,-1.5528672E0,7.323896E-1,-1.8182924E-1,1.165142E0,-5.1238984E-1,1.5526044E0,1.3269461E0,6.339897E-2,-1.4139961E0,-1.5388037E-1,1.2337813E0,1.5119709E-1,4.212388E-2,1.5556423E-1,1.2551999E-1,1.4818016E-1,-4.7960065E-2,1.382782E-1,-1.6641779E-1,-1.674412E-1,-3.43887E-2,-1.2955706E-1,-8.277809E-2,1.5752873E-1,1.2990044E-1,-1.7661089E-1,1.5527499E-1,1.2394424E-1,1.1152054E-1,1.3787162E-1,1.2171302E-1,1.4596371E-1,-1.5428962E-1,-1.5384279E-1,1.1721002E-1,-1.075735E-1,1.0298294E-1,1.4680116E-1,-1.5946053E-1,1.467669E-1,9.031659E-2,6.1576427E-3,-1.7788465E-1,-1.4398281E-1,8.628148E-2,6.704491E-4,1.3142164E-1,1.2902999E-1,-1.7231159E-1,3.3081967E-2,9.428071E-2,-1.4849615E-1,-1.0708622E-1,-1.5717368E-1,-1.4452527E-1,1.1408438E-1,-3.408819E-2,-3.8261455E-2,3.172186E-2,1.2019243E-1,-9.274146E-2,1.2036609E-1,-1.2952232E-1,1.5536416E-1,-7.663488E-2,-1.4227511E-1,1.4414722E-1,-7.104572E-2,1.10110365E-1,-1.4401744E-1,3.7202638E-2,1.3496807E-1,-1.1589266E-1],"categories":[],"categories_nodes":[],"categories_segments":[],"categories_sizes":[],"default_left":[0,0,0,0,0,0,0,0,0,0,0,0,0,0,0,0,0,0,0,0,0,0,0,0,0,0,0,0,0,0,0,0,0,0,0,0,0,0,0,0,0,0,0,0,0,0,0,0,0,0,0,0,0,0,0,0,0,0,0,0,0,0,0,0,0,0,0,0,0,0,0,0,0,0,0,0,0,0,0,0,0,0,0,0,0,0,0,0,0,0,0,0,0,0,0,0,0,0,0,0,0,0,0,0,0,0,0,0,0,0,0,0,0,0,0,0,0,0,0,0,0,0,0,0,0],"id":3,"left_children":[1,3,5,7,9,11,13,15,17,19,21,23,25,27,29,31,33,35,37,39,41,43,45,47,49,51,53,55,57,59,61,63,65,67,69,71,73,75,77,79,81,83,85,87,89,91,93,95,97,99,101,103,105,107,109,111,113,115,117,119,121,-1,123,-1,-1,-1,-1,-1,-1,-1,-1,-1,-1,-1,-1,-1,-1,-1,-1,-1,-1,-1,-1,-1,-1,-1,-1,-1,-1,-1,-1,-1,-1,-1,-1,-1,-1,-1,-1,-1,-1,-1,-1,-1,-1,-1,-1,-1,-1,-1,-1,-1,-1,-1,-1,-1,-1,-1,-1,-1,-1,-1,-1,-1,-1],"loss_changes":[2.6092606E5,3.4310156E3,2.156748E5,7.668906E2,8.390535E3,4.5845953E4,7.3215938E3,9.003125E1,8.591908E3,6.934766E1,3.9189077E3,3.2272534E3,1.558625E3,1.4020859E3,1.6610876E2,1.26015625E1,2.3980469E1,4.989746E1,7.9140625E0,8.3765625E1,2.7908691E1,6.35334E2,3.0869482E2,8.147953E2,3.38125E2,8.8859375E2,9.1092705E1,1.465407E3,1.2192969E2,1.0847534E2,6.599095E1,1.0121094E1,7.3359375E0,3.7004883E1,2.712207E1,3.3794678E1,5.7776367E1,1.4765625E0,7.7916145E1,4.8998047E1,4.8899414E1,1.9606445E1,6.514157E1,3.2309277E2,2.2475174E1,9.715686E1,6.693138E1,5.706005E2,3.271424E2,3.14021E1,1.8105304E2,1.5014609E3,1.5865625E2,5.906012E1,5.894695E1,2.7137158E2,8.234686E2,7.565625E1,8.364634E2,4.3695377E1,4.3672485E1,0E0,1.178336E1,0E0,0E0,0E0,0E0,0E0,0E0,0E0,0E0,0E0,0E0,0E0,0E0,0E0,0E0,0E0,0E0,0E0,0E0,0E0,0E0,0E0,0E0,0E0,0E0,0E0,0E0,0E0,0E0,0E0,0E0,0E0,0E0,0E0,0E0,0E0,0E0,0E0,0E0,0E0,0E0,0E0,0E0,0E0,0E0,0E0,0E0,0E0,0E0,0E0,0E0,0E0,0E0,0E0,0E0,0E0,0E0,0E0,0E0,0E0,0E0,0E0,0E0],"parents":[2147483647,0,0,1,1,2,2,3,3,4,4,5,5,6,6,7,7,8,8,9,9,10,10,11,11,12,12,13,13,14,14,15,15,16,16,17,17,18,18,19,19,20,20,21,21,22,22,23,23,24,24,25,25,26,26,27,27,28,28,29,29,30,30,31,31,32,32,33,33,34,34,35,35,36,36,37,37,38,38,39,39,40,40,41,41,42,42,43,43,44,44,45,45,46,46,47,47,48,48,49,49,50,50,51,51,52,52,53,53,54,54,55,55,56,56,57,57,58,58,59,59,60,60,62,62],"right_children":[2,4,6,8,10,12,14,16,18,20,22,24,26,28,30,32,34,36,38,40,42,44,46,48,50,52,54,56,58,60,62,64,66,68,70,72,74,76,78,80,82,84,86,88,90,92,94,96,98,100,102,104,106,108,110,112,114,116,118,120,122,-1,124,-1,-1,-1,-1,-1,-1,-1,-1,-1,-1,-1,-1,-1,-1,-1,-1,-1,-1,-1,-1,-1,-1,-1,-1,-1,-1,-1,-1,-1,-1,-1,-1,-1,-1,-1,-1,-1,-1,-1,-1,-1,-1,-1,-1,-1,-1,-1,-1,-1,-1,-1,-1,-1,-1,-1,-1,-1,-1,-1,-1,-1,-1],"split_conditions":[7E1,1.075932E3,1E0,4.1E1,1E0,6.666667E-1,2.99E2,5E0,1E0,1.98E2,2E0,2.5E1,2.9E1,2E0,2E0,1.9E1,2.58E2,2E1,4E0,2E0,5E-1,4.2857143E-1,2.99E2,2E0,3.8E1,4.1E1,6E0,4.472136E-1,4.472136E-1,3E0,4E-1,2E0,5E-1,1E0,7E-1,1.1E1,1E0,2.8867514E1,2E0,1.0175E2,1.98E2,8.608281E1,1E0,5.96E1,4.472136E-1,4.472136E-1,7.8E1,2.58E2,2E0,1.214E3,2.7E1,4E1,1.589E3,4E0,2.142E3,2E0,1.99E2,3E0,1.31E2,1E0,5.2E1,-1.5388037E-1,1.067032E3,1.5119709E-1,4.212388E-2,1.5556423E-1,1.2551999E-1,1.4818016E-1,-4.7960065E-2,1.382782E-1,-1.6641779E-1,-1.674412E-1,-3.43887E-2,-1.2955706E-1,-8.277809E-2,1.5752873E-1,1.2990044E-1,-1.7661089E-1,1.5527499E-1,1.2394424E-1,1.1152054E-1,1.3787162E-1,1.2171302E-1,1.4596371E-1,-1.5428962E-1,-1.5384279E-1,1.1721002E-1,-1.075735E-1,1.0298294E-1,1.4680116E-1,-1.5946053E-1,1.467669E-1,9.031659E-2,6.1576427E-3,-1.7788465E-1,-1.4398281E-1,8.628148E-2,6.704491E-4,1.3142164E-1,1.2902999E-1,-1.7231159E-1,3.3081967E-2,9.428071E-2,-1.4849615E-1,-1.0708622E-1,-1.5717368E-1,-1.4452527E-1,1.1408438E-1,-3.408819E-2,-3.8261455E-2,3.172186E-2,1.2019243E-1,-9.274146E-2,1.2036609E-1,-1.2952232E-1,1.5536416E-1,-7.663488E-2,-1.4227511E-1,1.4414722E-1,-7.104572E-2,1.10110365E-1,-1.4401744E-1,3.7202638E-2,1.3496807E-1,-1.1589266E-1],"split_indices":[29,80,27,16,18,28,29,77,1,24,21,17,17,54,27,54,5,54,2,54,23,4,24,17,55,16,83,7,7,2,4,79,28,2,53,91,91,7,1,25,5,7,1,13,7,7,82,29,26,77,17,16,95,94,95,15,29,26,8,18,92,0,85,0,0,0,0,0,0,0,0,0,0,0,0,0,0,0,0,0,0,0,0,0,0,0,0,0,0,0,0,0,0,0,0,0,0,0,0,0,0,0,0,0,0,0,0,0,0,0,0,0,0,0,0,0,0,0,0,0,0,0,0,0,0],"split_type":[0,0,0,0,0,0,0,0,0,0,0,0,0,0,0,0,0,0,0,0,0,0,0,0,0,0,0,0,0,0,0,0,0,0,0,0,0,0,0,0,0,0,0,0,0,0,0,0,0,0,0,0,0,0,0,0,0,0,0,0,0,0,0,0,0,0,0,0,0,0,0,0,0,0,0,0,0,0,0,0,0,0,0,0,0,0,0,0,0,0,0,0,0,0,0,0,0,0,0,0,0,0,0,0,0,0,0,0,0,0,0,0,0,0,0,0,0,0,0,0,0,0,0,0,0],"sum_hessian":[2.7970462E5,9.6253625E4,1.83451E5,6.267578E4,3.357784E4,1.4470211E5,3.874889E4,5.229632E4,1.0379461E4,2.9374611E4,4.2032305E3,1.915048E4,1.25551625E5,3.772872E4,1.0201721E3,4.088824E4,1.1408084E4,1.3242843E3,9.055177E3,2.6894629E4,2.4799817E3,2.8219194E3,1.3813109E3,1.5200184E4,3.9502969E3,1.2483271E5,7.1890875E2,4.121071E3,3.360765E4,9.7405255E2,4.6119564E1,1.0671199E4,3.0217037E4,7.0237075E3,4.384376E3,2.4948839E2,1.074796E3,8.986847E3,6.8329865E1,1.7836246E4,9.058384E3,2.294711E3,1.8527074E2,2.7103555E3,1.1156395E2,1.3028928E3,7.841811E1,7.5171747E2,1.4448466E4,1.9300105E3,2.0202863E3,4.5591387E4,7.924133E4,1.3283578E2,5.86073E2,3.5102495E3,6.1082135E2,3.0958979E4,2.6486702E3,5.243869E1,9.216139E2,1.0268878E1,3.5850685E1,1.0661764E4,9.435113E0,3.0109568E4,1.07469284E2,7.0145054E3,9.202425E0,4.382247E3,2.128955E0,2.2801865E2,2.1469736E1,5.3035706E2,5.444389E2,8.935775E3,5.1070816E1,7.1421227E0,6.118774E1,1.35263E4,4.3099453E3,6.24432E3,2.8140632E3,2.293298E3,1.4127504E0,8.494308E0,1.7677643E2,2.6361602E3,7.4195206E1,1.0989545E2,1.6685077E0,7.979052E2,5.0498755E2,4.284542E1,3.5572693E1,6.223453E2,1.2937216E2,1.4255505E4,1.9296132E2,1.9273636E3,2.6468503E0,8.047997E2,1.2154866E3,3.374882E4,1.1842565E4,6.740803E4,1.1833297E4,9.6172516E1,3.6663258E1,4.1809238E2,1.6798064E2,3.4500317E3,6.0217854E1,1.9118556E2,4.196358E2,3.0945469E4,1.3509562E1,1.0545042E2,2.5432197E3,3.021876E1,2.2219929E1,9.084915E2,1.3122357E1,3.4610138E1,1.2405455E0],"tree_param":{"num_deleted":"0","num_feature":"99","num_nodes":"125","size_leaf_vector":"1"}},{"base_weights":[-2.4332893E-3,1.2913042E0,-9.267304E-1,1.4127147E0,9.869493E-1,-1.1391665E0,9.078335E-1,1.3661164E0,1.4826615E0,1.137091E0,2.9897222E-1,3.0195174E-1,-1.3876606E0,-3.9843667E-1,1.1869907E0,1.4346004E0,-4.291528E-1,1.487689E-1,1.4451334E0,1.1836189E0,9.8113745E-1,-9.0103716E-1,1.1940798E0,2.6216624E-2,1.3150278E0,2.7251017E-1,-1.4009076E0,6.605865E-1,-1.237957E0,1.2753714E0,-1.0225502E0,1.4574192E0,1.358502E0,1.4746557E0,-7.704007E-1,1.4460464E0,4.9918275E-2,1.1423562E0,1.281781E0,1.0362666E0,6.0075265E-1,-1.2944877E0,-5.8664125E-1,7.792748E-1,1.2806829E0,-4.8423964E-1,1.115202E-1,9.901852E-1,1.3512607E0,-5.5854005E-1,7.085535E-1,-1.4123805E0,-6.8665695E-1,-1.511415E-2,9.6415967E-1,-1.3617808E0,9.7435695E-1,8.006787E-1,1.4176978E0,-1.2122676E0,1.3143927E-1,1.4142774E-1,1.4732602E-1,1.3639519E-1,-1.7889054E-1,5.8956116E-2,1.485561E-1,-1.0421486E-1,-1.7521529E-2,1.4621697E-1,1.3821773E-1,-4.338239E-2,1.1440232E-1,1.2311037E-1,1.358555E-1,1.18853286E-1,9.6561804E-2,6.633909E-2,-2.2940159E-1,-1.3096072E-2,-1.3853022E-1,6.291445E-3,-1.0753131E-1,-3.5181232E-3,1.14663325E-1,1.3127576E-1,4.064859E-2,-1.7231326E-1,-2.9650895E-2,1.7270381E-3,1.5917744E-1,-1.889294E-1,1.25837E-1,1.3575079E-1,1.630945E-2,-5.496262E-3,-1.0982352E-1,7.502733E-2,-1.8807857E-1,-1.4906642E-1,-1.34659E-1,-9.3569934E-2,-1.6145305E-3,6.545917E-2,-1.3596705E-1,3.2496553E-2,1.271672E-1,-1.459711E-1,4.3291606E-2,-2.1567795E-2,1.4946924E-1,4.3946304E-3,1.09332755E-1,1.4215027E-1,3.4424968E-3,-1.2849307E-1,1.320263E-1,9.6865036E-2,-1.5132892E-1],"categories":[],"categories_nodes":[],"categories_segments":[],"categories_sizes":[],"default_left":[0,0,0,0,0,0,0,0,0,0,0,0,0,0,0,0,0,0,0,0,0,0,0,0,0,0,0,0,0,0,0,0,0,0,0,0,0,0,0,0,0,0,0,0,0,0,0,0,0,0,0,0,0,0,0,0,0,0,0,0,0,0,0,0,0,0,0,0,0,0,0,0,0,0,0,0,0,0,0,0,0,0,0,0,0,0,0,0,0,0,0,0,0,0,0,0,0,0,0,0,0,0,0,0,0,0,0,0,0,0,0,0,0,0,0,0,0,0,0],"id":4,"left_children":[1,3,5,7,9,11,13,15,17,19,21,23,25,27,29,31,33,-1,35,37,39,41,43,45,47,49,51,53,55,57,59,61,63,65,67,69,-1,71,73,75,77,79,81,83,85,87,89,91,93,95,97,99,101,103,105,107,109,111,113,115,117,-1,-1,-1,-1,-1,-1,-1,-1,-1,-1,-1,-1,-1,-1,-1,-1,-1,-1,-1,-1,-1,-1,-1,-1,-1,-1,-1,-1,-1,-1,-1,-1,-1,-1,-1,-1,-1,-1,-1,-1,-1,-1,-1,-1,-1,-1,-1,-1,-1,-1,-1,-1,-1,-1,-1,-1,-1,-1],"loss_changes":[3.2116803E5,4.1343438E3,6.105497E4,2.5876562E2,3.2966973E3,5.0279156E4,5.929174E3,5.9056406E3,3.875E0,1.8895703E2,6.1444546E3,5.768283E3,2.6339844E3,2.5466543E3,2.6172695E3,7.836719E1,1.1481995E3,0E0,2.5703125E0,8.025195E1,1.2575342E2,3.015714E2,1.16697754E2,7.068936E2,5.0660156E1,3.442193E2,9.725625E2,2.5987848E2,4.3897388E2,8.691328E2,1.1307947E2,2.2226562E1,1.857539E2,1.7178345E0,2.4208704E2,1.9003906E0,0E0,3.784375E1,2.1526367E1,5.545996E1,1.4027579E2,1.1443677E2,4.318698E2,1.7011389E2,7.54209E1,5.401129E2,1.9405217E3,3.476154E2,2.9260742E1,8.883061E1,6.868341E1,6.001875E2,3.139328E2,3.554077E2,1.714096E2,2.6661206E2,5.3118416E1,6.584673E2,5.209961E1,8.32276E1,1.0298345E2,0E0,0E0,0E0,0E0,0E0,0E0,0E0,0E0,0E0,0E0,0E0,0E0,0E0,0E0,0E0,0E0,0E0,0E0,0E0,0E0,0E0,0E0,0E0,0E0,0E0,0E0,0E0,0E0,0E0,0E0,0E0,0E0,0E0,0E0,0E0,0E0,0E0,0E0,0E0,0E0,0E0,0E0,0E0,0E0,0E0,0E0,0E0,0E0,0E0,0E0,0E0,0E0,0E0,0E0,0E0,0E0,0E0,0E0],"parents":[2147483647,0,0,1,1,2,2,3,3,4,4,5,5,6,6,7,7,8,8,9,9,10,10,11,11,12,12,13,13,14,14,15,15,16,16,18,18,19,19,20,20,21,21,22,22,23,23,24,24,25,25,26,26,27,27,28,28,29,29,30,30,31,31,32,32,33,33,34,34,35,35,37,37,38,38,39,39,40,40,41,41,42,42,43,43,44,44,45,45,46,46,47,47,48,48,49,49,50,50,51,51,52,52,53,53,54,54,55,55,56,56,57,57,58,58,59,59,60,60],"right_children":[2,4,6,8,10,12,14,16,18,20,22,24,26,28,30,32,34,-1,36,38,40,42,44,46,48,50,52,54,56,58,60,62,64,66,68,70,-1,72,74,76,78,80,82,84,86,88,90,92,94,96,98,100,102,104,106,108,110,112,114,116,118,-1,-1,-1,-1,-1,-1,-1,-1,-1,-1,-1,-1,-1,-1,-1,-1,-1,-1,-1,-1,-1,-1,-1,-1,-1,-1,-1,-1,-1,-1,-1,-1,-1,-1,-1,-1,-1,-1,-1,-1,-1,-1,-1,-1,-1,-1,-1,-1,-1,-1,-1,-1,-1,-1,-1,-1,-1,-1],"split_conditions":[1E0,1.178536E3,2.5E-1,1E0,8.5714287E-1,1E0,2E0,2E0,3E0,2E2,1E0,2.7E1,9.7833336E1,4E0,2.99E2,5E0,3.3333334E-1,1.487689E-1,3E0,2E0,0E0,1.31E2,-8E0,5E0,4E0,1.8E2,2.9E1,1E0,4E-1,3E0,2E0,4.8E1,6E-1,3E0,9.92E1,1.5E2,4.9918275E-2,5E0,3.2637362E0,8.948664E3,4.13E3,8E0,3.6E2,2.9E1,2E0,2.7E1,2.6E1,2.8E1,3.3333334E-1,2E0,1.6577234E6,1.1175E2,1.5E2,3.3333334E-1,2.857143E-1,2.1666666E1,2E0,1.4266667E2,2E0,2.7E1,4.5E1,1.4142774E-1,1.4732602E-1,1.3639519E-1,-1.7889054E-1,5.8956116E-2,1.485561E-1,-1.0421486E-1,-1.7521529E-2,1.4621697E-1,1.3821773E-1,-4.338239E-2,1.1440232E-1,1.2311037E-1,1.358555E-1,1.18853286E-1,9.6561804E-2,6.633909E-2,-2.2940159E-1,-1.3096072E-2,-1.3853022E-1,6.291445E-3,-1.0753131E-1,-3.5181232E-3,1.14663325E-1,1.3127576E-1,4.064859E-2,-1.7231326E-1,-2.9650895E-2,1.7270381E-3,1.5917744E-1,-1.889294E-1,1.25837E-1,1.3575079E-1,1.630945E-2,-5.496262E-3,-1.0982352E-1,7.502733E-2,-1.8807857E-1,-1.4906642E-1,-1.34659E-1,-9.3569934E-2,-1.6145305E-3,6.545917E-2,-1.3596705E-1,3.2496553E-2,1.271672E-1,-1.459711E-1,4.3291606E-2,-2.1567795E-2,1.4946924E-1,4.3946304E-3,1.09332755E-1,1.4215027E-1,3.4424968E-3,-1.2849307E-1,1.320263E-1,9.6865036E-2,-1.5132892E-1],"split_indices":[20,80,4,22,23,18,26,2,77,5,22,17,25,2,29,77,23,0,79,54,20,8,20,17,20,5,17,22,4,54,22,17,23,54,25,8,0,17,97,80,60,55,5,17,15,20,20,17,23,93,38,25,29,23,4,13,22,25,15,17,82,0,0,0,0,0,0,0,0,0,0,0,0,0,0,0,0,0,0,0,0,0,0,0,0,0,0,0,0,0,0,0,0,0,0,0,0,0,0,0,0,0,0,0,0,0,0,0,0,0,0,0,0,0,0,0,0,0,0],"split_type":[0,0,0,0,0,0,0,0,0,0,0,0,0,0,0,0,0,0,0,0,0,0,0,0,0,0,0,0,0,0,0,0,0,0,0,0,0,0,0,0,0,0,0,0,0,0,0,0,0,0,0,0,0,0,0,0,0,0,0,0,0,0,0,0,0,0,0,0,0,0,0,0,0,0,0,0,0,0,0,0,0,0,0,0,0,0,0,0,0,0,0,0,0,0,0,0,0,0,0,0,0,0,0,0,0,0,0,0,0,0,0,0,0,0,0,0,0,0,0],"sum_hessian":[2.6857856E5,1.1192161E5,1.5665694E5,8.000365E4,3.1917963E4,1.4039953E5,1.6257399E4,4.8028066E4,3.197558E4,2.6199602E4,5.718361E3,2.0648762E4,1.1975077E5,2.8624778E3,1.3394922E4,4.626346E4,1.7646072E3,2.8163957E4,3.8116226E3,2.0174158E4,6.025444E3,2.4430815E3,3.275279E3,1.6231863E4,4.4168994E3,9.478089E2,1.1880297E5,1.2658585E3,1.5966194E3,1.2880145E4,5.147774E2,3.5577168E4,1.0686292E4,2.6771494E2,1.4968922E3,3.80742E3,4.2028584E0,1.4212519E4,5.96164E3,5.261213E3,7.642308E2,1.0837305E3,1.3593512E3,5.674329E2,2.707846E3,2.3234817E3,1.3908382E4,4.4606488E2,3.9708345E3,3.2607162E2,6.217373E2,1.1692388E5,1.8790875E3,3.9270856E2,8.7314996E2,1.5123568E3,8.4262535E1,2.9725615E3,9.907583E3,4.4205286E2,7.272456E1,9.579181E3,2.5997986E4,1.0668387E4,1.7905594E1,3.928506E0,2.6378644E2,1.0271626E3,4.6972955E2,3.0225098E3,7.849101E2,1.4741712E1,1.4197776E4,3.60143E3,2.3602104E3,1.6624252E3,3.5987878E3,7.487988E2,1.5431986E1,7.863899E1,1.00509143E3,5.839803E2,7.753709E2,1.7666347E2,3.9076947E2,2.6115264E3,9.631961E1,3.0467285E2,2.0188087E3,1.3076776E4,8.3160474E2,3.749025E1,4.0857465E2,3.9499238E3,2.0910627E1,1.6925003E2,1.5682158E2,6.125776E2,9.159696E0,5.3382562E4,6.354132E4,1.3698867E3,5.092008E2,2.6248257E2,1.3022598E2,2.842874E2,5.8886255E2,1.4342799E3,7.807696E1,2.5812798E1,5.8449734E1,8.2930133E2,2.1432603E3,9.880379E3,2.720442E1,4.3020218E2,1.18506775E1,4.846542E1,2.4259146E1],"tree_param":{"num_deleted":"0","num_feature":"99","num_nodes":"119","size_leaf_vector":"1"}},{"base_weights":[3.4214759E-3,1.2227585E0,-8.659652E-1,1.3430592E0,9.209655E-1,-1.0592171E0,1.0357449E0,1.2962308E0,1.4136187E0,1.0641724E0,2.4900736E-1,2.8876707E-1,-1.3073295E0,1.2552999E0,-2.7239016E-1,1.3626341E0,-4.215403E-1,1.4138026E0,1.5134943E-1,1.1096427E0,9.083641E-1,-8.2423043E-1,1.1033835E0,1.7238295E-2,1.1187222E0,3.2824445E-1,-1.322011E0,1.2997986E0,-2.2257765E-1,1.171043E0,-8.0578864E-1,1.384102E0,1.2693988E0,-7.378927E-1,1.4456473E-1,1.4198309E-1,1.3785214E0,-1.7024395E-1,1.1386903E-1,1.0834019E0,1.2368459E0,9.618877E-1,5.4566747E-1,-4.8330066E-1,-1.1892372E0,6.9410557E-1,1.1915675E0,-5.996697E-1,9.454807E-2,1.1891583E0,-3.9678895E-1,6.054633E-1,-7.890724E-1,-1.3374621E0,-4.9133927E-1,1.3154504E0,-1.2341442E0,1.415317E0,-8.431141E-1,1.259064E0,-1.548488E-1,-1.5349066E0,1.7801866E-1,1.3866419E-1,9.288302E-2,1.274733E-1,-1.6649812E-1,-1.3432874E-2,-9.3672566E-2,5.4156013E-2,1.3798867E-1,1.03811935E-1,1.12465575E-1,-1.6271727E-1,1.2382735E-1,9.645011E-2,-2.1726942E-1,6.633661E-2,-3.6014102E-2,1.6085221E-1,-8.193858E-2,-6.405508E-2,-1.3244164E-1,9.0668984E-2,-9.0364955E-2,1.22536145E-1,3.6174055E-2,-1.26823E-1,-1.4237183E-2,1.2238215E-3,1.478563E-1,6.785686E-2,1.3251814E-1,-6.7806475E-2,1.08826056E-1,7.7888004E-2,-1.12983935E-1,-1.2986316E-1,-4.602976E-3,-1.22668765E-1,-1.3998799E-1,-6.57267E-2,1.1412221E-1,1.3278365E-1,-1.0133772E-1,-1.5601914E-1,1.4226015E-1,1.4539449E-1,4.6231028E-2,-1.2197149E-1,5.9162643E-2,1.3902551E-1,6.1995298E-2,-1.6021344E-1,9.9438876E-2,1.03127435E-1,-8.6434856E-2],"categories":[],"categories_nodes":[],"categories_segments":[],"categories_sizes":[],"default_left":[0,0,0,0,0,0,0,0,0,0,0,0,0,0,0,0,0,0,0,0,0,0,0,0,0,0,0,0,0,0,0,0,0,0,0,0,0,0,0,0,0,0,0,0,0,0,0,0,0,0,0,0,0,0,0,0,0,0,0,0,0,0,0,0,0,0,0,0,0,0,0,0,0,0,0,0,0,0,0,0,0,0,0,0,0,0,0,0,0,0,0,0,0,0,0,0,0,0,0,0,0,0,0,0,0,0,0,0,0,0,0,0,0,0,0,0,0],"id":5,"left_children":[1,3,5,7,9,11,13,15,17,19,21,23,25,27,29,31,33,35,37,39,41,43,45,47,49,51,53,55,57,59,61,63,65,67,-1,-1,69,-1,-1,71,73,75,77,79,81,83,85,87,89,91,93,95,97,99,101,103,105,107,109,111,-1,113,115,-1,-1,-1,-1,-1,-1,-1,-1,-1,-1,-1,-1,-1,-1,-1,-1,-1,-1,-1,-1,-1,-1,-1,-1,-1,-1,-1,-1,-1,-1,-1,-1,-1,-1,-1,-1,-1,-1,-1,-1,-1,-1,-1,-1,-1,-1,-1,-1,-1,-1,-1,-1,-1,-1],"loss_changes":[2.728516E5,3.8883125E3,5.5221617E4,2.5125E2,2.9382793E3,4.5618312E4,3.9813398E3,5.2536094E3,6.8789062E0,1.7732812E2,4.9212505E3,4.778343E3,2.7665469E3,7.808496E2,1.5353188E3,8.6984375E1,1.0139519E3,4.5390625E0,1.2134317E1,6.3685547E1,1.0997363E2,2.9546448E2,1.0701709E2,7.620785E2,5.5842676E2,3.1815433E2,1.4646562E3,4.5860938E2,3.546739E2,1.307669E2,1.0445E3,4.0375E1,1.322002E2,1.7592401E2,0E0,0E0,4.3847656E0,0E0,0E0,2.9013672E1,1.5607422E1,4.2716797E1,7.852202E1,8.672572E2,8.4316284E1,1.815445E2,6.845801E1,5.438512E2,1.6175266E3,3.4601465E2,9.801833E1,2.4833597E2,7.729931E1,7.732656E2,5.659318E2,3.316797E2,6.3939163E1,2.8593292E0,1.3734457E2,4.289044E1,0E0,1.4378015E2,5.5280835E2,0E0,0E0,0E0,0E0,0E0,0E0,0E0,0E0,0E0,0E0,0E0,0E0,0E0,0E0,0E0,0E0,0E0,0E0,0E0,0E0,0E0,0E0,0E0,0E0,0E0,0E0,0E0,0E0,0E0,0E0,0E0,0E0,0E0,0E0,0E0,0E0,0E0,0E0,0E0,0E0,0E0,0E0,0E0,0E0,0E0,0E0,0E0,0E0,0E0,0E0,0E0,0E0,0E0,0E0],"parents":[2147483647,0,0,1,1,2,2,3,3,4,4,5,5,6,6,7,7,8,8,9,9,10,10,11,11,12,12,13,13,14,14,15,15,16,16,17,17,18,18,19,19,20,20,21,21,22,22,23,23,24,24,25,25,26,26,27,27,28,28,29,29,30,30,31,31,32,32,33,33,36,36,39,39,40,40,41,41,42,42,43,43,44,44,45,45,46,46,47,47,48,48,49,49,50,50,51,51,52,52,53,53,54,54,55,55,56,56,57,57,58,58,59,59,61,61,62,62],"right_children":[2,4,6,8,10,12,14,16,18,20,22,24,26,28,30,32,34,36,38,40,42,44,46,48,50,52,54,56,58,60,62,64,66,68,-1,-1,70,-1,-1,72,74,76,78,80,82,84,86,88,90,92,94,96,98,100,102,104,106,108,110,112,-1,114,116,-1,-1,-1,-1,-1,-1,-1,-1,-1,-1,-1,-1,-1,-1,-1,-1,-1,-1,-1,-1,-1,-1,-1,-1,-1,-1,-1,-1,-1,-1,-1,-1,-1,-1,-1,-1,-1,-1,-1,-1,-1,-1,-1,-1,-1,-1,-1,-1,-1,-1,-1,-1,-1,-1],"split_conditions":[1E0,1.538127E3,1E0,1E0,8.5714287E-1,5E-1,4.472136E-1,2E0,2.5E1,2.58E2,1E0,2.6E1,1E0,4.96E2,1E0,2E0,4.7E1,8.2408E1,3.7E1,4.0684934E0,0E0,4.1E1,-8E0,4E0,6.666667E-1,3.5E1,2.9E1,3E0,2E0,4.82E2,1.2E2,4.1E1,6E-1,4.1E1,1.4456473E-1,1.4198309E-1,1.6666667E-1,-1.7024395E-1,1.1386903E-1,5E0,1.921554E3,1E0,2.6296353E5,0E0,1.2753049E4,2.99E2,2E0,2.9E1,2.7E1,5E0,3.75E-1,1.3566667E2,5E0,4.1E1,2.857143E-1,2E0,2E0,9.936899E3,4E1,3.1E1,-1.548488E-1,4E-1,4.48E2,1.3866419E-1,9.288302E-2,1.274733E-1,-1.6649812E-1,-1.3432874E-2,-9.3672566E-2,5.4156013E-2,1.3798867E-1,1.03811935E-1,1.12465575E-1,-1.6271727E-1,1.2382735E-1,9.645011E-2,-2.1726942E-1,6.633661E-2,-3.6014102E-2,1.6085221E-1,-8.193858E-2,-6.405508E-2,-1.3244164E-1,9.0668984E-2,-9.0364955E-2,1.22536145E-1,3.6174055E-2,-1.26823E-1,-1.4237183E-2,1.2238215E-3,1.478563E-1,6.785686E-2,1.3251814E-1,-6.7806475E-2,1.08826056E-1,7.7888004E-2,-1.12983935E-1,-1.2986316E-1,-4.602976E-3,-1.22668765E-1,-1.3998799E-1,-6.57267E-2,1.1412221E-1,1.3278365E-1,-1.0133772E-1,-1.5601914E-1,1.4226015E-1,1.4539449E-1,4.6231028E-2,-1.2197149E-1,5.9162643E-2,1.3902551E-1,6.1995298E-2,-1.6021344E-1,9.9438876E-2,1.03127435E-1,-8.6434856E-2],"split_indices":[20,80,27,22,23,23,7,2,83,5,22,17,9,24,9,73,17,75,17,97,20,16,20,17,3,32,17,26,26,24,9,16,23,16,0,0,4,0,0,94,74,27,63,20,74,24,15,20,20,20,4,25,94,16,4,15,31,39,16,55,0,4,24,0,0,0,0,0,0,0,0,0,0,0,0,0,0,0,0,0,0,0,0,0,0,0,0,0,0,0,0,0,0,0,0,0,0,0,0,0,0,0,0,0,0,0,0,0,0,0,0,0,0,0,0,0,0],"split_type":[0,0,0,0,0,0,0,0,0,0,0,0,0,0,0,0,0,0,0,0,0,0,0,0,0,0,0,0,0,0,0,0,0,0,0,0,0,0,0,0,0,0,0,0,0,0,0,0,0,0,0,0,0,0,0,0,0,0,0,0,0,0,0,0,0,0,0,0,0,0,0,0,0,0,0,0,0,0,0,0,0,0,0,0,0,0,0,0,0,0,0,0,0,0,0,0,0,0,0,0,0,0,0,0,0,0,0,0,0,0,0,0,0,0,0,0,0],"sum_hessian":[2.5738684E5,1.0713161E5,1.5025523E5,7.659563E4,3.0535979E4,1.3639519E5,1.3860041E4,4.605172E4,3.0543914E4,2.5170984E4,5.364993E3,2.1202549E4,1.1519265E5,1.1868151E4,1.991889E3,4.433797E4,1.7137512E3,3.0539344E4,4.570479E0,1.9479934E4,5.691051E3,2.377941E3,2.987052E3,1.597664E4,5.225909E3,1.0246189E3,1.1416802E5,1.1521365E4,3.467862E2,5.371388E2,1.4547502E3,3.60284E4,8.309569E3,1.4659792E3,2.4777199E2,2.6049223E4,4.4901216E3,1.3366238E0,3.233855E0,1.6156523E4,3.3234106E3,4.9577734E3,7.3327747E2,1.2307236E3,1.1472174E3,5.3108057E2,2.4559714E3,1.778445E3,1.4198194E4,4.9940186E3,2.3189075E2,8.213026E2,2.0331628E2,1.1208262E5,2.0854104E3,1.1451114E4,7.025131E1,9.493257E1,2.518536E2,5.208189E2,1.6319899E1,8.352044E2,6.1954584E2,3.582648E4,2.0191722E2,8.295057E3,1.451302E1,3.6368304E2,1.1022963E3,7.9594784E0,4.482162E3,7.7146377E3,8.441886E3,1.0884485E0,3.3223223E3,4.9543354E3,3.4382207E0,6.491908E2,8.408668E1,1.6983983E2,1.0608838E3,2.2790399E2,9.1931335E2,4.6909863E2,6.198192E1,2.35941E3,9.656144E1,7.216435E2,1.0568014E3,1.3402153E4,7.960413E2,1.0518138E3,3.9422048E3,1.9542053E2,3.647022E1,7.471842E2,7.411839E1,1.2016355E2,8.315273E1,4.0401637E4,7.168098E4,1.8935537E3,1.9185661E2,1.1390961E4,6.01537E1,6.2939808E1,7.3115E0,9.072944E1,4.2031374E0,1.9960876E2,5.2244846E1,4.3114236E2,8.967652E1,8.139369E2,2.1267553E1,3.406824E2,2.7886343E2],"tree_param":{"num_deleted":"0","num_feature":"99","num_nodes":"117","size_leaf_vector":"1"}},{"base_weights":[-1.7326613E-4,1.1599964E0,-8.2002866E-1,1.2830787E0,8.546284E-1,-1.0021279E0,9.791933E-1,1.2350103E0,1.3563832E0,9.9099535E-1,2.318316E-1,2.608236E-1,-1.2440498E0,1.1323378E0,-1.1391718E0,1.2909778E0,-4.9198934E-1,1.3621746E-1,1.3140589E0,1.0337988E0,8.4670764E-1,-7.863026E-1,1.0452389E0,1.461193E-2,1.0518423E0,-2.9794452E-1,-1.2665474E0,1.2427093E0,1.9930539E-1,-1.2280988E0,5.364802E-1,1.3032973E0,-7.0296824E-1,1.360706E0,-9.500346E-1,1.3328792E0,1.2381908E0,1.0090628E0,1.1614265E0,9.2551315E-1,5.842969E-1,-8.65521E-1,1.281009E0,6.628172E-1,1.1262869E0,-1.6124854E0,3.9658956E-2,1.1043534E0,-4.695707E-1,-7.621308E-1,2.5383458E-1,-1.2732401E0,2.8467885E-1,1.3256735E0,9.3249154E-1,1.181109E0,-7.2325295E-1,8.563093E-1,-1.267594E0,-1.3610658E-1,1.041754E0,1.3296181E-1,1.21727966E-1,-1.4324486E-1,-9.422674E-3,1.3676132E-1,6.280881E-2,-1.5149975E-1,-8.567433E-2,1.3341542E-1,3.510898E-2,1.2512197E-1,4.058757E-2,9.5297635E-2,1.0599686E-1,9.088877E-2,1.17868915E-1,7.401623E-2,9.626374E-2,7.532742E-2,1.833809E-2,1.616518E-1,-9.055477E-2,1.3450556E-1,-1.5295516E-1,8.535396E-2,-9.067257E-2,1.192982E-1,7.324677E-2,7.956612E-2,-2.054367E-1,-5.162248E-4,1.6218275E-1,6.3316844E-2,1.23322956E-1,6.673212E-2,-1.2667859E-1,-1.1234917E-1,-4.509372E-2,8.737889E-2,-1.802457E-2,-1.1539457E-1,-1.3414481E-1,1.2265662E-1,-1.8282805E-2,-1.29294E-1,1.3282786E-1,1.14930525E-1,6.1097026E-2,1.20774224E-1,-1.693189E-1,-1.5547737E-1,5.478823E-2,1.579687E-1,-1.4245129E-1,-8.742244E-2,-1.3499421E-1,-1.4408301E-1,1.2850209E-1],"categories":[],"categories_nodes":[],"categories_segments":[],"categories_sizes":[],"default_left":[0,0,0,0,0,0,0,0,0,0,0,0,0,0,0,0,0,0,0,0,0,0,0,0,0,0,0,0,0,0,0,0,0,0,0,0,0,0,0,0,0,0,0,0,0,0,0,0,0,0,0,0,0,0,0,0,0,0,0,0,0,0,0,0,0,0,0,0,0,0,0,0,0,0,0,0,0,0,0,0,0,0,0,0,0,0,0,0,0,0,0,0,0,0,0,0,0,0,0,0,0,0,0,0,0,0,0,0,0,0,0,0,0,0,0,0,0,0,0],"id":6,"left_children":[1,3,5,7,9,11,13,15,17,19,21,23,25,27,29,31,33,-1,35,37,39,41,43,45,47,49,51,53,55,57,59,61,63,65,67,69,71,73,75,77,79,81,83,85,87,89,91,93,95,97,99,101,103,105,107,109,111,113,115,-1,117,-1,-1,-1,-1,-1,-1,-1,-1,-1,-1,-1,-1,-1,-1,-1,-1,-1,-1,-1,-1,-1,-1,-1,-1,-1,-1,-1,-1,-1,-1,-1,-1,-1,-1,-1,-1,-1,-1,-1,-1,-1,-1,-1,-1,-1,-1,-1,-1,-1,-1,-1,-1,-1,-1,-1,-1,-1,-1],"loss_changes":[2.326562E5,3.8055312E3,4.695789E4,2.5266406E2,2.4710293E3,3.9765234E4,4.274741E3,4.215492E3,5.2148438E0,1.4655273E2,4.3305195E3,4.0749697E3,2.3245156E3,1.2648799E3,1.3306982E2,1.0384609E3,1.1635146E3,0E0,3.3012695E0,5.693164E1,1.1250903E2,3.814508E2,8.934448E1,6.5040247E2,3.973081E2,6.5032007E2,1.108E3,2.814961E2,1.179006E3,7.057715E1,4.5020844E1,9.342969E1,1.153273E2,5.168152E-1,5.660791E1,2.993164E0,7.1192627E0,4.302832E1,1.192627E1,2.8205078E1,8.55802E1,2.2373633E2,1.755832E1,1.5365865E2,6.208423E1,2.5909473E2,1.1145557E3,2.9077246E2,1.5166556E2,1.5454541E2,3.1245206E2,8.628125E2,2.024027E2,6.0828125E1,1.6112146E2,5.031134E1,7.1030585E2,2.913337E1,2.5668335E1,0E0,2.3883343E1,0E0,0E0,0E0,0E0,0E0,0E0,0E0,0E0,0E0,0E0,0E0,0E0,0E0,0E0,0E0,0E0,0E0,0E0,0E0,0E0,0E0,0E0,0E0,0E0,0E0,0E0,0E0,0E0,0E0,0E0,0E0,0E0,0E0,0E0,0E0,0E0,0E0,0E0,0E0,0E0,0E0,0E0,0E0,0E0,0E0,0E0,0E0,0E0,0E0,0E0,0E0,0E0,0E0,0E0,0E0,0E0,0E0,0E0],"parents":[2147483647,0,0,1,1,2,2,3,3,4,4,5,5,6,6,7,7,8,8,9,9,10,10,11,11,12,12,13,13,14,14,15,15,16,16,18,18,19,19,20,20,21,21,22,22,23,23,24,24,25,25,26,26,27,27,28,28,29,29,30,30,31,31,32,32,33,33,34,34,35,35,36,36,37,37,38,38,39,39,40,40,41,41,42,42,43,43,44,44,45,45,46,46,47,47,48,48,49,49,50,50,51,51,52,52,53,53,54,54,55,55,56,56,57,57,58,58,60,60],"right_children":[2,4,6,8,10,12,14,16,18,20,22,24,26,28,30,32,34,-1,36,38,40,42,44,46,48,50,52,54,56,58,60,62,64,66,68,70,72,74,76,78,80,82,84,86,88,90,92,94,96,98,100,102,104,106,108,110,112,114,116,-1,118,-1,-1,-1,-1,-1,-1,-1,-1,-1,-1,-1,-1,-1,-1,-1,-1,-1,-1,-1,-1,-1,-1,-1,-1,-1,-1,-1,-1,-1,-1,-1,-1,-1,-1,-1,-1,-1,-1,-1,-1,-1,-1,-1,-1,-1,-1,-1,-1,-1,-1,-1,-1,-1,-1,-1,-1,-1,-1],"split_conditions":[1E0,1.670587E3,1E0,1E0,1E0,5E-1,2.99E2,4.1E1,4.94586E2,2.98E2,1E0,2.6E1,1.84E2,4.472136E-1,2E0,1.84E2,3.3333334E-1,1.3621746E-1,1.5E2,4.285714E0,-1E0,4.7E1,-9E0,6E0,4.1E1,6.666667E-1,2.9E1,3.7E1,4.1E1,3E0,4E-1,5E0,8.312531E3,4.13875E1,3.33E2,2.5E1,0E0,5E0,-1.4E1,-1.7E1,2.82E2,6E0,4.472136E-1,2.99E2,7E0,3.5E1,2.5E1,5E0,1.4E1,4.6E1,3.5E1,4.1E1,5E0,2.2222222E-1,4E1,3.95E2,2.98E2,6.3095236E-1,8E-1,-1.3610658E-1,5.16E2,1.3296181E-1,1.21727966E-1,-1.4324486E-1,-9.422674E-3,1.3676132E-1,6.280881E-2,-1.5149975E-1,-8.567433E-2,1.3341542E-1,3.510898E-2,1.2512197E-1,4.058757E-2,9.5297635E-2,1.0599686E-1,9.088877E-2,1.17868915E-1,7.401623E-2,9.626374E-2,7.532742E-2,1.833809E-2,1.616518E-1,-9.055477E-2,1.3450556E-1,-1.5295516E-1,8.535396E-2,-9.067257E-2,1.192982E-1,7.324677E-2,7.956612E-2,-2.054367E-1,-5.162248E-4,1.6218275E-1,6.3316844E-2,1.23322956E-1,6.673212E-2,-1.2667859E-1,-1.1234917E-1,-4.509372E-2,8.737889E-2,-1.802457E-2,-1.1539457E-1,-1.3414481E-1,1.2265662E-1,-1.8282805E-2,-1.29294E-1,1.3282786E-1,1.14930525E-1,6.1097026E-2,1.20774224E-1,-1.693189E-1,-1.5547737E-1,5.478823E-2,1.579687E-1,-1.4245129E-1,-8.742244E-2,-1.3499421E-1,-1.4408301E-1,1.2850209E-1],"split_indices":[20,80,27,22,18,23,29,16,74,5,22,17,24,7,27,24,23,0,8,97,20,17,20,20,16,28,17,82,16,21,4,76,56,85,95,82,20,94,20,20,76,17,7,24,79,29,17,20,82,17,29,16,82,4,16,82,29,52,23,0,5,0,0,0,0,0,0,0,0,0,0,0,0,0,0,0,0,0,0,0,0,0,0,0,0,0,0,0,0,0,0,0,0,0,0,0,0,0,0,0,0,0,0,0,0,0,0,0,0,0,0,0,0,0,0,0,0,0,0],"split_type":[0,0,0,0,0,0,0,0,0,0,0,0,0,0,0,0,0,0,0,0,0,0,0,0,0,0,0,0,0,0,0,0,0,0,0,0,0,0,0,0,0,0,0,0,0,0,0,0,0,0,0,0,0,0,0,0,0,0,0,0,0,0,0,0,0,0,0,0,0,0,0,0,0,0,0,0,0,0,0,0,0,0,0,0,0,0,0,0,0,0,0,0,0,0,0,0,0,0,0,0,0,0,0,0,0,0,0,0,0,0,0,0,0,0,0,0,0,0,0],"sum_hessian":[2.4459766E5,1.0127871E5,1.4331895E5,7.218176E4,2.9096951E4,1.301472E5,1.3171751E4,4.360574E4,2.857602E4,2.3869844E4,5.227107E3,2.092232E4,1.0922488E5,1.2284149E4,8.876016E2,4.223719E4,1.368546E3,2.5109158E4,3.4668618E3,1.8404045E4,5.465799E3,2.3214292E3,2.9056777E3,1.595668E4,4.965641E3,2.5372854E3,1.0668759E5,1.0984433E4,1.2997168E3,8.4312415E2,4.4477516E1,4.197818E4,2.5901212E2,2.7088864E2,1.0976573E3,2.764513E3,7.0234875E2,1.5423625E4,2.9804197E3,4.201503E3,1.264296E3,2.2363162E3,8.511324E1,5.0972736E2,2.3959504E3,2.4094743E2,1.5715732E4,4.800237E3,1.654044E2,1.3778134E3,1.159472E3,1.0622945E5,4.5814288E2,8.664057E3,2.3203762E3,6.295054E2,6.702115E2,1.5293808E1,8.278303E2,8.996736E0,3.548078E1,3.2131664E4,9.846515E3,1.17206055E2,1.4180606E2,2.6749988E2,3.3887837E0,1.5340617E2,9.442512E2,2.760569E3,3.9438424E0,6.910283E2,1.1320495E1,7.3477954E3,8.075829E3,1.9412675E2,2.786293E3,7.0459467E2,3.4969082E3,8.888053E2,3.754907E2,3.4866596E1,2.2014495E3,8.3726715E1,1.386525E0,4.5490582E2,5.4821537E1,2.0472158E3,3.4873447E2,3.7233482E1,2.0371396E2,1.5283756E4,4.3197632E2,1.0322245E3,3.7680122E3,6.824482E1,9.7159584E1,6.363119E2,7.4150146E2,4.770851E2,6.823869E2,3.8649715E4,6.757974E4,1.5143092E2,3.0671194E2,8.118522E0,8.655938E3,1.38431E3,9.360661E2,6.243004E2,5.204949E0,4.0503336E2,2.651781E2,1.1844615E1,3.449193E0,1.453107E2,6.8251965E2,2.7271247E0,3.275366E1],"tree_param":{"num_deleted":"0","num_feature":"99","num_nodes":"119","size_leaf_vector":"1"}},{"base_weights":[3.8112022E-4,1.0709069E0,-5.589671E-1,8.1776017E-1,1.2071077E0,-9.954433E-1,1.0580012E0,9.2073965E-1,-6.155774E-1,1.2490443E0,9.8832655E-1,1.0553109E-1,-1.2052611E0,1.4477837E-1,1.2309133E0,9.692133E-1,3.143811E-1,-9.786547E-1,7.839329E-1,1.2816722E0,1.1537523E0,-8.9157003E-1,1.312932E0,-6.450636E-2,5.836944E-1,-1.2353116E0,-7.5194037E-1,5.059912E-1,-7.6955193E-1,-8.183134E-1,1.2482148E0,1.1703429E0,9.508999E-1,-3.2737502E-1,8.558823E-1,-6.336718E-1,-1.122086E0,9.896811E-1,-9.3437874E-1,1.2453054E0,1.295845E0,1.2050103E0,1.0761368E0,-9.5904356E-1,4.5794982E-1,1.3162341E0,8.368675E-1,-1.5245126E-1,-3.3013385E-2,8.629527E-1,3.7013012E-1,-1.1201808E0,-1.2924606E0,-9.2740947E-1,2.9808465E-1,9.716578E-2,8.8040465E-1,-3.5542414E-1,-1.269682E0,1.6988941E0,-1.0509715E0,7.16827E-2,1.2666334E0,1.10004686E-1,1.2391811E-1,1.0955008E-1,9.24542E-2,-6.903805E-2,2.3613034E-2,9.502797E-2,-9.132E-2,-1.23165146E-1,-3.8014617E-2,-1.1334127E-1,9.30854E-2,1.1769193E-1,1.744304E-2,1.1423514E-1,-1.5198305E-1,1.2647228E-1,1.2100476E-1,1.2972143E-1,9.445308E-2,1.20671585E-1,4.838534E-2,1.0457589E-1,1.2761842E-1,-9.969711E-2,9.078038E-2,1.3569333E-1,-4.814932E-2,1.3187048E-1,1.07763566E-1,-1.6641006E-1,1.2641498E-1,-6.2686577E-3,1.350383E-1,9.6033E-2,-1.8300283E-3,1.99955E-2,6.330519E-2,-1.3062434E-1,-7.098999E-2,-1.316532E-1,-1.1591192E-1,-1.0468968E-1,9.6258946E-2,1.2585123E-1,4.362487E-3,-1.0602738E-1,3.6111247E-2,1.07542075E-1,-3.608664E-2,-5.1100112E-2,9.0947345E-2,-1.3779753E-1,-3.7258645E-3,2.0967396E-1,-1.09652795E-1,4.502928E-2,-1.2881769E-1,-9.32828E-2,1.1700638E-1,1.2742558E-1,-2.9772703E-2],"categories":[],"categories_nodes":[],"categories_segments":[],"categories_sizes":[],"default_left":[0,0,0,0,0,0,0,0,0,0,0,0,0,0,0,0,0,0,0,0,0,0,0,0,0,0,0,0,0,0,0,0,0,0,0,0,0,0,0,0,0,0,0,0,0,0,0,0,0,0,0,0,0,0,0,0,0,0,0,0,0,0,0,0,0,0,0,0,0,0,0,0,0,0,0,0,0,0,0,0,0,0,0,0,0,0,0,0,0,0,0,0,0,0,0,0,0,0,0,0,0,0,0,0,0,0,0,0,0,0,0,0,0,0,0,0,0,0,0,0,0,0,0,0,0],"id":7,"left_children":[1,3,5,7,9,11,13,15,17,19,21,23,25,27,29,31,33,35,37,39,41,43,45,47,49,51,53,55,57,59,61,63,65,67,69,71,73,75,77,79,81,83,85,87,89,91,93,-1,95,97,99,101,103,105,107,109,111,113,115,117,119,121,123,-1,-1,-1,-1,-1,-1,-1,-1,-1,-1,-1,-1,-1,-1,-1,-1,-1,-1,-1,-1,-1,-1,-1,-1,-1,-1,-1,-1,-1,-1,-1,-1,-1,-1,-1,-1,-1,-1,-1,-1,-1,-1,-1,-1,-1,-1,-1,-1,-1,-1,-1,-1,-1,-1,-1,-1,-1,-1,-1,-1,-1,-1],"loss_changes":[1.3888662E5,2.7435078E3,1.0752028E5,4.1111055E3,4.7358594E2,2.7711883E4,5.1132305E3,7.63375E2,9.495883E2,1.3353125E2,5.0838145E3,1.5613674E3,1.3716719E3,1.7033782E3,9.6635156E2,8.750195E1,6.691689E2,7.267395E1,1.3710747E2,1.5050781E1,4.2807617E1,1.1216907E2,1.0063477E1,6.5133264E2,3.001167E2,6.202969E2,1.1548933E3,5.657805E2,3.020652E2,1.3563895E2,5.849883E2,8.331543E0,8.304883E1,1.8049481E2,1.7524829E2,6.59082E1,2.53833E1,5.2380157E1,5.2442528E1,4.6972656E0,9.957031E0,7.618164E0,2.5517578E1,8.367078E1,5.0570038E1,2.7363281E0,5.7323742E1,0E0,5.693866E2,1.8728564E2,1.27670746E2,2.3925156E3,2.0114062E2,1.2136401E3,2.1941599E2,5.4060474E2,4.6745276E2,1.5797205E2,8.819629E1,2.4230232E1,7.530444E1,4.6142413E2,3.1735547E2,0E0,0E0,0E0,0E0,0E0,0E0,0E0,0E0,0E0,0E0,0E0,0E0,0E0,0E0,0E0,0E0,0E0,0E0,0E0,0E0,0E0,0E0,0E0,0E0,0E0,0E0,0E0,0E0,0E0,0E0,0E0,0E0,0E0,0E0,0E0,0E0,0E0,0E0,0E0,0E0,0E0,0E0,0E0,0E0,0E0,0E0,0E0,0E0,0E0,0E0,0E0,0E0,0E0,0E0,0E0,0E0,0E0,0E0,0E0,0E0,0E0,0E0],"parents":[2147483647,0,0,1,1,2,2,3,3,4,4,5,5,6,6,7,7,8,8,9,9,10,10,11,11,12,12,13,13,14,14,15,15,16,16,17,17,18,18,19,19,20,20,21,21,22,22,23,23,24,24,25,25,26,26,27,27,28,28,29,29,30,30,31,31,32,32,33,33,34,34,35,35,36,36,37,37,38,38,39,39,40,40,41,41,42,42,43,43,44,44,45,45,46,46,48,48,49,49,50,50,51,51,52,52,53,53,54,54,55,55,56,56,57,57,58,58,59,59,60,60,61,61,62,62],"right_children":[2,4,6,8,10,12,14,16,18,20,22,24,26,28,30,32,34,36,38,40,42,44,46,48,50,52,54,56,58,60,62,64,66,68,70,72,74,76,78,80,82,84,86,88,90,92,94,-1,96,98,100,102,104,106,108,110,112,114,116,118,120,122,124,-1,-1,-1,-1,-1,-1,-1,-1,-1,-1,-1,-1,-1,-1,-1,-1,-1,-1,-1,-1,-1,-1,-1,-1,-1,-1,-1,-1,-1,-1,-1,-1,-1,-1,-1,-1,-1,-1,-1,-1,-1,-1,-1,-1,-1,-1,-1,-1,-1,-1,-1,-1,-1,-1,-1,-1,-1,-1,-1,-1,-1,-1],"split_conditions":[7E1,5E0,2.5E-1,4.1E1,4.1E1,2E0,2E0,5E-1,1E0,5E0,1E0,2.3E1,1.8E2,4.472136E-1,1E0,-5E-1,2E0,9.700644E3,4E0,2E1,1.98E2,1.4E1,4E0,1E0,3.7E1,4.1E1,2.7E1,1E0,4.1E1,2.1E1,0E0,1.4933333E2,4.895006E3,4E1,1.65E2,-6.7844365E3,2E0,1.7320509E1,3.2E1,2E0,5E-1,1E0,1E0,7.7E1,-9.413825E2,4E0,2E0,-1.5245126E-1,2E0,1E0,2.7E1,4E1,1.564E3,3.3333333E0,7.17531E2,1.5E1,1.99E2,3.75E1,1.434E2,5.47E2,3.3333334E-1,3.3333334E-1,2.99E2,1.10004686E-1,1.2391811E-1,1.0955008E-1,9.24542E-2,-6.903805E-2,2.3613034E-2,9.502797E-2,-9.132E-2,-1.23165146E-1,-3.8014617E-2,-1.1334127E-1,9.30854E-2,1.1769193E-1,1.744304E-2,1.1423514E-1,-1.5198305E-1,1.2647228E-1,1.2100476E-1,1.2972143E-1,9.445308E-2,1.20671585E-1,4.838534E-2,1.0457589E-1,1.2761842E-1,-9.969711E-2,9.078038E-2,1.3569333E-1,-4.814932E-2,1.3187048E-1,1.07763566E-1,-1.6641006E-1,1.2641498E-1,-6.2686577E-3,1.350383E-1,9.6033E-2,-1.8300283E-3,1.99955E-2,6.330519E-2,-1.3062434E-1,-7.098999E-2,-1.316532E-1,-1.1591192E-1,-1.0468968E-1,9.6258946E-2,1.2585123E-1,4.362487E-3,-1.0602738E-1,3.6111247E-2,1.07542075E-1,-3.608664E-2,-5.1100112E-2,9.0947345E-2,-1.3779753E-1,-3.7258645E-3,2.0967396E-1,-1.09652795E-1,4.502928E-2,-1.2881769E-1,-9.32828E-2,1.1700638E-1,1.2742558E-1,-2.9772703E-2],"split_indices":[29,54,4,16,16,2,54,23,1,77,1,17,8,7,22,90,21,80,2,54,5,91,2,17,55,16,17,31,16,92,90,25,80,16,25,85,21,7,17,0,28,2,1,17,87,62,1,0,26,2,17,16,95,13,81,17,32,13,25,5,23,4,29,0,0,0,0,0,0,0,0,0,0,0,0,0,0,0,0,0,0,0,0,0,0,0,0,0,0,0,0,0,0,0,0,0,0,0,0,0,0,0,0,0,0,0,0,0,0,0,0,0,0,0,0,0,0,0,0,0,0,0,0,0,0],"split_type":[0,0,0,0,0,0,0,0,0,0,0,0,0,0,0,0,0,0,0,0,0,0,0,0,0,0,0,0,0,0,0,0,0,0,0,0,0,0,0,0,0,0,0,0,0,0,0,0,0,0,0,0,0,0,0,0,0,0,0,0,0,0,0,0,0,0,0,0,0,0,0,0,0,0,0,0,0,0,0,0,0,0,0,0,0,0,0,0,0,0,0,0,0,0,0,0,0,0,0,0,0,0,0,0,0,0,0,0,0,0,0,0,0,0,0,0,0,0,0,0,0,0,0,0,0],"sum_hessian":[2.3194089E5,7.959831E4,1.5234258E5,2.7847383E4,5.175093E4,1.19961234E5,3.238134E4,2.5981105E4,1.8662787E3,4.3422797E4,8.328134E3,1.9202209E4,1.0075902E5,5.1553867E3,2.7225953E4,2.405731E4,1.9237946E3,1.4820808E3,3.84198E2,3.2337871E4,1.1084925E4,1.2260323E3,7.102101E3,1.4165682E4,5.0365273E3,9.449334E4,6.2656797E3,3.695786E3,1.4596007E3,2.2755592E2,2.6998396E4,2.0024319E3,2.2054879E4,8.8057874E2,1.0432158E3,4.3683E2,1.0452507E3,3.434927E2,4.0705296E1,9.093405E3,2.3244467E4,6.6672715E3,4.4176533E3,1.1679274E3,5.8104916E1,7.051427E3,5.0674206E1,2.9810703E2,1.3867574E4,2.1812573E3,2.85527E3,3.135229E4,6.314106E4,5.368645E3,8.9703467E2,1.7673069E3,1.9284791E3,7.9938696E2,6.6021375E2,1.8719639E1,2.0883629E2,4.1621912E2,2.6582178E4,9.991245E2,1.00330743E3,3.3940903E3,1.866079E4,5.3543243E2,3.4514627E2,9.908096E2,5.2406258E1,1.289123E2,3.079177E2,1.0399609E3,5.2898245E0,2.7897668E2,6.451601E1,8.742485E0,3.1962809E1,5.841471E3,3.2519336E3,2.3151547E4,9.292082E1,6.6508687E3,1.6402618E1,3.84066E3,5.769934E2,1.1451285E3,2.2798893E1,2.9464746E1,2.8640171E1,6.9746772E3,7.67497E1,6.971868E0,4.3702335E1,1.3577303E4,2.9027194E2,1.9641337E3,2.1712369E2,1.7344282E3,1.1208418E3,2.1568693E4,9.783597E3,5.3478047E4,9.663012E3,5.049836E3,3.1880896E2,1.8705864E2,7.09976E2,3.2762274E2,1.4396841E3,1.6667498E3,2.6172934E2,7.123651E2,8.702184E1,6.0677795E2,5.3435802E1,1.660618E1,2.113458E0,2.8372082E1,1.804642E2,2.1747803E2,1.9874109E2,2.6453469E4,1.2870866E2],"tree_param":{"num_deleted":"0","num_feature":"99","num_nodes":"125","size_leaf_vector":"1"}},{"base_weights":[-2.1844446E-3,1.0619224E0,-7.477737E-1,1.196145E0,7.6221955E-1,-9.143737E-1,8.902678E-1,1.1470288E0,1.2682205E0,8.78625E-1,2.3287956E-1,2.0792289E-1,-1.1480681E0,1.030104E0,-9.827738E-1,1.2069268E0,-4.3816376E-1,1.2753397E-1,1.2250723E0,9.266984E-1,7.238037E-1,-6.932388E-1,9.1068536E-1,1.1304371E0,6.1000843E-2,2.5317016E-1,-1.1619629E0,1.1389216E0,1.158341E-1,-1.1045405E0,8.5101163E-1,1.1426698E0,1.2461219E0,-7.7184784E-1,1.4576794E-1,1.0628775E0,1.2335416E0,8.7745535E-1,1.0408822E0,7.969299E-1,4.972076E-1,1.0978723E0,-7.4178606E-1,5.9161955E-1,1.0573208E0,1.1455526E0,-1.6896147E-1,2.370552E-1,-1.129474E-1,7.561753E-1,-3.4638402E-1,-1.2740339E0,-1.072654E0,8.188599E-1,1.224287E0,-4.5866224E-1,1.096403E0,7.425788E-2,-1.1732249E0,1.1987418E0,-1.2513958E-1,1.1461772E-1,-5.7770617E-2,1.24779515E-1,9.050175E-2,-9.9290185E-2,-6.0765382E-2,6.556412E-2,-3.2180812E-2,1.0800232E-1,1.0965778E-2,6.939455E-2,1.2356265E-1,8.361618E-2,9.362231E-2,1.1149706E-1,9.926676E-2,5.95556E-2,8.479117E-2,6.941279E-2,2.0852165E-2,-1.3086568E-1,1.24211445E-1,-1.02183044E-1,-4.6864998E-2,7.458647E-2,-1.5682599E-2,5.797143E-2,1.1135081E-1,1.1583044E-1,6.2334556E-2,-1.1327282E-1,1.6372244E-1,2.4487018E-3,1.4858507E-1,-1.9475313E-1,-4.813467E-3,8.7186985E-2,-2.4362423E-2,-6.704673E-2,8.6368464E-2,-6.43162E-2,-1.2788934E-1,-1.0802889E-1,4.2527556E-2,9.131106E-2,-1.39493E-2,-1.1795119E-1,1.2266549E-1,-1.559379E-1,9.293848E-2,4.298302E-2,1.21409826E-1,-1.394444E-1,8.8764764E-2,-1.2413218E-1,-4.0423047E-2,-1.2712887E-1,1.3641332E-1],"categories":[],"categories_nodes":[],"categories_segments":[],"categories_sizes":[],"default_left":[0,0,0,0,0,0,0,0,0,0,0,0,0,0,0,0,0,0,0,0,0,0,0,0,0,0,0,0,0,0,0,0,0,0,0,0,0,0,0,0,0,0,0,0,0,0,0,0,0,0,0,0,0,0,0,0,0,0,0,0,0,0,0,0,0,0,0,0,0,0,0,0,0,0,0,0,0,0,0,0,0,0,0,0,0,0,0,0,0,0,0,0,0,0,0,0,0,0,0,0,0,0,0,0,0,0,0,0,0,0,0,0,0,0,0,0,0,0,0],"id":8,"left_children":[1,3,5,7,9,11,13,15,17,19,21,23,25,27,29,31,33,-1,35,37,39,41,43,45,47,49,51,53,55,57,59,61,63,65,67,69,71,73,75,77,79,81,83,85,87,89,91,93,95,97,99,101,103,105,107,109,111,113,115,117,-1,-1,-1,-1,-1,-1,-1,-1,-1,-1,-1,-1,-1,-1,-1,-1,-1,-1,-1,-1,-1,-1,-1,-1,-1,-1,-1,-1,-1,-1,-1,-1,-1,-1,-1,-1,-1,-1,-1,-1,-1,-1,-1,-1,-1,-1,-1,-1,-1,-1,-1,-1,-1,-1,-1,-1,-1,-1,-1],"loss_changes":[1.7405183E5,3.6349219E3,3.5203297E4,2.1953125E2,1.7226523E3,3.070918E4,3.120212E3,3.5265312E3,6.2070312E0,1.6991406E2,3.1654004E3,2.735066E3,1.8870859E3,1.102419E3,1.8579199E2,8.869531E1,2.6371158E2,0E0,3.6435547E0,9.74043E1,8.9663574E1,1.8612244E2,1.355935E2,5.4644775E1,5.33153E2,2.8746625E2,9.590625E2,2.6957715E2,6.651428E2,6.2974976E1,3.959777E1,8.2541016E1,1.15546875E1,3.0649048E1,1.1769462E2,2.9252472E0,2.9921875E0,2.8879883E1,1.7693848E1,4.166333E1,7.5389984E1,2.1287178E1,1.5827466E2,1.0621207E2,5.285034E1,1.7527832E1,5.8864033E1,2.2967354E3,1.0411927E3,6.015088E1,1.7123141E2,1.29625E2,6.112578E2,1.8874817E2,4.593457E1,1.1391855E3,3.3696533E1,5.3450035E1,3.7936096E1,2.0210411E1,0E0,0E0,0E0,0E0,0E0,0E0,0E0,0E0,0E0,0E0,0E0,0E0,0E0,0E0,0E0,0E0,0E0,0E0,0E0,0E0,0E0,0E0,0E0,0E0,0E0,0E0,0E0,0E0,0E0,0E0,0E0,0E0,0E0,0E0,0E0,0E0,0E0,0E0,0E0,0E0,0E0,0E0,0E0,0E0,0E0,0E0,0E0,0E0,0E0,0E0,0E0,0E0,0E0,0E0,0E0,0E0,0E0,0E0,0E0],"parents":[2147483647,0,0,1,1,2,2,3,3,4,4,5,5,6,6,7,7,8,8,9,9,10,10,11,11,12,12,13,13,14,14,15,15,16,16,18,18,19,19,20,20,21,21,22,22,23,23,24,24,25,25,26,26,27,27,28,28,29,29,30,30,31,31,32,32,33,33,34,34,35,35,36,36,37,37,38,38,39,39,40,40,41,41,42,42,43,43,44,44,45,45,46,46,47,47,48,48,49,49,50,50,51,51,52,52,53,53,54,54,55,55,56,56,57,57,58,58,59,59],"right_children":[2,4,6,8,10,12,14,16,18,20,22,24,26,28,30,32,34,-1,36,38,40,42,44,46,48,50,52,54,56,58,60,62,64,66,68,70,72,74,76,78,80,82,84,86,88,90,92,94,96,98,100,102,104,106,108,110,112,114,116,118,-1,-1,-1,-1,-1,-1,-1,-1,-1,-1,-1,-1,-1,-1,-1,-1,-1,-1,-1,-1,-1,-1,-1,-1,-1,-1,-1,-1,-1,-1,-1,-1,-1,-1,-1,-1,-1,-1,-1,-1,-1,-1,-1,-1,-1,-1,-1,-1,-1,-1,-1,-1,-1,-1,-1,-1,-1,-1,-1],"split_conditions":[1E0,9.80981E2,1E0,1.6666667E-1,8.5714287E-1,1E0,2.99E2,2E0,8.2408E1,2E2,1E0,3.5E1,1E0,4.472136E-1,2E0,1.7E1,1E2,1.2753397E-1,7.1428573E-1,2E0,-1E0,-1.5E1,1E0,5E-1,1.05E2,3.5E1,1.29E2,2E0,2.7386127E1,3E0,4.5E1,6E-1,5E-1,1E0,0E0,2.38E2,-1E0,2.6E1,-1E0,-1.5E1,1.48E2,2.5E1,-1.3E1,1.5675E2,-8E0,3.3E1,5.45E2,1.6E1,1.7E1,3.7E2,5E-1,1E2,3.3333334E-1,1.99E2,2.2222222E-1,1.19E2,1E0,4.7E1,4.46E2,4.6861926E-1,-1.2513958E-1,1.1461772E-1,-5.7770617E-2,1.24779515E-1,9.050175E-2,-9.9290185E-2,-6.0765382E-2,6.556412E-2,-3.2180812E-2,1.0800232E-1,1.0965778E-2,6.939455E-2,1.2356265E-1,8.361618E-2,9.362231E-2,1.1149706E-1,9.926676E-2,5.95556E-2,8.479117E-2,6.941279E-2,2.0852165E-2,-1.3086568E-1,1.24211445E-1,-1.02183044E-1,-4.6864998E-2,7.458647E-2,-1.5682599E-2,5.797143E-2,1.1135081E-1,1.1583044E-1,6.2334556E-2,-1.1327282E-1,1.6372244E-1,2.4487018E-3,1.4858507E-1,-1.9475313E-1,-4.813467E-3,8.7186985E-2,-2.4362423E-2,-6.704673E-2,8.6368464E-2,-6.43162E-2,-1.2788934E-1,-1.0802889E-1,4.2527556E-2,9.131106E-2,-1.39493E-2,-1.1795119E-1,1.2266549E-1,-1.559379E-1,9.293848E-2,4.298302E-2,1.21409826E-1,-1.394444E-1,8.8764764E-2,-1.2413218E-1,-4.0423047E-2,-1.2712887E-1,1.3641332E-1],"split_indices":[20,80,27,4,23,18,29,2,75,5,1,29,9,7,27,54,8,0,3,54,20,20,54,23,32,29,9,54,7,2,82,23,28,91,20,87,90,92,20,20,83,55,20,6,20,10,24,20,20,83,90,24,4,32,4,9,54,50,29,52,0,0,0,0,0,0,0,0,0,0,0,0,0,0,0,0,0,0,0,0,0,0,0,0,0,0,0,0,0,0,0,0,0,0,0,0,0,0,0,0,0,0,0,0,0,0,0,0,0,0,0,0,0,0,0,0,0,0,0],"split_type":[0,0,0,0,0,0,0,0,0,0,0,0,0,0,0,0,0,0,0,0,0,0,0,0,0,0,0,0,0,0,0,0,0,0,0,0,0,0,0,0,0,0,0,0,0,0,0,0,0,0,0,0,0,0,0,0,0,0,0,0,0,0,0,0,0,0,0,0,0,0,0,0,0,0,0,0,0,0,0,0,0,0,0,0,0,0,0,0,0,0,0,0,0,0,0,0,0,0,0,0,0,0,0,0,0,0,0,0,0,0,0,0,0,0,0,0,0,0,0],"sum_hessian":[2.1937633E5,9.03822E4,1.28994125E5,6.2422957E4,2.7959246E4,1.1708611E5,1.1908015E4,3.7134438E4,2.5288516E4,2.2918625E4,5.0406216E3,2.0178887E4,9.690723E4,1.1081174E4,8.2684094E2,3.5782598E4,1.3518397E3,2.1682467E4,3.6060498E3,1.7484535E4,5.43409E3,2.1301177E3,2.9105042E3,2.7713105E3,1.7407576E4,9.5133594E2,9.595589E4,9.902339E3,1.1788344E3,7.7572876E2,5.1112164E1,1.3568439E4,2.221416E4,8.600486E2,4.9179117E2,1.8523128E2,3.4208186E3,1.2222244E4,5.2622905E3,4.1063784E3,1.3277114E3,5.564187E1,2.0744758E3,9.180166E2,1.9924874E3,2.7395605E3,3.1750122E1,8.651233E3,8.756344E3,5.171793E2,4.3415665E2,4.254908E4,5.340681E4,2.0872341E3,7.815105E3,7.436667E2,4.3516763E2,4.270591E1,7.330229E2,4.422701E1,6.8851547E0,1.3541166E4,2.7273277E1,2.2103076E4,1.110835E2,3.6440463E2,4.9564398E2,2.3506253E2,2.5672864E2,1.8182771E2,3.4035573E0,1.4451551E1,3.4063672E3,7.187284E3,5.03496E3,2.065795E3,3.1964958E3,8.321462E2,3.2742322E3,7.884706E2,5.3924084E2,2.6899643E0,5.2951904E1,1.0229312E3,1.0515446E3,7.611555E2,1.5686113E2,2.1092078E2,1.7815667E3,2.6730688E3,6.6491554E1,2.0946236E1,1.0803886E1,7.393707E3,1.2575267E3,2.977997E2,8.458544E3,4.6365424E2,5.352505E1,3.427946E2,9.136208E1,3.262574E2,4.222282E4,5.3136254E4,2.7055432E2,1.900385E3,1.868492E2,7.2013326E0,7.807904E3,4.1469305E2,3.289736E2,6.6003784E1,3.6916385E2,1.4966749E1,2.773916E1,6.728276E2,6.019527E1,2.3559275E0,4.187108E1],"tree_param":{"num_deleted":"0","num_feature":"99","num_nodes":"119","size_leaf_vector":"1"}},{"base_weights":[5.4284214E-4,1.0179105E0,-7.08426E-1,1.1563009E0,7.146294E-1,-8.665508E-1,8.546907E-1,1.1038822E0,1.2350137E0,8.253391E-1,2.0292479E-1,1.5977766E-1,-1.1179304E0,9.896055E-1,-9.235412E-1,1.1580435E0,-4.8101878E-1,1.1987277E0,1.2422297E-1,8.7331057E-1,6.697057E-1,-6.149767E-1,8.7693256E-1,-1.0696624E-2,5.154542E-1,2.4341102E-1,-1.1350188E0,1.0971346E0,8.2470365E-2,-1.0349585E0,7.358809E-1,1.172296E0,-1.0580445E-1,1.2357445E-1,-8.7901837E-1,1.212668E0,1.1333127E0,8.265965E-1,9.861696E-1,7.474698E-1,4.2439649E-1,-3.1341463E-1,-9.528591E-1,5.486028E-1,1.0292969E0,-1.094239E0,4.5393284E-2,8.1049126E-1,-4.1633803E-1,4.4045368E-1,-8.700325E-1,-1.0003568E0,-1.2156347E0,1.1122209E0,-1.0657508E0,1.1027504E0,-6.019557E-1,8.37241E-1,-1.0732659E0,1.0217652E0,-1.289291E-1,1.2043097E-1,1.0825954E-1,4.2591143E-2,-6.355558E-2,-1.12929E-1,-7.067912E-2,1.2132007E-1,4.7363274E-2,1.1402867E-1,4.9605258E-2,7.8369014E-2,8.873806E-2,9.3317546E-2,1.0592419E-1,3.357015E-2,7.787326E-2,6.21642E-2,9.984308E-3,1.4485441E-1,-6.0246166E-2,-4.113041E-2,-1.1061951E-1,6.97402E-2,-2.6542589E-2,4.9781635E-2,1.0877966E-1,1.03460886E-1,-1.2686896E-1,-2.7547374E-3,1.5817322E-1,2.385976E-2,1.17819145E-1,-6.394831E-2,7.284166E-2,7.035171E-2,7.5613423E-3,-1.01922624E-1,1.4442395E-1,-1.1346813E-1,-6.296989E-2,-1.2368705E-1,-1.1034905E-1,1.1217681E-1,-1.3185339E-1,-1.8649147E-1,8.023674E-2,-1.8979208E-1,1.1225517E-1,-1.1135202E-1,7.140452E-2,-1.3426112E-1,1.610518E-1,-1.1048322E-1,1.3038124E-1,1.1526828E-1,-9.786876E-2],"categories":[],"categories_nodes":[],"categories_segments":[],"categories_sizes":[],"default_left":[0,0,0,0,0,0,0,0,0,0,0,0,0,0,0,0,0,0,0,0,0,0,0,0,0,0,0,0,0,0,0,0,0,0,0,0,0,0,0,0,0,0,0,0,0,0,0,0,0,0,0,0,0,0,0,0,0,0,0,0,0,0,0,0,0,0,0,0,0,0,0,0,0,0,0,0,0,0,0,0,0,0,0,0,0,0,0,0,0,0,0,0,0,0,0,0,0,0,0,0,0,0,0,0,0,0,0,0,0,0,0,0,0,0,0,0,0],"id":9,"left_children":[1,3,5,7,9,11,13,15,17,19,21,23,25,27,29,31,33,35,-1,37,39,41,43,45,47,49,51,53,55,57,59,61,63,-1,65,67,69,71,73,75,77,79,81,83,85,87,89,91,93,95,97,99,101,103,105,107,109,111,113,115,-1,-1,-1,-1,-1,-1,-1,-1,-1,-1,-1,-1,-1,-1,-1,-1,-1,-1,-1,-1,-1,-1,-1,-1,-1,-1,-1,-1,-1,-1,-1,-1,-1,-1,-1,-1,-1,-1,-1,-1,-1,-1,-1,-1,-1,-1,-1,-1,-1,-1,-1,-1,-1,-1,-1,-1,-1],"loss_changes":[1.4985977E5,3.5804062E3,3.026457E4,2.4036719E2,1.5145645E3,2.868818E4,2.6996377E3,3.020246E3,4.6445312E0,1.6353027E2,2.6230896E3,1.3265255E3,2.0781172E3,1.01983496E3,1.4752386E2,6.1285547E2,7.958185E2,2.192871E0,0E0,8.775293E1,9.856372E1,2.1875055E2,1.2992566E2,8.989346E2,1.9490387E3,2.4349744E2,9.563906E2,3.06208E2,7.752029E2,5.4276306E1,3.0571213E1,9.528906E1,1.07375534E2,0E0,3.9926575E1,6.894531E-1,2.5564575E0,3.0307617E1,1.8035645E1,5.0387207E1,7.995729E1,5.801619E2,8.369415E1,1.0059195E2,5.4817505E1,2.7166754E2,1.575988E3,1.1319133E3,4.360882E2,9.0371506E1,5.9115456E1,1.6442148E3,1.3003125E2,2.169248E2,9.8927986E1,2.8611328E1,4.481444E2,2.8264057E1,5.61994E1,1.2870232E1,0E0,0E0,0E0,0E0,0E0,0E0,0E0,0E0,0E0,0E0,0E0,0E0,0E0,0E0,0E0,0E0,0E0,0E0,0E0,0E0,0E0,0E0,0E0,0E0,0E0,0E0,0E0,0E0,0E0,0E0,0E0,0E0,0E0,0E0,0E0,0E0,0E0,0E0,0E0,0E0,0E0,0E0,0E0,0E0,0E0,0E0,0E0,0E0,0E0,0E0,0E0,0E0,0E0,0E0,0E0,0E0,0E0],"parents":[2147483647,0,0,1,1,2,2,3,3,4,4,5,5,6,6,7,7,8,8,9,9,10,10,11,11,12,12,13,13,14,14,15,15,16,16,17,17,19,19,20,20,21,21,22,22,23,23,24,24,25,25,26,26,27,27,28,28,29,29,30,30,31,31,32,32,34,34,35,35,36,36,37,37,38,38,39,39,40,40,41,41,42,42,43,43,44,44,45,45,46,46,47,47,48,48,49,49,50,50,51,51,52,52,53,53,54,54,55,55,56,56,57,57,58,58,59,59],"right_children":[2,4,6,8,10,12,14,16,18,20,22,24,26,28,30,32,34,36,-1,38,40,42,44,46,48,50,52,54,56,58,60,62,64,-1,66,68,70,72,74,76,78,80,82,84,86,88,90,92,94,96,98,100,102,104,106,108,110,112,114,116,-1,-1,-1,-1,-1,-1,-1,-1,-1,-1,-1,-1,-1,-1,-1,-1,-1,-1,-1,-1,-1,-1,-1,-1,-1,-1,-1,-1,-1,-1,-1,-1,-1,-1,-1,-1,-1,-1,-1,-1,-1,-1,-1,-1,-1,-1,-1,-1,-1,-1,-1,-1,-1,-1,-1,-1,-1],"split_conditions":[1E0,1.075932E3,1E0,1E0,8E-1,6.666667E-1,2.99E2,4.1E1,1.6E1,2E2,1E0,2.4E1,1.84E2,4.472136E-1,2E0,5E-1,3.3333334E-1,1.5675E2,1.2422297E-1,2E0,-1E0,4.1E1,1E0,9E0,1E0,3.5E1,4.1E1,2E0,4E1,3E0,5E0,3E0,3.87E2,1.2357445E-1,1E0,1.8E1,1.9E1,2.6E1,1.8E1,-2.2E1,6.4E1,0E0,1.2753049E4,1.614E2,-8E0,7.6E1,2.2E1,7E0,1E0,2E1,9.714286E-1,4E1,1.29E2,3E0,6.27E2,2.4666666E1,3.99E2,2.9E1,2.7E1,4.5E1,-1.289291E-1,1.2043097E-1,1.0825954E-1,4.2591143E-2,-6.355558E-2,-1.12929E-1,-7.067912E-2,1.2132007E-1,4.7363274E-2,1.1402867E-1,4.9605258E-2,7.8369014E-2,8.873806E-2,9.3317546E-2,1.0592419E-1,3.357015E-2,7.787326E-2,6.21642E-2,9.984308E-3,1.4485441E-1,-6.0246166E-2,-4.113041E-2,-1.1061951E-1,6.97402E-2,-2.6542589E-2,4.9781635E-2,1.0877966E-1,1.03460886E-1,-1.2686896E-1,-2.7547374E-3,1.5817322E-1,2.385976E-2,1.17819145E-1,-6.394831E-2,7.284166E-2,7.035171E-2,7.5613423E-3,-1.01922624E-1,1.4442395E-1,-1.1346813E-1,-6.296989E-2,-1.2368705E-1,-1.1034905E-1,1.1217681E-1,-1.3185339E-1,-1.8649147E-1,8.023674E-2,-1.8979208E-1,1.1225517E-1,-1.1135202E-1,7.140452E-2,-1.3426112E-1,1.610518E-1,-1.1048322E-1,1.3038124E-1,1.1526828E-1,-9.786876E-2],"split_indices":[20,80,27,22,23,28,29,16,54,5,22,17,24,7,27,28,23,6,0,54,20,16,54,20,18,32,16,15,16,21,26,77,5,0,91,82,91,92,16,20,36,20,74,25,20,25,17,20,1,62,71,16,32,26,5,10,24,62,17,82,0,0,0,0,0,0,0,0,0,0,0,0,0,0,0,0,0,0,0,0,0,0,0,0,0,0,0,0,0,0,0,0,0,0,0,0,0,0,0,0,0,0,0,0,0,0,0,0,0,0,0,0,0,0,0,0,0],"split_type":[0,0,0,0,0,0,0,0,0,0,0,0,0,0,0,0,0,0,0,0,0,0,0,0,0,0,0,0,0,0,0,0,0,0,0,0,0,0,0,0,0,0,0,0,0,0,0,0,0,0,0,0,0,0,0,0,0,0,0,0,0,0,0,0,0,0,0,0,0,0,0,0,0,0,0,0,0,0,0,0,0,0,0,0,0,0,0,0,0,0,0,0,0,0,0,0,0,0,0,0,0,0,0,0,0,0,0,0,0,0,0,0,0,0,0,0,0],"sum_hessian":[2.0776664E5,8.532506E4,1.2244158E5,5.8587934E4,2.6737129E4,1.1119368E5,1.1247903E4,3.5176945E4,2.341099E4,2.1980857E4,4.7562715E3,2.1876602E4,8.931708E4,1.0455115E4,7.9278827E2,3.4014816E4,1.1621287E3,3.9110566E3,1.9499934E4,1.6798406E4,5.18245E3,2.1488057E3,2.6074658E3,1.478918E4,7.0874224E3,1.1071075E3,8.820997E4,9.346946E3,1.1081682E3,7.4326044E2,4.9527866E1,3.3635574E4,3.7923962E2,2.1831717E2,9.438116E2,3.2095503E3,7.0150635E2,1.1886661E4,4.9117456E3,3.9334746E3,1.2489758E3,1.1364473E3,1.0123583E3,8.2793994E2,1.779526E3,7.269762E2,1.4062203E4,5.383085E3,1.7043378E3,9.4115814E2,1.6594942E2,3.30373E4,5.5172668E4,9.282685E3,6.426191E1,4.4467545E2,6.6349286E2,1.4484878E1,7.287756E2,4.38353E1,5.6925635E0,2.4779488E4,8.856087E3,1.8936671E2,1.8987292E2,3.8246964E2,5.613419E2,3.206597E3,2.95342E0,6.9313165E2,8.374711E0,6.976187E3,4.9104746E3,2.8549944E3,2.0567512E3,2.783969E2,3.6550776E3,7.762804E2,4.726954E2,1.5959349E2,9.768538E2,2.2420145E2,7.8815686E2,7.0010803E2,1.2783194E2,1.7739226E2,1.6021337E3,5.4687347E1,6.722889E2,1.34257705E4,6.364324E2,2.1072585E3,3.2758262E3,1.426679E3,2.7765878E2,5.4631573E2,3.9484238E2,1.564248E2,9.524619E0,2.4247918E4,8.789383E3,4.6380023E4,8.7926455E3,9.246904E3,3.578018E1,4.500913E1,1.9252779E1,2.2933645E0,4.4238208E2,4.778815E2,1.8561134E2,3.6000752E0,1.0884803E1,7.1975287E2,9.022671E0,4.1540516E1,2.2947872E0],"tree_param":{"num_deleted":"0","num_feature":"99","num_nodes":"117","size_leaf_vector":"1"}},{"base_weights":[-1.4435194E-3,9.791537E-1,-6.814437E-1,1.1231273E0,6.7251533E-1,-8.3254963E-1,8.203858E-1,1.0699514E0,1.2034094E0,7.767657E-1,2.0013079E-1,1.3706294E-1,-1.0820484E0,9.502388E-1,-9.435951E-1,1.1313704E0,-2.9508817E-1,1.2106571E0,1.1487753E0,8.206386E-1,6.391696E-1,-6.064391E-1,8.2298476E-1,-2.7931595E-2,4.9057367E-1,7.468785E-1,-1.092618E0,1.0533476E0,1.3098152E-1,-1.0614213E0,7.422409E-1,1.1668262E0,1.0322682E0,-5.296309E-1,1.2354293E-1,1.2134E-1,1.1766262E0,1.1730798E0,1.0284896E0,7.7290434E-1,9.35283E-1,7.2576666E-1,4.7069868E-1,-3.3964047E-1,-9.160293E-1,5.3717315E-1,9.69571E-1,-1.0566595E0,2.4076082E-2,7.7373713E-1,-4.1561916E-1,7.729294E-1,-2.3184764E-1,-1.12478E0,-6.6520196E-1,1.1583859E0,7.12739E-1,1.0761212E0,-5.3696847E-1,1.4663103E-1,-1.13809E0,9.8937166E-1,-1.2135422E-1,1.170273E-1,5.981354E-2,1.0370239E-1,-1.043753E-1,-6.503447E-2,2.7974868E-2,1.1778563E-1,6.5070175E-2,1.0416182E-1,1.18293665E-1,1.0445132E-1,-6.0113866E-2,-2.0421965E-1,7.7384464E-2,8.818266E-2,1.0228566E-1,5.3269394E-2,7.884791E-2,1.8750582E-2,6.431436E-2,5.9646793E-2,-9.658787E-2,-1.0452648E-1,-4.328553E-2,6.602589E-2,-1.4356139E-2,4.3983556E-2,1.01573944E-1,7.376324E-2,-1.1917849E-1,-3.8614646E-3,1.4256848E-1,2.0312518E-2,1.1395327E-1,-6.155252E-2,9.450533E-2,8.81827E-2,3.3424675E-2,-1.21658936E-1,-1.0464028E-1,-8.47367E-2,4.8878413E-2,1.1622752E-1,-1.4171325E-1,7.625478E-2,-1.00538686E-1,1.2889168E-1,8.487276E-2,-1.05380826E-1,7.3447414E-2,-1.293271E-1,9.0048395E-2,-1.1733524E-1,1.1075889E-1,1.1619788E-1,-1.05806135E-1],"categories":[],"categories_nodes":[],"categories_segments":[],"categories_sizes":[],"default_left":[0,0,0,0,0,0,0,0,0,0,0,0,0,0,0,0,0,0,0,0,0,0,0,0,0,0,0,0,0,0,0,0,0,0,0,0,0,0,0,0,0,0,0,0,0,0,0,0,0,0,0,0,0,0,0,0,0,0,0,0,0,0,0,0,0,0,0,0,0,0,0,0,0,0,0,0,0,0,0,0,0,0,0,0,0,0,0,0,0,0,0,0,0,0,0,0,0,0,0,0,0,0,0,0,0,0,0,0,0,0,0,0,0,0,0,0,0,0,0],"id":10,"left_children":[1,3,5,7,9,11,13,15,17,19,21,23,25,27,29,31,33,35,37,39,41,43,45,47,49,51,53,55,57,59,61,63,65,67,-1,-1,69,71,73,75,77,79,81,83,85,87,89,91,93,95,97,99,-1,101,103,105,107,109,111,113,115,117,-1,-1,-1,-1,-1,-1,-1,-1,-1,-1,-1,-1,-1,-1,-1,-1,-1,-1,-1,-1,-1,-1,-1,-1,-1,-1,-1,-1,-1,-1,-1,-1,-1,-1,-1,-1,-1,-1,-1,-1,-1,-1,-1,-1,-1,-1,-1,-1,-1,-1,-1,-1,-1,-1,-1,-1,-1],"loss_changes":[1.3041286E5,3.5349297E3,2.6209602E4,2.31375E2,1.2601094E3,2.5385344E4,2.4193599E3,2.7496055E3,7.201172E0,1.260293E2,2.3254805E3,1.2526614E3,1.6141484E3,8.306367E2,1.4468811E2,1.090625E2,5.077824E2,3.6132812E-1,6.282959E0,8.624707E1,7.366748E1,1.663028E2,1.0890405E2,7.8345917E2,1.7539375E3,4.01333E1,1.1399219E3,3.116963E2,6.9536334E2,6.2919617E1,2.4358877E1,4.458789E1,8.280469E1,1.199368E2,0E0,0E0,1.7895508E-1,1.5197754E0,1.2084564E1,3.1296875E1,2.0946045E1,4.0127197E1,8.412616E1,6.366599E2,5.781421E1,7.4471405E1,4.174536E1,1.7173346E2,1.2248854E3,1.0866787E3,4.43328E2,2.2484558E1,0E0,5.5403125E2,1.2216602E3,6.850781E1,1.771847E2,2.0973572E1,4.249538E2,4.601537E1,5.1758972E1,1.6457256E1,0E0,0E0,0E0,0E0,0E0,0E0,0E0,0E0,0E0,0E0,0E0,0E0,0E0,0E0,0E0,0E0,0E0,0E0,0E0,0E0,0E0,0E0,0E0,0E0,0E0,0E0,0E0,0E0,0E0,0E0,0E0,0E0,0E0,0E0,0E0,0E0,0E0,0E0,0E0,0E0,0E0,0E0,0E0,0E0,0E0,0E0,0E0,0E0,0E0,0E0,0E0,0E0,0E0,0E0,0E0,0E0,0E0],"parents":[2147483647,0,0,1,1,2,2,3,3,4,4,5,5,6,6,7,7,8,8,9,9,10,10,11,11,12,12,13,13,14,14,15,15,16,16,17,17,18,18,19,19,20,20,21,21,22,22,23,23,24,24,25,25,26,26,27,27,28,28,29,29,30,30,31,31,32,32,33,33,36,36,37,37,38,38,39,39,40,40,41,41,42,42,43,43,44,44,45,45,46,46,47,47,48,48,49,49,50,50,51,51,53,53,54,54,55,55,56,56,57,57,58,58,59,59,60,60,61,61],"right_children":[2,4,6,8,10,12,14,16,18,20,22,24,26,28,30,32,34,36,38,40,42,44,46,48,50,52,54,56,58,60,62,64,66,68,-1,-1,70,72,74,76,78,80,82,84,86,88,90,92,94,96,98,100,-1,102,104,106,108,110,112,114,116,118,-1,-1,-1,-1,-1,-1,-1,-1,-1,-1,-1,-1,-1,-1,-1,-1,-1,-1,-1,-1,-1,-1,-1,-1,-1,-1,-1,-1,-1,-1,-1,-1,-1,-1,-1,-1,-1,-1,-1,-1,-1,-1,-1,-1,-1,-1,-1,-1,-1,-1,-1,-1,-1,-1,-1,-1,-1],"split_conditions":[1E0,6E0,1E0,1E0,1E0,6.666667E-1,2.99E2,2E0,3E0,2.98E2,9.090909E-2,2.4E1,3.5E1,4.472136E-1,2E0,3E0,4.7E1,1.5E2,1.53E2,2E0,-2E0,4.1E1,1E0,9E0,1E0,9.6E-1,1.8E2,4.2E1,4E1,3E0,5E0,4.1E1,6E-1,7E0,1.2354293E-1,1.2134E-1,2.863E3,-1.4E1,0E0,-9E1,3.2637362E0,-1.5E1,5.321429E0,3E2,8.968254E-1,4.472136E-1,-1.3E1,7.6E1,2.2E1,7E0,2.857143E-1,4.87E2,-2.3184764E-1,1.29E2,2.7E1,3E0,2E0,1.84E2,1.33E2,4.7E1,2.7E1,9.4E1,-1.2135422E-1,1.170273E-1,5.981354E-2,1.0370239E-1,-1.043753E-1,-6.503447E-2,2.7974868E-2,1.1778563E-1,6.5070175E-2,1.0416182E-1,1.18293665E-1,1.0445132E-1,-6.0113866E-2,-2.0421965E-1,7.7384464E-2,8.818266E-2,1.0228566E-1,5.3269394E-2,7.884791E-2,1.8750582E-2,6.431436E-2,5.9646793E-2,-9.658787E-2,-1.0452648E-1,-4.328553E-2,6.602589E-2,-1.4356139E-2,4.3983556E-2,1.01573944E-1,7.376324E-2,-1.1917849E-1,-3.8614646E-3,1.4256848E-1,2.0312518E-2,1.1395327E-1,-6.155252E-2,9.450533E-2,8.81827E-2,3.3424675E-2,-1.21658936E-1,-1.0464028E-1,-8.47367E-2,4.8878413E-2,1.1622752E-1,-1.4171325E-1,7.625478E-2,-1.00538686E-1,1.2889168E-1,8.487276E-2,-1.05380826E-1,7.3447414E-2,-1.293271E-1,9.0048395E-2,-1.1733524E-1,1.1075889E-1,1.1619788E-1,-1.05806135E-1],"split_indices":[20,82,27,22,18,28,29,2,76,5,4,17,29,7,27,77,17,8,25,54,20,16,54,20,18,61,8,83,16,2,26,16,23,91,0,0,58,20,20,20,97,20,97,5,78,7,20,25,17,20,4,77,0,8,17,26,15,29,25,50,17,83,0,0,0,0,0,0,0,0,0,0,0,0,0,0,0,0,0,0,0,0,0,0,0,0,0,0,0,0,0,0,0,0,0,0,0,0,0,0,0,0,0,0,0,0,0,0,0,0,0,0,0,0,0,0,0,0,0],"split_type":[0,0,0,0,0,0,0,0,0,0,0,0,0,0,0,0,0,0,0,0,0,0,0,0,0,0,0,0,0,0,0,0,0,0,0,0,0,0,0,0,0,0,0,0,0,0,0,0,0,0,0,0,0,0,0,0,0,0,0,0,0,0,0,0,0,0,0,0,0,0,0,0,0,0,0,0,0,0,0,0,0,0,0,0,0,0,0,0,0,0,0,0,0,0,0,0,0,0,0,0,0,0,0,0,0,0,0,0,0,0,0,0,0,0,0,0,0,0,0],"sum_hessian":[1.9557633E5,8.008662E4,1.154897E5,5.449658E4,2.5590045E4,1.04932414E5,1.0557286E4,3.279119E4,2.1705385E4,2.0963066E4,4.6269775E3,2.1475168E4,8.345725E4,9.833843E3,7.234434E2,3.1379467E4,1.4117241E3,1.914453E4,2.5608564E3,1.5891164E4,5.071903E3,2.0161604E3,2.6108174E3,1.4642142E4,6.833026E3,4.7913547E2,8.297811E4,8.734291E3,1.0995525E3,6.765299E2,4.6913513E1,2.310308E4,8.276387E3,1.2247001E3,1.8702408E2,1.7684479E4,1.4600507E3,2.1231152E3,4.3774124E2,1.1225122E4,4.6660415E3,3.3477773E3,1.7241255E3,1.0840472E3,9.3211316E2,8.866689E2,1.7241484E3,7.036866E2,1.3938455E4,5.2063213E3,1.6267041E3,4.7583942E2,3.296061E0,7.7169625E4,5.8084834E3,6.673797E3,2.060494E3,4.5505087E2,6.445016E2,4.0319077E1,6.362108E2,4.2089283E1,4.824228E0,2.296285E4,1.4022932E2,8.257971E3,1.841674E1,1.0659213E3,1.5877878E2,1.4554066E3,4.6439605E0,1.5552625E2,1.9675891E3,4.3383453E2,3.906691E0,3.0233223E0,1.1222099E4,2.9042852E3,1.7617566E3,8.231229E2,2.5246543E3,6.533186E2,1.0708069E3,4.3453967E2,6.4950757E2,7.344934E2,1.9761974E2,7.5092236E2,1.3574652E2,1.3906361E2,1.5850848E3,4.896993E1,6.547167E2,1.3342643E4,5.958132E2,2.0343899E3,3.1719316E3,1.418805E3,2.0789908E2,3.8039966E2,9.543976E1,3.553283E4,4.1636797E4,5.0168096E3,7.916739E2,6.6642817E3,9.514935E0,2.0029832E3,5.7510628E1,2.3265947E2,2.2239142E2,4.583529E2,1.8614868E2,1.3609193E1,2.6709885E1,6.268454E2,9.365404E0,3.921571E1,2.8735764E0],"tree_param":{"num_deleted":"0","num_feature":"99","num_nodes":"119","size_leaf_vector":"1"}},{"base_weights":[1.2624221E-3,9.4362676E-1,-6.505963E-1,1.0958885E0,6.332626E-1,-7.9461396E-1,7.89634E-1,1.0418903E0,1.1763726E0,7.348322E-1,1.6987151E-1,1.2165216E-1,-1.0431513E0,9.1650325E-1,-8.847092E-1,1.1049052E0,1.0783807E-1,1.132787E0,1.1853542E0,7.7993155E-1,5.951069E-1,-5.6216806E-1,7.937088E-1,-4.9303308E-2,4.495786E-1,2.1143791E-1,-1.0605439E0,1.0167015E0,1.2122503E-1,-9.9904263E-1,7.0757765E-1,1.1395063E0,9.9478894E-1,9.77791E-1,-3.0216148E-1,1.1501664E0,1.0579523E0,1.1854702E0,5.9288615E-1,7.3185384E-1,8.9556414E-1,7.794871E-1,5.248275E-1,-6.140893E-1,9.754591E-1,4.7732133E-1,9.460975E-1,-1.1438828E0,1.0467722E-2,6.8523955E-1,-3.843797E-1,6.396986E-1,-8.68417E-2,-1.176321E0,-9.585155E-1,6.651387E-1,1.1176565E0,1.2555172E0,-2.9074073E-1,-1.0711756E0,-1.5709865E-1,9.902689E-1,-1.1056843E-1,1.08692706E-1,1.16009906E-1,1.0453093E-1,9.0072595E-2,1.07414834E-1,-1.4746156E-1,-6.37339E-2,1.745501E-2,8.898263E-2,1.15272574E-1,1.0694642E-1,2.5346288E-2,1.1855283E-1,4.9833026E-2,2.2035314E-2,8.009014E-2,6.760174E-2,7.857699E-2,8.434284E-2,9.798402E-2,7.89654E-2,-1.3797362E-1,5.855003E-2,1.8352464E-2,1.2717403E-1,-6.530881E-2,1.10245906E-1,-1.8511692E-1,8.6772546E-2,1.6009012E-2,4.129436E-2,9.9011414E-2,-1.652701E-1,-7.671859E-2,-6.1599268E-3,1.489092E-1,2.0030012E-2,1.1368535E-1,-5.6877233E-2,8.893412E-2,6.983706E-2,-1.4870338E-1,-7.6603144E-2,2.716487E-2,-1.1862625E-1,-9.611164E-2,-9.050703E-2,-1.21926524E-1,7.575997E-2,-1.798899E-2,1.1625415E-1,9.988942E-2,-1.7481087E-1,1.2820478E-1,-1.3678859E-1,6.158172E-2,-1.9279156E-3,-1.1132302E-1,-1.2297534E-1,9.680335E-2,-1.23829305E-1,1.137686E-1],"categories":[],"categories_nodes":[],"categories_segments":[],"categories_sizes":[],"default_left":[0,0,0,0,0,0,0,0,0,0,0,0,0,0,0,0,0,0,0,0,0,0,0,0,0,0,0,0,0,0,0,0,0,0,0,0,0,0,0,0,0,0,0,0,0,0,0,0,0,0,0,0,0,0,0,0,0,0,0,0,0,0,0,0,0,0,0,0,0,0,0,0,0,0,0,0,0,0,0,0,0,0,0,0,0,0,0,0,0,0,0,0,0,0,0,0,0,0,0,0,0,0,0,0,0,0,0,0,0,0,0,0,0,0,0,0,0,0,0,0,0,0,0,0,0],"id":11,"left_children":[1,3,5,7,9,11,13,15,17,19,21,23,25,27,29,31,33,35,37,39,41,43,45,47,49,51,53,55,57,59,61,63,65,67,69,71,73,75,77,79,81,83,85,87,89,91,93,95,97,99,101,103,105,107,109,111,113,115,117,119,121,123,-1,-1,-1,-1,-1,-1,-1,-1,-1,-1,-1,-1,-1,-1,-1,-1,-1,-1,-1,-1,-1,-1,-1,-1,-1,-1,-1,-1,-1,-1,-1,-1,-1,-1,-1,-1,-1,-1,-1,-1,-1,-1,-1,-1,-1,-1,-1,-1,-1,-1,-1,-1,-1,-1,-1,-1,-1,-1,-1,-1,-1,-1,-1],"loss_changes":[1.1334778E5,3.5646953E3,2.2624035E4,2.1874219E2,1.1687275E3,2.258068E4,2.1071392E3,1.7833281E3,6.611328E0,1.27890625E2,2.0399552E3,1.1861686E3,1.7022266E3,7.344009E2,1.2794806E2,1.0701953E2,6.8372705E2,3.3266602E0,4.5117188E-1,8.493359E1,6.405115E1,1.646922E2,1.158219E2,9.099748E2,1.4252205E3,1.364032E2,9.0764844E2,2.898047E2,4.8286475E2,3.946051E1,2.5396706E1,2.2115234E1,3.1347168E1,1.4667804E2,2.0832199E2,8.5595703E-1,5.942322E0,8.203125E-2,2.338568E-1,3.2222168E1,1.9019531E1,3.1181458E1,7.453851E1,1.4710193E2,2.6280678E1,9.720369E1,3.7764526E1,1.3677008E2,1.4055632E3,1.237906E3,3.7584186E2,5.5732773E1,1.5361336E2,7.5953125E1,5.68875E2,1.4302386E2,3.27334E1,2.4178284E1,7.41281E2,2.6558594E1,6.474997E1,1.5056721E1,0E0,0E0,0E0,0E0,0E0,0E0,0E0,0E0,0E0,0E0,0E0,0E0,0E0,0E0,0E0,0E0,0E0,0E0,0E0,0E0,0E0,0E0,0E0,0E0,0E0,0E0,0E0,0E0,0E0,0E0,0E0,0E0,0E0,0E0,0E0,0E0,0E0,0E0,0E0,0E0,0E0,0E0,0E0,0E0,0E0,0E0,0E0,0E0,0E0,0E0,0E0,0E0,0E0,0E0,0E0,0E0,0E0,0E0,0E0,0E0,0E0,0E0,0E0],"parents":[2147483647,0,0,1,1,2,2,3,3,4,4,5,5,6,6,7,7,8,8,9,9,10,10,11,11,12,12,13,13,14,14,15,15,16,16,17,17,18,18,19,19,20,20,21,21,22,22,23,23,24,24,25,25,26,26,27,27,28,28,29,29,30,30,31,31,32,32,33,33,34,34,35,35,36,36,37,37,38,38,39,39,40,40,41,41,42,42,43,43,44,44,45,45,46,46,47,47,48,48,49,49,50,50,51,51,52,52,53,53,54,54,55,55,56,56,57,57,58,58,59,59,60,60,61,61],"right_children":[2,4,6,8,10,12,14,16,18,20,22,24,26,28,30,32,34,36,38,40,42,44,46,48,50,52,54,56,58,60,62,64,66,68,70,72,74,76,78,80,82,84,86,88,90,92,94,96,98,100,102,104,106,108,110,112,114,116,118,120,122,124,-1,-1,-1,-1,-1,-1,-1,-1,-1,-1,-1,-1,-1,-1,-1,-1,-1,-1,-1,-1,-1,-1,-1,-1,-1,-1,-1,-1,-1,-1,-1,-1,-1,-1,-1,-1,-1,-1,-1,-1,-1,-1,-1,-1,-1,-1,-1,-1,-1,-1,-1,-1,-1,-1,-1,-1,-1,-1,-1,-1,-1,-1,-1],"split_conditions":[1E0,9.80981E2,1E0,1.6666667E-1,1E0,5E-1,2.99E2,6E-1,1.6E1,2E2,1E0,2.3E1,1.84E2,4.472136E-1,2E0,5E0,1.49E2,1.5675E2,3E0,2E0,8.040728E3,4.7E1,1E0,1E1,1E0,3.5E1,2.98E2,2E0,1.99E2,4.46E2,4.5E1,1.9E1,2.58E2,1E0,1E2,1E0,0E0,6.1E2,4.9204927E3,5E0,3.2637362E0,7.7E1,0E0,2.6E1,8.1852837E3,1E2,-1.3E1,2.2E1,2.1E1,8E0,2.857143E-1,4.833E3,2.97E2,2.188E3,3.8E2,1.99E2,2E0,3E1,2.98E2,4.9E1,1E1,2.4390244E-1,-1.1056843E-1,1.08692706E-1,1.16009906E-1,1.0453093E-1,9.0072595E-2,1.07414834E-1,-1.4746156E-1,-6.37339E-2,1.745501E-2,8.898263E-2,1.15272574E-1,1.0694642E-1,2.5346288E-2,1.1855283E-1,4.9833026E-2,2.2035314E-2,8.009014E-2,6.760174E-2,7.857699E-2,8.434284E-2,9.798402E-2,7.89654E-2,-1.3797362E-1,5.855003E-2,1.8352464E-2,1.2717403E-1,-6.530881E-2,1.10245906E-1,-1.8511692E-1,8.6772546E-2,1.6009012E-2,4.129436E-2,9.9011414E-2,-1.652701E-1,-7.671859E-2,-6.1599268E-3,1.489092E-1,2.0030012E-2,1.1368535E-1,-5.6877233E-2,8.893412E-2,6.983706E-2,-1.4870338E-1,-7.6603144E-2,2.716487E-2,-1.1862625E-1,-9.611164E-2,-9.050703E-2,-1.21926524E-1,7.575997E-2,-1.798899E-2,1.1625415E-1,9.988942E-2,-1.7481087E-1,1.2820478E-1,-1.3678859E-1,6.158172E-2,-1.9279156E-3,-1.1132302E-1,-1.2297534E-1,9.680335E-2,-1.23829305E-1,1.137686E-1],"split_indices":[20,80,27,4,18,28,29,3,54,5,22,17,24,7,27,77,5,6,1,54,80,17,54,20,18,29,24,54,29,29,82,54,5,91,24,22,20,48,39,94,97,83,20,17,40,29,20,17,17,20,4,46,5,95,24,32,91,10,29,95,91,52,0,0,0,0,0,0,0,0,0,0,0,0,0,0,0,0,0,0,0,0,0,0,0,0,0,0,0,0,0,0,0,0,0,0,0,0,0,0,0,0,0,0,0,0,0,0,0,0,0,0,0,0,0,0,0,0,0,0,0,0,0,0,0],"split_type":[0,0,0,0,0,0,0,0,0,0,0,0,0,0,0,0,0,0,0,0,0,0,0,0,0,0,0,0,0,0,0,0,0,0,0,0,0,0,0,0,0,0,0,0,0,0,0,0,0,0,0,0,0,0,0,0,0,0,0,0,0,0,0,0,0,0,0,0,0,0,0,0,0,0,0,0,0,0,0,0,0,0,0,0,0,0,0,0,0,0,0,0,0,0,0,0,0,0,0,0,0,0,0,0,0,0,0,0,0,0,0,0,0,0,0,0,0,0,0,0,0,0,0,0,0],"sum_hessian":[1.8451683E5,7.544654E4,1.0907029E5,5.0613504E4,2.483304E4,9.9155555E4,9.914736E3,3.0299195E4,2.0314309E4,2.0368027E4,4.4650103E3,2.1157203E4,7.799835E4,9.216808E3,6.979287E2,2.8384105E4,1.9150902E3,3.4926116E3,1.6821697E4,1.5394536E4,4.9734917E3,2.0543914E3,2.4106191E3,1.390767E4,7.249533E3,1.066372E3,7.693198E4,8.1852583E3,1.0315498E3,6.515192E2,4.6409477E1,2.1590525E4,6.793579E3,6.1300586E2,1.3020844E3,2.8227073E3,6.6990436E2,1.6817402E4,4.295189E0,1.0878716E4,4.5158203E3,1.3697694E3,3.6037222E3,1.9878674E3,6.6523895E1,7.849822E2,1.6256371E3,7.1918506E2,1.3188485E4,5.652439E3,1.5970944E3,4.373268E2,6.290451E2,3.6032945E4,4.0899035E4,1.8277937E3,6.3574644E3,2.7428778E2,7.57262E2,5.998548E2,5.166441E1,4.0542667E1,5.8668103E0,6.0913457E3,1.5499181E4,4.4131846E3,2.3803943E3,5.903716E2,2.263424E1,7.6433844E2,5.377459E2,3.0873865E1,2.7918333E3,6.601288E2,9.77561E0,1.6815256E4,2.1463354E0,2.2768705E0,2.0183184E0,5.3508325E3,5.527884E3,2.7967039E3,1.7191166E3,1.3639813E3,5.788157E0,3.059181E3,5.445412E2,3.9635582E1,1.9482318E3,6.424725E1,2.2766454E0,3.511277E2,4.338545E2,1.2476721E2,1.5008699E3,3.0449936E2,4.146857E2,1.2576476E4,6.120092E2,2.7263499E3,2.9260889E3,1.3956097E3,2.0148463E2,4.262394E2,1.1087416E1,2.1692532E2,4.1211978E2,3.4437574E4,1.5953724E3,3.394574E4,6.9532944E3,1.6476189E3,1.8017487E2,4.607366E3,1.7500981E3,1.833379E0,2.7245438E2,3.4583835E2,4.1142368E2,2.3116198E1,5.767386E2,2.6401407E1,2.5263002E1,2.0563343E0,3.8486336E1],"tree_param":{"num_deleted":"0","num_feature":"99","num_nodes":"125","size_leaf_vector":"1"}},{"base_weights":[4.7270462E-4,9.088431E-1,-6.1984366E-1,1.0609223E0,5.939772E-1,-7.562691E-1,7.611533E-1,1.0035617E0,1.1520442E0,6.8438965E-1,1.9311349E-1,1.4440683E-1,-1.0021573E0,8.79391E-1,-7.746446E-1,1.0672529E0,-3.1048584E-1,1.0841376E0,1.1617328E0,7.308586E-1,5.376941E-1,-4.9683663E-1,7.3892653E-1,-5.712853E-3,9.119159E-1,-1.8404138E-1,-1.0291367E0,4.4160062E-1,1.0515695E0,-8.8696915E-1,7.028736E-1,1.1052223E0,9.5235205E-1,-5.0089777E-1,1.1747645E0,1.0942391E0,7.506903E-1,1.1652779E-1,1.1182729E0,6.850081E-1,8.5144126E-1,5.894485E-1,2.1664311E-1,-2.1718936E-1,-8.3941245E-1,4.5770568E-1,8.9836454E-1,-9.894328E-1,2.9030016E-2,9.5494527E-1,1.6313305E-1,1.816781E-1,-4.517131E-1,-8.7101686E-1,-1.1271827E0,8.827992E-1,-6.491164E-2,1.0638711E0,-3.981337E-1,4.111444E-1,-9.711793E-1,9.2445505E-1,-1.1586722E-1,1.1092579E-1,4.96079E-2,9.574023E-2,-9.120523E-2,-1.2729932E-1,-3.95623E-2,1.181181E-1,4.6846826E-2,1.11663364E-1,1.00972496E-1,-2.0411316E-1,8.3570376E-2,1.1204803E-1,3.884728E-2,1.8210953E-2,6.9185354E-2,7.9734124E-2,9.3549475E-2,8.3533235E-2,5.4833133E-2,6.2402815E-2,-1.1744447E-2,1.384004E-1,-5.779324E-2,-3.1058183E-2,-1.1072987E-1,5.982166E-2,-2.1597074E-2,3.6621254E-2,9.460079E-2,7.641278E-2,-1.1558767E-1,-2.5273697E-3,1.2954836E-1,6.524406E-2,9.96637E-2,-1.3294683E-1,4.34032E-2,-3.2048892E-2,3.7403006E-2,-9.5820986E-2,-1.3392267E-2,-1.02044284E-1,-4.803821E-2,-1.1618973E-1,-9.337931E-2,3.561809E-2,1.0523609E-1,-8.8472545E-2,6.6781215E-2,1.1535157E-1,9.744477E-2,1.19435154E-1,-1.1144259E-1,2.112658E-1,-3.961157E-2,-1.0079872E-1,1.3032755E-1,1.060511E-1,-9.046618E-2],"categories":[],"categories_nodes":[],"categories_segments":[],"categories_sizes":[],"default_left":[0,0,0,0,0,0,0,0,0,0,0,0,0,0,0,0,0,0,0,0,0,0,0,0,0,0,0,0,0,0,0,0,0,0,0,0,0,0,0,0,0,0,0,0,0,0,0,0,0,0,0,0,0,0,0,0,0,0,0,0,0,0,0,0,0,0,0,0,0,0,0,0,0,0,0,0,0,0,0,0,0,0,0,0,0,0,0,0,0,0,0,0,0,0,0,0,0,0,0,0,0,0,0,0,0,0,0,0,0,0,0,0,0,0,0,0,0,0,0,0,0,0,0],"id":12,"left_children":[1,3,5,7,9,11,13,15,17,19,21,23,25,27,29,31,33,35,37,39,41,43,45,47,49,51,53,55,57,59,61,63,65,67,69,71,73,-1,75,77,79,81,83,85,87,89,91,93,95,97,99,101,103,105,107,109,111,113,115,117,119,121,-1,-1,-1,-1,-1,-1,-1,-1,-1,-1,-1,-1,-1,-1,-1,-1,-1,-1,-1,-1,-1,-1,-1,-1,-1,-1,-1,-1,-1,-1,-1,-1,-1,-1,-1,-1,-1,-1,-1,-1,-1,-1,-1,-1,-1,-1,-1,-1,-1,-1,-1,-1,-1,-1,-1,-1,-1,-1,-1,-1,-1],"loss_changes":[9.7832734E4,3.3730078E3,1.9438078E4,2.4714844E2,8.3158203E2,2.0794602E4,1.6851182E3,2.4409766E3,1.08125E1,1.2724902E2,1.5913184E3,2.320178E3,1.6278047E3,6.4880176E2,1.1076001E2,1.20291016E2,3.820668E2,6.944336E0,1.1660156E0,7.8020996E1,7.478125E1,1.7863538E2,1.0536572E2,5.757052E2,1.0598755E2,2.3071027E2,1.1059922E3,5.4378394E2,1.10660645E2,6.786627E1,2.0641045E1,5.082422E1,6.598779E1,9.673505E1,1.4266968E-1,3.1035156E0,1.8551762E1,0E0,1.5535889E0,3.5351074E1,1.7045654E1,3.878772E1,8.546949E1,5.951811E2,1.1844995E2,8.1120514E1,3.779834E1,1.6859827E2,1.1189869E3,3.863745E1,7.3452415E1,9.6358215E1,2.1887311E2,1.5950078E3,2.9478906E2,1.15747925E2,6.815598E2,4.8013184E1,6.148996E1,5.3445602E1,4.9860107E1,1.1648945E1,0E0,0E0,0E0,0E0,0E0,0E0,0E0,0E0,0E0,0E0,0E0,0E0,0E0,0E0,0E0,0E0,0E0,0E0,0E0,0E0,0E0,0E0,0E0,0E0,0E0,0E0,0E0,0E0,0E0,0E0,0E0,0E0,0E0,0E0,0E0,0E0,0E0,0E0,0E0,0E0,0E0,0E0,0E0,0E0,0E0,0E0,0E0,0E0,0E0,0E0,0E0,0E0,0E0,0E0,0E0,0E0,0E0,0E0,0E0,0E0,0E0],"parents":[2147483647,0,0,1,1,2,2,3,3,4,4,5,5,6,6,7,7,8,8,9,9,10,10,11,11,12,12,13,13,14,14,15,15,16,16,17,17,18,18,19,19,20,20,21,21,22,22,23,23,24,24,25,25,26,26,27,27,28,28,29,29,30,30,31,31,32,32,33,33,34,34,35,35,36,36,38,38,39,39,40,40,41,41,42,42,43,43,44,44,45,45,46,46,47,47,48,48,49,49,50,50,51,51,52,52,53,53,54,54,55,55,56,56,57,57,58,58,59,59,60,60,61,61],"right_children":[2,4,6,8,10,12,14,16,18,20,22,24,26,28,30,32,34,36,38,40,42,44,46,48,50,52,54,56,58,60,62,64,66,68,70,72,74,-1,76,78,80,82,84,86,88,90,92,94,96,98,100,102,104,106,108,110,112,114,116,118,120,122,-1,-1,-1,-1,-1,-1,-1,-1,-1,-1,-1,-1,-1,-1,-1,-1,-1,-1,-1,-1,-1,-1,-1,-1,-1,-1,-1,-1,-1,-1,-1,-1,-1,-1,-1,-1,-1,-1,-1,-1,-1,-1,-1,-1,-1,-1,-1,-1,-1,-1,-1,-1,-1,-1,-1,-1,-1,-1,-1,-1,-1],"split_conditions":[1E0,1.670587E3,1E0,1E0,1E0,7.777778E-1,2.99E2,2E0,1.3E1,2.98E2,9.090909E-2,2.7E1,1.84E2,3E0,2E0,7.57913E2,4.7E1,1.075932E3,1.5E2,2E0,0E0,4.1E1,1E0,6E0,3.3333334E-1,3.1E1,4.1E1,4E1,3E0,3E0,5E0,4.1E1,6E-1,3.46E2,4.4E1,1.5E2,-1.2E1,1.1652779E-1,2.863E3,-2.4E1,2.5254238E0,2E2,3.7E1,0E0,3.7E1,1.5675E2,-1.2E1,1.1E1,2.5E1,2.8E1,-2.5304E3,1.98E2,4.6E1,4E1,1.616E3,3.9E1,1E0,1.99E2,4E1,5.6625143E-2,2.7E1,4.5E1,-1.1586722E-1,1.1092579E-1,4.96079E-2,9.574023E-2,-9.120523E-2,-1.2729932E-1,-3.95623E-2,1.181181E-1,4.6846826E-2,1.11663364E-1,1.00972496E-1,-2.0411316E-1,8.3570376E-2,1.1204803E-1,3.884728E-2,1.8210953E-2,6.9185354E-2,7.9734124E-2,9.3549475E-2,8.3533235E-2,5.4833133E-2,6.2402815E-2,-1.1744447E-2,1.384004E-1,-5.779324E-2,-3.1058183E-2,-1.1072987E-1,5.982166E-2,-2.1597074E-2,3.6621254E-2,9.460079E-2,7.641278E-2,-1.1558767E-1,-2.5273697E-3,1.2954836E-1,6.524406E-2,9.96637E-2,-1.3294683E-1,4.34032E-2,-3.2048892E-2,3.7403006E-2,-9.5820986E-2,-1.3392267E-2,-1.02044284E-1,-4.803821E-2,-1.1618973E-1,-9.337931E-2,3.561809E-2,1.0523609E-1,-8.8472545E-2,6.6781215E-2,1.1535157E-1,9.744477E-2,1.19435154E-1,-1.1144259E-1,2.112658E-1,-3.961157E-2,-1.0079872E-1,1.3032755E-1,1.060511E-1,-9.046618E-2],"split_indices":[20,80,27,22,18,3,29,2,54,5,4,17,24,54,27,74,17,80,8,54,20,16,54,20,3,17,16,16,26,2,26,16,3,95,92,8,20,0,58,20,97,95,55,20,36,6,20,17,17,17,87,5,17,16,95,16,34,29,16,72,17,82,0,0,0,0,0,0,0,0,0,0,0,0,0,0,0,0,0,0,0,0,0,0,0,0,0,0,0,0,0,0,0,0,0,0,0,0,0,0,0,0,0,0,0,0,0,0,0,0,0,0,0,0,0,0,0,0,0,0,0,0,0],"split_type":[0,0,0,0,0,0,0,0,0,0,0,0,0,0,0,0,0,0,0,0,0,0,0,0,0,0,0,0,0,0,0,0,0,0,0,0,0,0,0,0,0,0,0,0,0,0,0,0,0,0,0,0,0,0,0,0,0,0,0,0,0,0,0,0,0,0,0,0,0,0,0,0,0,0,0,0,0,0,0,0,0,0,0,0,0,0,0,0,0,0,0,0,0,0,0,0,0,0,0,0,0,0,0,0,0,0,0,0,0,0,0,0,0,0,0,0,0,0,0,0,0,0,0],"sum_hessian":[1.736213E5,7.045252E4,1.0316877E5,4.7505266E4,2.2947254E4,9.389369E4,9.275084E3,2.916078E4,1.8344488E4,1.872356E4,4.223694E3,2.0136205E4,7.375748E4,8.612457E3,6.6262695E2,2.781289E4,1.3478885E3,2.3045984E3,1.6039889E4,1.4216268E4,4.5072935E3,1.8655648E3,2.3581292E3,1.6842848E4,3.293357E3,2.3549272E3,7.1402555E4,2.4320808E3,6.180376E3,6.161829E2,4.6444035E1,2.0898344E4,6.9145474E3,1.1953102E3,1.5257831E2,2.2346208E3,6.997753E1,1.48063125E4,1.2335759E3,1.0304679E4,3.9115881E3,3.880852E3,6.264414E2,1.028019E3,8.375458E2,8.546125E2,1.5035167E3,5.736235E2,1.6269226E4,3.1141257E3,1.792311E2,9.953302E2,1.359597E3,2.7332734E4,4.406982E4,1.2994496E3,1.1326312E3,6.1286367E3,5.1739323E1,3.7300907E1,5.78882E2,4.1953648E1,4.4903865E0,2.0759986E4,1.3835701E2,6.896353E3,1.8194025E1,1.4209315E2,1.053217E3,1.5053836E2,2.0399454E0,1.7568715E3,4.777495E2,1.3879539E0,6.8589584E1,1.2293223E3,4.2536583E0,1.3875327E2,1.0165926E4,2.3862139E3,1.5253744E3,5.5322296E2,3.3276292E3,2.818666E2,3.4457483E2,1.8850124E2,8.395178E2,2.823405E2,5.5520526E2,7.072178E2,1.4739473E2,1.2426169E2,1.379255E3,4.941574E1,5.2420776E2,1.5601246E4,6.6797906E2,3.792232E2,2.7349026E3,2.6932203E1,1.5229889E2,2.7547925E2,7.1985095E2,5.2339343E2,8.362036E2,1.9769045E4,7.5636904E3,3.73587E4,6.7111187E3,3.1724936E2,9.822002E2,5.3445013E2,5.9818115E2,3.0545928E3,3.0740437E3,1.584493E1,3.5894394E1,1.1482159E1,2.5818748E1,5.7021106E2,8.670987E0,3.9440163E1,2.5134878E0],"tree_param":{"num_deleted":"0","num_feature":"99","num_nodes":"123","size_leaf_vector":"1"}},{"base_weights":[1.7541202E-3,8.7612844E-1,-5.916107E-1,1.0407661E0,5.610984E-1,-7.21907E-1,7.28733E-1,9.8210615E-1,1.130427E0,6.4689434E-1,1.6957152E-1,1.1281248E-1,-9.7832066E-1,8.465657E-1,-8.196757E-1,1.0354817E0,-6.5188354E-1,1.0717846E0,1.14245E0,6.9532007E-1,5.00258E-1,-4.7228518E-1,6.8639785E-1,9.173689E-1,4.3712504E-2,-7.888465E-1,-1.1055782E0,1.0262485E0,4.3491447E-1,-9.022274E-1,4.2814675E-1,1.0516702E0,6.22179E-2,-1.7830265E0,-6.0829675E-1,2.643235E-1,1.0749025E0,1.1425842E0,1.8118395E-2,6.491807E-1,8.130834E-1,6.9558954E-1,4.1763023E-1,-2.5359222E-1,-7.3052144E-1,7.3802805E-1,-2.3900367E-1,9.892781E-1,3.8122803E-1,-8.527922E-1,7.85891E-2,-9.537266E-1,-3.7946838E-1,-1.1444846E0,-1.0162393E0,1.0402979E0,-8.028095E-1,8.5345745E-1,-7.321594E-3,1.8569209E-1,-1.0114559E0,-7.260444E-1,8.0360985E-1,9.6470654E-2,1.1070204E-1,9.8115966E-2,-2.7528008E-2,-1.8689394E-1,-1.01793185E-1,-1.0995465E-1,-4.963525E-2,9.344012E-2,-1.9282094E-1,1.0989044E-1,9.704984E-2,9.310459E-2,1.1430998E-1,-1.2072922E-1,6.50854E-2,7.4751705E-2,9.201522E-2,-1.0949614E-1,7.0351556E-2,4.8040774E-2,6.94351E-3,1.0908277E-1,-5.5721488E-2,4.194386E-3,-9.033626E-2,-1.700925E-1,7.596359E-2,9.306366E-2,-7.873302E-2,9.133821E-2,1.0706337E-1,8.151259E-2,-1.6250332E-1,-1.187871E-1,7.674607E-2,3.406447E-3,1.22454464E-1,-1.0999612E-1,-5.1137894E-2,-4.7445204E-2,5.983473E-2,-1.14555135E-1,8.083646E-2,-8.6110495E-2,-1.0663136E-1,1.13235116E-1,9.493585E-2,-1.2974282E-1,9.691903E-2,4.1074038E-2,1.00297E-1,6.8479404E-2,-1.1389961E-1,-8.482596E-2,1.7186952E-1,-1.1303172E-1,-1.7774498E-2,8.2876354E-2,-1.2460684E-1,-1.289497E-1,1.0056933E-1],"categories":[],"categories_nodes":[],"categories_segments":[],